<GAP_2025_12_21_0_0_48_42_921>
<Potential label="GAP_2025_12_21_0_0_48_42_921" init_args="IP GAP label=GAP_2025_12_21_0_0_48_42_921"/>
<GAP_params label="GAP_2025_12_21_0_0_48_42_921" gap_version="1686220958">
  <GAP_data do_core="F">
    <e0 Z="1" value=".00000000000000000E+000"/>
    <e0 Z="2" value=".00000000000000000E+000"/>
    <e0 Z="3" value=".00000000000000000E+000"/>
    <e0 Z="4" value=".00000000000000000E+000"/>
    <e0 Z="5" value=".00000000000000000E+000"/>
    <e0 Z="6" value=".00000000000000000E+000"/>
    <e0 Z="7" value=".00000000000000000E+000"/>
    <e0 Z="8" value=".00000000000000000E+000"/>
    <e0 Z="9" value=".00000000000000000E+000"/>
    <e0 Z="10" value=".00000000000000000E+000"/>
    <e0 Z="11" value=".00000000000000000E+000"/>
    <e0 Z="12" value=".00000000000000000E+000"/>
    <e0 Z="13" value=".00000000000000000E+000"/>
    <e0 Z="14" value=".00000000000000000E+000"/>
    <e0 Z="15" value=".00000000000000000E+000"/>
    <e0 Z="16" value=".00000000000000000E+000"/>
    <e0 Z="17" value=".00000000000000000E+000"/>
    <e0 Z="18" value=".00000000000000000E+000"/>
    <e0 Z="19" value=".00000000000000000E+000"/>
    <e0 Z="20" value=".00000000000000000E+000"/>
    <e0 Z="21" value=".00000000000000000E+000"/>
    <e0 Z="22" value=".00000000000000000E+000"/>
    <e0 Z="23" value=".00000000000000000E+000"/>
    <e0 Z="24" value=".00000000000000000E+000"/>
    <e0 Z="25" value=".00000000000000000E+000"/>
    <e0 Z="26" value=".00000000000000000E+000"/>
    <e0 Z="27" value=".00000000000000000E+000"/>
    <e0 Z="28" value=".00000000000000000E+000"/>
    <e0 Z="29" value=".00000000000000000E+000"/>
    <e0 Z="30" value=".00000000000000000E+000"/>
    <e0 Z="31" value=".00000000000000000E+000"/>
    <e0 Z="32" value=".00000000000000000E+000"/>
    <e0 Z="33" value=".00000000000000000E+000"/>
    <e0 Z="34" value=".00000000000000000E+000"/>
    <e0 Z="35" value=".00000000000000000E+000"/>
    <e0 Z="36" value=".00000000000000000E+000"/>
    <e0 Z="37" value=".00000000000000000E+000"/>
    <e0 Z="38" value=".00000000000000000E+000"/>
    <e0 Z="39" value=".00000000000000000E+000"/>
    <e0 Z="40" value=".00000000000000000E+000"/>
    <e0 Z="41" value=".00000000000000000E+000"/>
    <e0 Z="42" value=".00000000000000000E+000"/>
    <e0 Z="43" value=".00000000000000000E+000"/>
    <e0 Z="44" value=".00000000000000000E+000"/>
    <e0 Z="45" value=".00000000000000000E+000"/>
    <e0 Z="46" value=".00000000000000000E+000"/>
    <e0 Z="47" value=".00000000000000000E+000"/>
    <e0 Z="48" value=".00000000000000000E+000"/>
    <e0 Z="49" value=".00000000000000000E+000"/>
    <e0 Z="50" value=".00000000000000000E+000"/>
    <e0 Z="51" value=".00000000000000000E+000"/>
    <e0 Z="52" value=".00000000000000000E+000"/>
    <e0 Z="53" value=".00000000000000000E+000"/>
    <e0 Z="54" value=".00000000000000000E+000"/>
    <e0 Z="55" value=".00000000000000000E+000"/>
    <e0 Z="56" value=".00000000000000000E+000"/>
    <e0 Z="57" value=".00000000000000000E+000"/>
    <e0 Z="58" value=".00000000000000000E+000"/>
    <e0 Z="59" value=".00000000000000000E+000"/>
    <e0 Z="60" value=".00000000000000000E+000"/>
    <e0 Z="61" value=".00000000000000000E+000"/>
    <e0 Z="62" value=".00000000000000000E+000"/>
    <e0 Z="63" value=".00000000000000000E+000"/>
    <e0 Z="64" value=".00000000000000000E+000"/>
    <e0 Z="65" value=".00000000000000000E+000"/>
    <e0 Z="66" value=".00000000000000000E+000"/>
    <e0 Z="67" value=".00000000000000000E+000"/>
    <e0 Z="68" value=".00000000000000000E+000"/>
    <e0 Z="69" value=".00000000000000000E+000"/>
    <e0 Z="70" value=".00000000000000000E+000"/>
    <e0 Z="71" value=".00000000000000000E+000"/>
    <e0 Z="72" value=".00000000000000000E+000"/>
    <e0 Z="73" value=".00000000000000000E+000"/>
    <e0 Z="74" value=".00000000000000000E+000"/>
    <e0 Z="75" value=".00000000000000000E+000"/>
    <e0 Z="76" value=".00000000000000000E+000"/>
    <e0 Z="77" value=".00000000000000000E+000"/>
    <e0 Z="78" value=".00000000000000000E+000"/>
    <e0 Z="79" value=".00000000000000000E+000"/>
    <e0 Z="80" value=".00000000000000000E+000"/>
    <e0 Z="81" value=".00000000000000000E+000"/>
    <e0 Z="82" value=".00000000000000000E+000"/>
    <e0 Z="83" value="-695.12685956999997"/>
    <e0 Z="84" value=".00000000000000000E+000"/>
    <e0 Z="85" value=".00000000000000000E+000"/>
    <e0 Z="86" value=".00000000000000000E+000"/>
    <e0 Z="87" value=".00000000000000000E+000"/>
    <e0 Z="88" value=".00000000000000000E+000"/>
    <e0 Z="89" value=".00000000000000000E+000"/>
    <e0 Z="90" value=".00000000000000000E+000"/>
    <e0 Z="91" value=".00000000000000000E+000"/>
    <e0 Z="92" value=".00000000000000000E+000"/>
    <e0 Z="93" value=".00000000000000000E+000"/>
    <e0 Z="94" value=".00000000000000000E+000"/>
    <e0 Z="95" value=".00000000000000000E+000"/>
    <e0 Z="96" value=".00000000000000000E+000"/>
    <e0 Z="97" value=".00000000000000000E+000"/>
    <e0 Z="98" value=".00000000000000000E+000"/>
    <e0 Z="99" value=".00000000000000000E+000"/>
    <e0 Z="100" value=".00000000000000000E+000"/>
    <e0 Z="101" value=".00000000000000000E+000"/>
    <e0 Z="102" value=".00000000000000000E+000"/>
    <e0 Z="103" value=".00000000000000000E+000"/>
    <e0 Z="104" value=".00000000000000000E+000"/>
    <e0 Z="105" value=".00000000000000000E+000"/>
    <e0 Z="106" value=".00000000000000000E+000"/>
    <e0 Z="107" value=".00000000000000000E+000"/>
    <e0 Z="108" value=".00000000000000000E+000"/>
    <e0 Z="109" value=".00000000000000000E+000"/>
    <e0 Z="110" value=".00000000000000000E+000"/>
    <e0 Z="111" value=".00000000000000000E+000"/>
    <e0 Z="112" value=".00000000000000000E+000"/>
    <e0 Z="113" value=".00000000000000000E+000"/>
    <e0 Z="114" value=".00000000000000000E+000"/>
    <e0 Z="115" value=".00000000000000000E+000"/>
    <e0 Z="116" value=".00000000000000000E+000"/>
    <e0 Z="117" value=".00000000000000000E+000"/>
    <e0 Z="118" value=".00000000000000000E+000"/>
  </GAP_data>
  <gpSparse label="GAP_2025_12_21_0_0_48_42_921" n_coordinate="2" fitted="T">
    <gpCoordinates label="GAP_2025_12_21_0_0_48_42_9211" dimensions="1" signal_variance=".82320422496395274" signal_mean=".00000000000000000E+000" sparsified="T" n_permutations="2" covariance_type="1" n_sparseX="15" sparseX_filename="gap_file.xml.sparseX.GAP_2025_12_21_0_0_48_42_9211" sparseX_md5sum="91b9508afaf98fe185725bcdea675d5e">
      <theta>  0.50000000000000000E+000 </theta>
      <descriptor>distance_Nb order=2 f0=0.0               cutoff=5.0 n_sparse=15 covariance_type=ard_se delta=0.8232042249639527 theta_uniform=0.5 sparse_method=uniform compact_clusters=T distance_Nb_order=2 Z={83 83 }</descriptor>
      <permutation i="1">1  </permutation>
      <permutation i="2">1  </permutation>
      <sparseX i="1" alpha="21101.448228014968" sparseCutoff="1.0000000000000000"/>
      <sparseX i="2" alpha="-17704.087591722186" sparseCutoff="1.0000000000000000"/>
      <sparseX i="3" alpha="-10125.893904393039" sparseCutoff="1.0000000000000000"/>
      <sparseX i="4" alpha="-11933.263900977037" sparseCutoff="1.0000000000000000"/>
      <sparseX i="5" alpha="3092.1976581007984" sparseCutoff=".45585656072317976"/>
      <sparseX i="6" alpha="1321.1422189713671" sparseCutoff="1.0000000000000000"/>
      <sparseX i="7" alpha="-14445.684690897559" sparseCutoff=".99570798482189549"/>
      <sparseX i="8" alpha="-42059.640541771085" sparseCutoff="1.0000000000000000"/>
      <sparseX i="9" alpha="80549.641975976920" sparseCutoff="1.0000000000000000"/>
      <sparseX i="10" alpha="17436.573005113369" sparseCutoff="1.0000000000000000"/>
      <sparseX i="11" alpha="353.79166361230801" sparseCutoff="1.0000000000000000"/>
      <sparseX i="12" alpha="-4422.1693231085301" sparseCutoff=".69470655011975690E-001"/>
      <sparseX i="13" alpha="8983.8987395108488" sparseCutoff="1.0000000000000000"/>
      <sparseX i="14" alpha="-82614.901749362849" sparseCutoff="1.0000000000000000"/>
      <sparseX i="15" alpha="47982.556633831569" sparseCutoff="1.0000000000000000"/>
    </gpCoordinates>
    <gpCoordinates label="GAP_2025_12_21_0_0_48_42_9212" dimensions="859" signal_variance=".26871288283540923" signal_mean=".00000000000000000E+000" sparsified="T" n_permutations="1" covariance_type="2" zeta="4.0000000000000000" n_sparseX="2000" sparseX_filename="gap_file.xml.sparseX.GAP_2025_12_21_0_0_48_42_9212" sparseX_md5sum="ab5bb7759260253131431179036e16e5">
      <descriptor>soap               l_max=10 n_max=12 atom_sigma=0.5 zeta=4 cutoff=5.0 cutoff_transition_width=1.0 central_weight=1.0 n_sparse=2000 delta=0.26871288283540923 f0=0.0 covariance_type=dot_product sparse_method=cur_points n_species=1 Z=83 species_Z={83 }</descriptor>
      <permutation i="1">1  </permutation>
      <sparseX i="1" alpha="17.694616652239151" sparseCutoff="1.0000000000000000"/>
      <sparseX i="2" alpha="-71.303208544160412" sparseCutoff="1.0000000000000000"/>
      <sparseX i="3" alpha="586.10193761279197" sparseCutoff="1.0000000000000000"/>
      <sparseX i="4" alpha="8485.0600075312468" sparseCutoff="1.0000000000000000"/>
      <sparseX i="5" alpha="8195.2097876441676" sparseCutoff="1.0000000000000000"/>
      <sparseX i="6" alpha="8088.8119529058949" sparseCutoff="1.0000000000000000"/>
      <sparseX i="7" alpha="-25881.077651565869" sparseCutoff="1.0000000000000000"/>
      <sparseX i="8" alpha="-627.04355700931001" sparseCutoff="1.0000000000000000"/>
      <sparseX i="9" alpha="-578.63111325144041" sparseCutoff="1.0000000000000000"/>
      <sparseX i="10" alpha="-564.00877513339469" sparseCutoff="1.0000000000000000"/>
      <sparseX i="11" alpha="-1234.4819045963500" sparseCutoff="1.0000000000000000"/>
      <sparseX i="12" alpha="-1382.9771688948545" sparseCutoff="1.0000000000000000"/>
      <sparseX i="13" alpha="-60.384243292436949" sparseCutoff="1.0000000000000000"/>
      <sparseX i="14" alpha="63.722650634886342" sparseCutoff="1.0000000000000000"/>
      <sparseX i="15" alpha="173.24500780244304" sparseCutoff="1.0000000000000000"/>
      <sparseX i="16" alpha="-175.64588649736498" sparseCutoff="1.0000000000000000"/>
      <sparseX i="17" alpha="349.99876416425775" sparseCutoff="1.0000000000000000"/>
      <sparseX i="18" alpha="3200.4256475439092" sparseCutoff="1.0000000000000000"/>
      <sparseX i="19" alpha="4464.8413024311303" sparseCutoff="1.0000000000000000"/>
      <sparseX i="20" alpha="339.97266436728341" sparseCutoff="1.0000000000000000"/>
      <sparseX i="21" alpha="-241.87678554310853" sparseCutoff="1.0000000000000000"/>
      <sparseX i="22" alpha="-250.80725839918958" sparseCutoff="1.0000000000000000"/>
      <sparseX i="23" alpha="-321.90605337543349" sparseCutoff="1.0000000000000000"/>
      <sparseX i="24" alpha="546.48753021921004" sparseCutoff="1.0000000000000000"/>
      <sparseX i="25" alpha="951.03217935554119" sparseCutoff="1.0000000000000000"/>
      <sparseX i="26" alpha="826.30669381505550" sparseCutoff="1.0000000000000000"/>
      <sparseX i="27" alpha="-70.952753490249052" sparseCutoff="1.0000000000000000"/>
      <sparseX i="28" alpha="-215.82889414470878" sparseCutoff="1.0000000000000000"/>
      <sparseX i="29" alpha="-59.979652592233812" sparseCutoff="1.0000000000000000"/>
      <sparseX i="30" alpha="-425.49053422595591" sparseCutoff="1.0000000000000000"/>
      <sparseX i="31" alpha="348.11482342745512" sparseCutoff="1.0000000000000000"/>
      <sparseX i="32" alpha="674.79118909583974" sparseCutoff="1.0000000000000000"/>
      <sparseX i="33" alpha="1178.2418256884796" sparseCutoff="1.0000000000000000"/>
      <sparseX i="34" alpha="435.02420630127835" sparseCutoff="1.0000000000000000"/>
      <sparseX i="35" alpha="-155.95962563679140" sparseCutoff="1.0000000000000000"/>
      <sparseX i="36" alpha="776.13805366220936" sparseCutoff="1.0000000000000000"/>
      <sparseX i="37" alpha="537.43027424044715" sparseCutoff="1.0000000000000000"/>
      <sparseX i="38" alpha="876.03604811062621" sparseCutoff="1.0000000000000000"/>
      <sparseX i="39" alpha="-492.04317723739729" sparseCutoff="1.0000000000000000"/>
      <sparseX i="40" alpha="5.4882608953875049" sparseCutoff="1.0000000000000000"/>
      <sparseX i="41" alpha="-299.79885659207514" sparseCutoff="1.0000000000000000"/>
      <sparseX i="42" alpha="-1415.3590201630097" sparseCutoff="1.0000000000000000"/>
      <sparseX i="43" alpha="-570.93677498825218" sparseCutoff="1.0000000000000000"/>
      <sparseX i="44" alpha="254.00906944142315" sparseCutoff="1.0000000000000000"/>
      <sparseX i="45" alpha="-927.44731091552762" sparseCutoff="1.0000000000000000"/>
      <sparseX i="46" alpha="-195.55582348678763" sparseCutoff="1.0000000000000000"/>
      <sparseX i="47" alpha="689.31875788452942" sparseCutoff="1.0000000000000000"/>
      <sparseX i="48" alpha="385.94552958707175" sparseCutoff="1.0000000000000000"/>
      <sparseX i="49" alpha="362.92155679818001" sparseCutoff="1.0000000000000000"/>
      <sparseX i="50" alpha="369.97894594326004" sparseCutoff="1.0000000000000000"/>
      <sparseX i="51" alpha="8.6749421604170092" sparseCutoff="1.0000000000000000"/>
      <sparseX i="52" alpha="-10.923987158273318" sparseCutoff="1.0000000000000000"/>
      <sparseX i="53" alpha="-18.386412634884497" sparseCutoff="1.0000000000000000"/>
      <sparseX i="54" alpha="-57.108220573743857" sparseCutoff="1.0000000000000000"/>
      <sparseX i="55" alpha="-53.831856721961309" sparseCutoff="1.0000000000000000"/>
      <sparseX i="56" alpha="145.88538848860514" sparseCutoff="1.0000000000000000"/>
      <sparseX i="57" alpha="11.232831431362179" sparseCutoff="1.0000000000000000"/>
      <sparseX i="58" alpha="268.15935872864856" sparseCutoff="1.0000000000000000"/>
      <sparseX i="59" alpha="82.391556159139157" sparseCutoff="1.0000000000000000"/>
      <sparseX i="60" alpha="-918.95807159210005" sparseCutoff="1.0000000000000000"/>
      <sparseX i="61" alpha="-763.26329479680521" sparseCutoff="1.0000000000000000"/>
      <sparseX i="62" alpha="-587.85520231168596" sparseCutoff="1.0000000000000000"/>
      <sparseX i="63" alpha="826.16533825359636" sparseCutoff="1.0000000000000000"/>
      <sparseX i="64" alpha="731.89290419668225" sparseCutoff="1.0000000000000000"/>
      <sparseX i="65" alpha="1061.6128590125072" sparseCutoff="1.0000000000000000"/>
      <sparseX i="66" alpha="-572.69133385945713" sparseCutoff="1.0000000000000000"/>
      <sparseX i="67" alpha="-266.29135301143708" sparseCutoff="1.0000000000000000"/>
      <sparseX i="68" alpha="-458.26017874904028" sparseCutoff="1.0000000000000000"/>
      <sparseX i="69" alpha="-449.58549330216880" sparseCutoff="1.0000000000000000"/>
      <sparseX i="70" alpha="-329.90958779300331" sparseCutoff="1.0000000000000000"/>
      <sparseX i="71" alpha="-338.17848427215114" sparseCutoff="1.0000000000000000"/>
      <sparseX i="72" alpha="107.21557901401138" sparseCutoff="1.0000000000000000"/>
      <sparseX i="73" alpha="-220.58580502968772" sparseCutoff="1.0000000000000000"/>
      <sparseX i="74" alpha="574.65318956729595" sparseCutoff="1.0000000000000000"/>
      <sparseX i="75" alpha="500.60058941064312" sparseCutoff="1.0000000000000000"/>
      <sparseX i="76" alpha="401.32370203839059" sparseCutoff="1.0000000000000000"/>
      <sparseX i="77" alpha="-585.61285733104023" sparseCutoff="1.0000000000000000"/>
      <sparseX i="78" alpha="1856.0024379125311" sparseCutoff="1.0000000000000000"/>
      <sparseX i="79" alpha="918.80586835583529" sparseCutoff="1.0000000000000000"/>
      <sparseX i="80" alpha="2694.9191867525842" sparseCutoff="1.0000000000000000"/>
      <sparseX i="81" alpha="-324.02786107900994" sparseCutoff="1.0000000000000000"/>
      <sparseX i="82" alpha="236.00360281327761" sparseCutoff="1.0000000000000000"/>
      <sparseX i="83" alpha="-779.31856317762549" sparseCutoff="1.0000000000000000"/>
      <sparseX i="84" alpha="1145.9005077199463" sparseCutoff="1.0000000000000000"/>
      <sparseX i="85" alpha="133.73502697424760" sparseCutoff="1.0000000000000000"/>
      <sparseX i="86" alpha="1581.4574022633999" sparseCutoff="1.0000000000000000"/>
      <sparseX i="87" alpha="-877.58949528531559" sparseCutoff="1.0000000000000000"/>
      <sparseX i="88" alpha="925.31055668787860" sparseCutoff="1.0000000000000000"/>
      <sparseX i="89" alpha="387.85863204060297" sparseCutoff="1.0000000000000000"/>
      <sparseX i="90" alpha="387.86391462584521" sparseCutoff="1.0000000000000000"/>
      <sparseX i="91" alpha="380.47613231532978" sparseCutoff="1.0000000000000000"/>
      <sparseX i="92" alpha="-1227.9143551050292" sparseCutoff="1.0000000000000000"/>
      <sparseX i="93" alpha="93.043094535089892" sparseCutoff="1.0000000000000000"/>
      <sparseX i="94" alpha="49.176184960978418" sparseCutoff="1.0000000000000000"/>
      <sparseX i="95" alpha="-526.11898291596708" sparseCutoff="1.0000000000000000"/>
      <sparseX i="96" alpha="-1516.1280207537009" sparseCutoff="1.0000000000000000"/>
      <sparseX i="97" alpha="-1535.2660078139145" sparseCutoff="1.0000000000000000"/>
      <sparseX i="98" alpha="-1357.3205238190567" sparseCutoff="1.0000000000000000"/>
      <sparseX i="99" alpha="730.98336225625098" sparseCutoff="1.0000000000000000"/>
      <sparseX i="100" alpha="-168.56262395616270" sparseCutoff="1.0000000000000000"/>
      <sparseX i="101" alpha="1246.6198316444020" sparseCutoff="1.0000000000000000"/>
      <sparseX i="102" alpha="645.27156638753979" sparseCutoff="1.0000000000000000"/>
      <sparseX i="103" alpha="144.57998580180853" sparseCutoff="1.0000000000000000"/>
      <sparseX i="104" alpha="5131.6670602939530" sparseCutoff="1.0000000000000000"/>
      <sparseX i="105" alpha="2678.9861420886864" sparseCutoff="1.0000000000000000"/>
      <sparseX i="106" alpha="-1960.3530416133974" sparseCutoff="1.0000000000000000"/>
      <sparseX i="107" alpha="-651.33971442540405" sparseCutoff="1.0000000000000000"/>
      <sparseX i="108" alpha="5143.4891595914778" sparseCutoff="1.0000000000000000"/>
      <sparseX i="109" alpha="-648.10211480294026" sparseCutoff="1.0000000000000000"/>
      <sparseX i="110" alpha="-4792.3360805353959" sparseCutoff="1.0000000000000000"/>
      <sparseX i="111" alpha="2722.6672320024149" sparseCutoff="1.0000000000000000"/>
      <sparseX i="112" alpha="-310.93621639174711" sparseCutoff="1.0000000000000000"/>
      <sparseX i="113" alpha="1180.9668254570072" sparseCutoff="1.0000000000000000"/>
      <sparseX i="114" alpha="-575.24394170561186" sparseCutoff="1.0000000000000000"/>
      <sparseX i="115" alpha="-87.115155546330257" sparseCutoff="1.0000000000000000"/>
      <sparseX i="116" alpha="641.63545445129205" sparseCutoff="1.0000000000000000"/>
      <sparseX i="117" alpha="643.44738850392650" sparseCutoff="1.0000000000000000"/>
      <sparseX i="118" alpha="694.59566799554989" sparseCutoff="1.0000000000000000"/>
      <sparseX i="119" alpha="920.00538579209262" sparseCutoff="1.0000000000000000"/>
      <sparseX i="120" alpha="-1842.1428336230551" sparseCutoff="1.0000000000000000"/>
      <sparseX i="121" alpha="902.27516561479320" sparseCutoff="1.0000000000000000"/>
      <sparseX i="122" alpha="939.90583558373066" sparseCutoff="1.0000000000000000"/>
      <sparseX i="123" alpha="1087.8433725741124" sparseCutoff="1.0000000000000000"/>
      <sparseX i="124" alpha="923.87687841999900" sparseCutoff="1.0000000000000000"/>
      <sparseX i="125" alpha="-309.71168970655424" sparseCutoff="1.0000000000000000"/>
      <sparseX i="126" alpha="-87.489996591052716" sparseCutoff="1.0000000000000000"/>
      <sparseX i="127" alpha="-317.53493626162589" sparseCutoff="1.0000000000000000"/>
      <sparseX i="128" alpha="-95.331169221024112" sparseCutoff="1.0000000000000000"/>
      <sparseX i="129" alpha="-915.99331192244222" sparseCutoff="1.0000000000000000"/>
      <sparseX i="130" alpha="-999.96516573525059" sparseCutoff="1.0000000000000000"/>
      <sparseX i="131" alpha="-1152.3871022217993" sparseCutoff="1.0000000000000000"/>
      <sparseX i="132" alpha="800.18829916352399" sparseCutoff="1.0000000000000000"/>
      <sparseX i="133" alpha="752.29408358226181" sparseCutoff="1.0000000000000000"/>
      <sparseX i="134" alpha="310.67860699535578" sparseCutoff="1.0000000000000000"/>
      <sparseX i="135" alpha="672.02474869598973" sparseCutoff="1.0000000000000000"/>
      <sparseX i="136" alpha="2315.8880158916768" sparseCutoff="1.0000000000000000"/>
      <sparseX i="137" alpha="1940.0942259079914" sparseCutoff="1.0000000000000000"/>
      <sparseX i="138" alpha="172.95589625419532" sparseCutoff="1.0000000000000000"/>
      <sparseX i="139" alpha="-673.24073873212569" sparseCutoff="1.0000000000000000"/>
      <sparseX i="140" alpha="477.31991027980791" sparseCutoff="1.0000000000000000"/>
      <sparseX i="141" alpha="1239.2025007371844" sparseCutoff="1.0000000000000000"/>
      <sparseX i="142" alpha="929.16839009569298" sparseCutoff="1.0000000000000000"/>
      <sparseX i="143" alpha="873.83140556904175" sparseCutoff="1.0000000000000000"/>
      <sparseX i="144" alpha="66.473075429421655" sparseCutoff="1.0000000000000000"/>
      <sparseX i="145" alpha="499.79018814681331" sparseCutoff="1.0000000000000000"/>
      <sparseX i="146" alpha="705.10390012529808" sparseCutoff="1.0000000000000000"/>
      <sparseX i="147" alpha="-2053.4009682638093" sparseCutoff="1.0000000000000000"/>
      <sparseX i="148" alpha="-1932.4506683191530" sparseCutoff="1.0000000000000000"/>
      <sparseX i="149" alpha="2989.4622020246575" sparseCutoff="1.0000000000000000"/>
      <sparseX i="150" alpha="2913.3284643727443" sparseCutoff="1.0000000000000000"/>
      <sparseX i="151" alpha="183.57895662457983" sparseCutoff="1.0000000000000000"/>
      <sparseX i="152" alpha="51.776814859057026" sparseCutoff="1.0000000000000000"/>
      <sparseX i="153" alpha="-190.26882196380672" sparseCutoff="1.0000000000000000"/>
      <sparseX i="154" alpha="-64.214860466718235" sparseCutoff="1.0000000000000000"/>
      <sparseX i="155" alpha="-62.328853875477179" sparseCutoff="1.0000000000000000"/>
      <sparseX i="156" alpha="-40.675724797906803" sparseCutoff="1.0000000000000000"/>
      <sparseX i="157" alpha="-158.03377937997726" sparseCutoff="1.0000000000000000"/>
      <sparseX i="158" alpha="-158.40332584917454" sparseCutoff="1.0000000000000000"/>
      <sparseX i="159" alpha="-157.04497879869001" sparseCutoff="1.0000000000000000"/>
      <sparseX i="160" alpha="-121.10429758149887" sparseCutoff="1.0000000000000000"/>
      <sparseX i="161" alpha="-117.39574468969063" sparseCutoff="1.0000000000000000"/>
      <sparseX i="162" alpha="220.84022305931208" sparseCutoff="1.0000000000000000"/>
      <sparseX i="163" alpha="373.95203317009998" sparseCutoff="1.0000000000000000"/>
      <sparseX i="164" alpha="369.40844118268893" sparseCutoff="1.0000000000000000"/>
      <sparseX i="165" alpha="551.26343799470533" sparseCutoff="1.0000000000000000"/>
      <sparseX i="166" alpha="37.625716674205023" sparseCutoff="1.0000000000000000"/>
      <sparseX i="167" alpha="2906.6729620254400" sparseCutoff="1.0000000000000000"/>
      <sparseX i="168" alpha="-688.66956447023790" sparseCutoff="1.0000000000000000"/>
      <sparseX i="169" alpha="-462.44981964669819" sparseCutoff="1.0000000000000000"/>
      <sparseX i="170" alpha="1768.9472835865390" sparseCutoff="1.0000000000000000"/>
      <sparseX i="171" alpha="1578.0817796236940" sparseCutoff="1.0000000000000000"/>
      <sparseX i="172" alpha="-1513.6839552337435" sparseCutoff="1.0000000000000000"/>
      <sparseX i="173" alpha="-1196.4316901350860" sparseCutoff="1.0000000000000000"/>
      <sparseX i="174" alpha="-763.92613259529458" sparseCutoff="1.0000000000000000"/>
      <sparseX i="175" alpha="-789.04330020610473" sparseCutoff="1.0000000000000000"/>
      <sparseX i="176" alpha="245.87893535198990" sparseCutoff="1.0000000000000000"/>
      <sparseX i="177" alpha="16.682375397579616" sparseCutoff="1.0000000000000000"/>
      <sparseX i="178" alpha="443.45062809315016" sparseCutoff="1.0000000000000000"/>
      <sparseX i="179" alpha="168.31442215702913" sparseCutoff="1.0000000000000000"/>
      <sparseX i="180" alpha="833.34159902130727" sparseCutoff="1.0000000000000000"/>
      <sparseX i="181" alpha="611.78885762868242" sparseCutoff="1.0000000000000000"/>
      <sparseX i="182" alpha="-420.31460533721003" sparseCutoff="1.0000000000000000"/>
      <sparseX i="183" alpha="-427.67370593399761" sparseCutoff="1.0000000000000000"/>
      <sparseX i="184" alpha="-337.01783070460448" sparseCutoff="1.0000000000000000"/>
      <sparseX i="185" alpha="-364.02945074774152" sparseCutoff="1.0000000000000000"/>
      <sparseX i="186" alpha="919.81984593211303" sparseCutoff="1.0000000000000000"/>
      <sparseX i="187" alpha="50.706760358096780" sparseCutoff="1.0000000000000000"/>
      <sparseX i="188" alpha="550.17870475971858" sparseCutoff="1.0000000000000000"/>
      <sparseX i="189" alpha="-68.316321233197641" sparseCutoff="1.0000000000000000"/>
      <sparseX i="190" alpha="-234.01710938123810" sparseCutoff="1.0000000000000000"/>
      <sparseX i="191" alpha="-147.61454358384179" sparseCutoff="1.0000000000000000"/>
      <sparseX i="192" alpha="1233.5183381265329" sparseCutoff="1.0000000000000000"/>
      <sparseX i="193" alpha="52.411923453878352" sparseCutoff="1.0000000000000000"/>
      <sparseX i="194" alpha="240.64350988493138" sparseCutoff="1.0000000000000000"/>
      <sparseX i="195" alpha="106.28155018754660" sparseCutoff="1.0000000000000000"/>
      <sparseX i="196" alpha="190.29240953788505" sparseCutoff="1.0000000000000000"/>
      <sparseX i="197" alpha="286.54089801307128" sparseCutoff="1.0000000000000000"/>
      <sparseX i="198" alpha="-96.023115174542511" sparseCutoff="1.0000000000000000"/>
      <sparseX i="199" alpha="-135.96397999376885" sparseCutoff="1.0000000000000000"/>
      <sparseX i="200" alpha="69.705126065986391" sparseCutoff="1.0000000000000000"/>
      <sparseX i="201" alpha="1071.9786323829246" sparseCutoff="1.0000000000000000"/>
      <sparseX i="202" alpha="-1769.4935860507544" sparseCutoff="1.0000000000000000"/>
      <sparseX i="203" alpha="-1559.9323286346689" sparseCutoff="1.0000000000000000"/>
      <sparseX i="204" alpha="-701.92134096475877" sparseCutoff="1.0000000000000000"/>
      <sparseX i="205" alpha="-770.54777437286668" sparseCutoff="1.0000000000000000"/>
      <sparseX i="206" alpha="-663.09635726841861" sparseCutoff="1.0000000000000000"/>
      <sparseX i="207" alpha="-482.61770202545813" sparseCutoff="1.0000000000000000"/>
      <sparseX i="208" alpha="-1044.4801001804171" sparseCutoff="1.0000000000000000"/>
      <sparseX i="209" alpha="-934.64076905179786" sparseCutoff="1.0000000000000000"/>
      <sparseX i="210" alpha="-660.93924734460552" sparseCutoff="1.0000000000000000"/>
      <sparseX i="211" alpha="-297.28507739258856" sparseCutoff="1.0000000000000000"/>
      <sparseX i="212" alpha="585.09408409448690" sparseCutoff="1.0000000000000000"/>
      <sparseX i="213" alpha="374.59421108638128" sparseCutoff="1.0000000000000000"/>
      <sparseX i="214" alpha="97.628484648642996" sparseCutoff="1.0000000000000000"/>
      <sparseX i="215" alpha="-109.24311035979346" sparseCutoff="1.0000000000000000"/>
      <sparseX i="216" alpha="-131.92136879027356" sparseCutoff="1.0000000000000000"/>
      <sparseX i="217" alpha="-107.97923268937652" sparseCutoff="1.0000000000000000"/>
      <sparseX i="218" alpha="-4331.6449614744515" sparseCutoff="1.0000000000000000"/>
      <sparseX i="219" alpha="250.11463156698991" sparseCutoff="1.0000000000000000"/>
      <sparseX i="220" alpha="209.12614202757393" sparseCutoff="1.0000000000000000"/>
      <sparseX i="221" alpha="883.36584919693814" sparseCutoff="1.0000000000000000"/>
      <sparseX i="222" alpha="611.47947801869782" sparseCutoff="1.0000000000000000"/>
      <sparseX i="223" alpha="-16.582568748494410" sparseCutoff="1.0000000000000000"/>
      <sparseX i="224" alpha="-664.20097606953857" sparseCutoff="1.0000000000000000"/>
      <sparseX i="225" alpha="-51.148141597438276" sparseCutoff="1.0000000000000000"/>
      <sparseX i="226" alpha="-217.85936727068756" sparseCutoff="1.0000000000000000"/>
      <sparseX i="227" alpha="-962.13347166274787" sparseCutoff="1.0000000000000000"/>
      <sparseX i="228" alpha="-841.89397645387692" sparseCutoff="1.0000000000000000"/>
      <sparseX i="229" alpha="-1689.6583211475906" sparseCutoff="1.0000000000000000"/>
      <sparseX i="230" alpha="400.27889619547040" sparseCutoff="1.0000000000000000"/>
      <sparseX i="231" alpha="370.92371305916151" sparseCutoff="1.0000000000000000"/>
      <sparseX i="232" alpha="-699.08969196365763" sparseCutoff="1.0000000000000000"/>
      <sparseX i="233" alpha="-797.46228793041655" sparseCutoff="1.0000000000000000"/>
      <sparseX i="234" alpha="-1105.1144341874140" sparseCutoff="1.0000000000000000"/>
      <sparseX i="235" alpha="-860.40069167596153" sparseCutoff="1.0000000000000000"/>
      <sparseX i="236" alpha="-671.68928359944834" sparseCutoff="1.0000000000000000"/>
      <sparseX i="237" alpha="533.63677089346504" sparseCutoff="1.0000000000000000"/>
      <sparseX i="238" alpha="631.42730993600799" sparseCutoff="1.0000000000000000"/>
      <sparseX i="239" alpha="516.52546994047623" sparseCutoff="1.0000000000000000"/>
      <sparseX i="240" alpha="648.49892639720395" sparseCutoff="1.0000000000000000"/>
      <sparseX i="241" alpha="220.62190519112454" sparseCutoff="1.0000000000000000"/>
      <sparseX i="242" alpha="340.32023575517178" sparseCutoff="1.0000000000000000"/>
      <sparseX i="243" alpha="794.27330167146135" sparseCutoff="1.0000000000000000"/>
      <sparseX i="244" alpha="860.39709676834354" sparseCutoff="1.0000000000000000"/>
      <sparseX i="245" alpha="291.27450270421133" sparseCutoff="1.0000000000000000"/>
      <sparseX i="246" alpha="314.03653501277006" sparseCutoff="1.0000000000000000"/>
      <sparseX i="247" alpha="714.43884273473816" sparseCutoff="1.0000000000000000"/>
      <sparseX i="248" alpha="721.92786694248218" sparseCutoff="1.0000000000000000"/>
      <sparseX i="249" alpha="-1397.7405875553275" sparseCutoff="1.0000000000000000"/>
      <sparseX i="250" alpha="-1438.8074729468051" sparseCutoff="1.0000000000000000"/>
      <sparseX i="251" alpha="-1348.8437792835505" sparseCutoff="1.0000000000000000"/>
      <sparseX i="252" alpha="84.425981960780632" sparseCutoff="1.0000000000000000"/>
      <sparseX i="253" alpha="84.178510271551218" sparseCutoff="1.0000000000000000"/>
      <sparseX i="254" alpha="83.727911339183251" sparseCutoff="1.0000000000000000"/>
      <sparseX i="255" alpha="-756.86454932046615" sparseCutoff="1.0000000000000000"/>
      <sparseX i="256" alpha="-711.99465848344062" sparseCutoff="1.0000000000000000"/>
      <sparseX i="257" alpha="-1333.1017873907135" sparseCutoff="1.0000000000000000"/>
      <sparseX i="258" alpha="675.46440637222065" sparseCutoff="1.0000000000000000"/>
      <sparseX i="259" alpha="1861.8538771976594" sparseCutoff="1.0000000000000000"/>
      <sparseX i="260" alpha="379.39222536265277" sparseCutoff="1.0000000000000000"/>
      <sparseX i="261" alpha="59.740000119767529" sparseCutoff="1.0000000000000000"/>
      <sparseX i="262" alpha="-792.82570129203225" sparseCutoff="1.0000000000000000"/>
      <sparseX i="263" alpha="-3176.5788442416042" sparseCutoff="1.0000000000000000"/>
      <sparseX i="264" alpha="-1841.2412036878607" sparseCutoff="1.0000000000000000"/>
      <sparseX i="265" alpha="-1157.3502173544723" sparseCutoff="1.0000000000000000"/>
      <sparseX i="266" alpha="-370.22752621085061" sparseCutoff="1.0000000000000000"/>
      <sparseX i="267" alpha="-2251.7251067798502" sparseCutoff="1.0000000000000000"/>
      <sparseX i="268" alpha="69.758322984435409" sparseCutoff="1.0000000000000000"/>
      <sparseX i="269" alpha="568.68315851905902" sparseCutoff="1.0000000000000000"/>
      <sparseX i="270" alpha="-546.75145345727969" sparseCutoff="1.0000000000000000"/>
      <sparseX i="271" alpha="364.38946029520525" sparseCutoff="1.0000000000000000"/>
      <sparseX i="272" alpha="-821.66706319688387" sparseCutoff="1.0000000000000000"/>
      <sparseX i="273" alpha="1338.8221739389389" sparseCutoff="1.0000000000000000"/>
      <sparseX i="274" alpha="2889.2448919613043" sparseCutoff="1.0000000000000000"/>
      <sparseX i="275" alpha="-410.61951615109018" sparseCutoff="1.0000000000000000"/>
      <sparseX i="276" alpha="1805.7471473987162" sparseCutoff="1.0000000000000000"/>
      <sparseX i="277" alpha="675.35990407255360" sparseCutoff="1.0000000000000000"/>
      <sparseX i="278" alpha="5411.4865524354718" sparseCutoff="1.0000000000000000"/>
      <sparseX i="279" alpha="165.76640770680967" sparseCutoff="1.0000000000000000"/>
      <sparseX i="280" alpha="-668.04564458351661" sparseCutoff="1.0000000000000000"/>
      <sparseX i="281" alpha="-666.50491178846505" sparseCutoff="1.0000000000000000"/>
      <sparseX i="282" alpha="-689.92142099127784" sparseCutoff="1.0000000000000000"/>
      <sparseX i="283" alpha="-321.67135868540987" sparseCutoff="1.0000000000000000"/>
      <sparseX i="284" alpha="-269.52871464686643" sparseCutoff="1.0000000000000000"/>
      <sparseX i="285" alpha="-322.37178387131803" sparseCutoff="1.0000000000000000"/>
      <sparseX i="286" alpha="-268.78226873214595" sparseCutoff="1.0000000000000000"/>
      <sparseX i="287" alpha="-431.19655118418007" sparseCutoff="1.0000000000000000"/>
      <sparseX i="288" alpha="89.499823485294655" sparseCutoff="1.0000000000000000"/>
      <sparseX i="289" alpha="-428.65111709411678" sparseCutoff="1.0000000000000000"/>
      <sparseX i="290" alpha="86.918900935341185" sparseCutoff="1.0000000000000000"/>
      <sparseX i="291" alpha="-88.376237606746429" sparseCutoff="1.0000000000000000"/>
      <sparseX i="292" alpha="-25.277316481236159" sparseCutoff="1.0000000000000000"/>
      <sparseX i="293" alpha="-87.032094646226497" sparseCutoff="1.0000000000000000"/>
      <sparseX i="294" alpha="-26.604620789579286" sparseCutoff="1.0000000000000000"/>
      <sparseX i="295" alpha="963.83101669729444" sparseCutoff="1.0000000000000000"/>
      <sparseX i="296" alpha="1244.6889391011593" sparseCutoff="1.0000000000000000"/>
      <sparseX i="297" alpha="961.56189640150740" sparseCutoff="1.0000000000000000"/>
      <sparseX i="298" alpha="1246.8639055237481" sparseCutoff="1.0000000000000000"/>
      <sparseX i="299" alpha="-983.12441271618991" sparseCutoff="1.0000000000000000"/>
      <sparseX i="300" alpha="-984.95475622334266" sparseCutoff="1.0000000000000000"/>
      <sparseX i="301" alpha="-830.05478011646494" sparseCutoff="1.0000000000000000"/>
      <sparseX i="302" alpha="208.29362488444104" sparseCutoff="1.0000000000000000"/>
      <sparseX i="303" alpha="-989.57920197069086" sparseCutoff="1.0000000000000000"/>
      <sparseX i="304" alpha="-4102.8843610636604" sparseCutoff="1.0000000000000000"/>
      <sparseX i="305" alpha="4001.6436609496200" sparseCutoff="1.0000000000000000"/>
      <sparseX i="306" alpha="458.65924191334022" sparseCutoff="1.0000000000000000"/>
      <sparseX i="307" alpha="823.27355388764829" sparseCutoff="1.0000000000000000"/>
      <sparseX i="308" alpha="299.83322054904045" sparseCutoff="1.0000000000000000"/>
      <sparseX i="309" alpha="-184.01600915748423" sparseCutoff="1.0000000000000000"/>
      <sparseX i="310" alpha="-200.50608846610598" sparseCutoff="1.0000000000000000"/>
      <sparseX i="311" alpha="-10.720106408771962" sparseCutoff="1.0000000000000000"/>
      <sparseX i="312" alpha="-200.07629311610523" sparseCutoff="1.0000000000000000"/>
      <sparseX i="313" alpha="886.03797810009223" sparseCutoff="1.0000000000000000"/>
      <sparseX i="314" alpha="-148.14868725257739" sparseCutoff="1.0000000000000000"/>
      <sparseX i="315" alpha="-83.840929885291047" sparseCutoff="1.0000000000000000"/>
      <sparseX i="316" alpha="70.764547240981372" sparseCutoff="1.0000000000000000"/>
      <sparseX i="317" alpha="-12.362300073418542" sparseCutoff="1.0000000000000000"/>
      <sparseX i="318" alpha="-310.24271965652963" sparseCutoff="1.0000000000000000"/>
      <sparseX i="319" alpha="-192.08270781712895" sparseCutoff="1.0000000000000000"/>
      <sparseX i="320" alpha="16.785000278048276" sparseCutoff="1.0000000000000000"/>
      <sparseX i="321" alpha="-51.385714523086861" sparseCutoff="1.0000000000000000"/>
      <sparseX i="322" alpha="-2067.5109914692312" sparseCutoff="1.0000000000000000"/>
      <sparseX i="323" alpha="-335.99539226864368" sparseCutoff="1.0000000000000000"/>
      <sparseX i="324" alpha="-1193.3780083807419" sparseCutoff="1.0000000000000000"/>
      <sparseX i="325" alpha="1174.0736946991146" sparseCutoff="1.0000000000000000"/>
      <sparseX i="326" alpha="1349.9115492778553" sparseCutoff="1.0000000000000000"/>
      <sparseX i="327" alpha="55.632598110665825" sparseCutoff="1.0000000000000000"/>
      <sparseX i="328" alpha="700.31642026300017" sparseCutoff="1.0000000000000000"/>
      <sparseX i="329" alpha="-2710.1644888065766" sparseCutoff="1.0000000000000000"/>
      <sparseX i="330" alpha="-2999.8228653232372" sparseCutoff="1.0000000000000000"/>
      <sparseX i="331" alpha="-2395.0397150723807" sparseCutoff="1.0000000000000000"/>
      <sparseX i="332" alpha="-2296.6381842500668" sparseCutoff="1.0000000000000000"/>
      <sparseX i="333" alpha="5549.6296016529941" sparseCutoff="1.0000000000000000"/>
      <sparseX i="334" alpha="5578.5100579429945" sparseCutoff="1.0000000000000000"/>
      <sparseX i="335" alpha="-2482.4895644940975" sparseCutoff="1.0000000000000000"/>
      <sparseX i="336" alpha="-5784.4152521482874" sparseCutoff="1.0000000000000000"/>
      <sparseX i="337" alpha="-3872.5193980742315" sparseCutoff="1.0000000000000000"/>
      <sparseX i="338" alpha="1988.1416449334733" sparseCutoff="1.0000000000000000"/>
      <sparseX i="339" alpha="1656.2320861157953" sparseCutoff="1.0000000000000000"/>
      <sparseX i="340" alpha="-174.57883058592813" sparseCutoff="1.0000000000000000"/>
      <sparseX i="341" alpha="-597.92823427063217" sparseCutoff="1.0000000000000000"/>
      <sparseX i="342" alpha="376.62585663850348" sparseCutoff="1.0000000000000000"/>
      <sparseX i="343" alpha="483.67398080157443" sparseCutoff="1.0000000000000000"/>
      <sparseX i="344" alpha="440.40320990125775" sparseCutoff="1.0000000000000000"/>
      <sparseX i="345" alpha="420.11535960263438" sparseCutoff="1.0000000000000000"/>
      <sparseX i="346" alpha="-62.701656549989892" sparseCutoff="1.0000000000000000"/>
      <sparseX i="347" alpha="-66.572348949587678" sparseCutoff="1.0000000000000000"/>
      <sparseX i="348" alpha="611.27200797462626" sparseCutoff="1.0000000000000000"/>
      <sparseX i="349" alpha="813.15248633166834" sparseCutoff="1.0000000000000000"/>
      <sparseX i="350" alpha="-135.71087681652983" sparseCutoff="1.0000000000000000"/>
      <sparseX i="351" alpha="-127.76994862426743" sparseCutoff="1.0000000000000000"/>
      <sparseX i="352" alpha="325.14256032060672" sparseCutoff="1.0000000000000000"/>
      <sparseX i="353" alpha="208.98593707594574" sparseCutoff="1.0000000000000000"/>
      <sparseX i="354" alpha="31.046615804300171" sparseCutoff="1.0000000000000000"/>
      <sparseX i="355" alpha="1419.0886439182009" sparseCutoff="1.0000000000000000"/>
      <sparseX i="356" alpha="1602.2947449178191" sparseCutoff="1.0000000000000000"/>
      <sparseX i="357" alpha="441.15827016667401" sparseCutoff="1.0000000000000000"/>
      <sparseX i="358" alpha="92.721309542323382" sparseCutoff="1.0000000000000000"/>
      <sparseX i="359" alpha="-601.80265044552789" sparseCutoff="1.0000000000000000"/>
      <sparseX i="360" alpha="60.447583513522687" sparseCutoff="1.0000000000000000"/>
      <sparseX i="361" alpha="855.47460864095763" sparseCutoff="1.0000000000000000"/>
      <sparseX i="362" alpha="-8.2359827742819789" sparseCutoff="1.0000000000000000"/>
      <sparseX i="363" alpha="239.43201229068396" sparseCutoff="1.0000000000000000"/>
      <sparseX i="364" alpha="-403.99168597187219" sparseCutoff="1.0000000000000000"/>
      <sparseX i="365" alpha="383.18670692747401" sparseCutoff="1.0000000000000000"/>
      <sparseX i="366" alpha="-69.468706544939820" sparseCutoff="1.0000000000000000"/>
      <sparseX i="367" alpha="-128.32884292223494" sparseCutoff="1.0000000000000000"/>
      <sparseX i="368" alpha="121.34193167976878" sparseCutoff="1.0000000000000000"/>
      <sparseX i="369" alpha="292.04993383088583" sparseCutoff="1.0000000000000000"/>
      <sparseX i="370" alpha="126.25475558437027" sparseCutoff="1.0000000000000000"/>
      <sparseX i="371" alpha="-1478.7071029156577" sparseCutoff="1.0000000000000000"/>
      <sparseX i="372" alpha="-1309.2758907510984" sparseCutoff="1.0000000000000000"/>
      <sparseX i="373" alpha="807.25349356212575" sparseCutoff="1.0000000000000000"/>
      <sparseX i="374" alpha="740.16041377493355" sparseCutoff="1.0000000000000000"/>
      <sparseX i="375" alpha="-704.92949647359683" sparseCutoff="1.0000000000000000"/>
      <sparseX i="376" alpha="-689.65618229046788" sparseCutoff="1.0000000000000000"/>
      <sparseX i="377" alpha="304.60279830208560" sparseCutoff="1.0000000000000000"/>
      <sparseX i="378" alpha="-37.282890495951577" sparseCutoff="1.0000000000000000"/>
      <sparseX i="379" alpha="-1462.2745836152289" sparseCutoff="1.0000000000000000"/>
      <sparseX i="380" alpha="-1516.0137141586797" sparseCutoff="1.0000000000000000"/>
      <sparseX i="381" alpha="44.815170357871828" sparseCutoff="1.0000000000000000"/>
      <sparseX i="382" alpha="149.26029242129090" sparseCutoff="1.0000000000000000"/>
      <sparseX i="383" alpha="222.18902919056183" sparseCutoff="1.0000000000000000"/>
      <sparseX i="384" alpha="577.46485393234218" sparseCutoff="1.0000000000000000"/>
      <sparseX i="385" alpha="-911.39009768032747" sparseCutoff="1.0000000000000000"/>
      <sparseX i="386" alpha="-1191.7376116947446" sparseCutoff="1.0000000000000000"/>
      <sparseX i="387" alpha="-89.308421958426109" sparseCutoff="1.0000000000000000"/>
      <sparseX i="388" alpha="151.39399323404191" sparseCutoff="1.0000000000000000"/>
      <sparseX i="389" alpha="36.242391938478228" sparseCutoff="1.0000000000000000"/>
      <sparseX i="390" alpha="-2350.8304151632224" sparseCutoff="1.0000000000000000"/>
      <sparseX i="391" alpha="1131.0386820283611" sparseCutoff="1.0000000000000000"/>
      <sparseX i="392" alpha="-595.72465941801090" sparseCutoff="1.0000000000000000"/>
      <sparseX i="393" alpha="-125.36171363940311" sparseCutoff="1.0000000000000000"/>
      <sparseX i="394" alpha="-129.06662377583092" sparseCutoff="1.0000000000000000"/>
      <sparseX i="395" alpha="-4080.2405860159874" sparseCutoff="1.0000000000000000"/>
      <sparseX i="396" alpha="1763.2882567709380" sparseCutoff="1.0000000000000000"/>
      <sparseX i="397" alpha="5866.1528708411570" sparseCutoff="1.0000000000000000"/>
      <sparseX i="398" alpha="521.86905780944483" sparseCutoff="1.0000000000000000"/>
      <sparseX i="399" alpha="-1578.3298255381962" sparseCutoff="1.0000000000000000"/>
      <sparseX i="400" alpha="-1299.4231043790821" sparseCutoff="1.0000000000000000"/>
      <sparseX i="401" alpha="-1293.2854927045082" sparseCutoff="1.0000000000000000"/>
      <sparseX i="402" alpha="-154.34741797181286" sparseCutoff="1.0000000000000000"/>
      <sparseX i="403" alpha="-150.23430055825520" sparseCutoff="1.0000000000000000"/>
      <sparseX i="404" alpha="297.38392510496732" sparseCutoff="1.0000000000000000"/>
      <sparseX i="405" alpha="287.38884609572932" sparseCutoff="1.0000000000000000"/>
      <sparseX i="406" alpha="-3681.6650104233418" sparseCutoff="1.0000000000000000"/>
      <sparseX i="407" alpha="116.57909890658732" sparseCutoff="1.0000000000000000"/>
      <sparseX i="408" alpha="-47.012680955858279" sparseCutoff="1.0000000000000000"/>
      <sparseX i="409" alpha="72.157456889568650" sparseCutoff="1.0000000000000000"/>
      <sparseX i="410" alpha="48.186215489943315" sparseCutoff="1.0000000000000000"/>
      <sparseX i="411" alpha="-1272.9609174763796" sparseCutoff="1.0000000000000000"/>
      <sparseX i="412" alpha="-1277.1891285739450" sparseCutoff="1.0000000000000000"/>
      <sparseX i="413" alpha="-531.93035580694129" sparseCutoff="1.0000000000000000"/>
      <sparseX i="414" alpha="-542.49653122611755" sparseCutoff="1.0000000000000000"/>
      <sparseX i="415" alpha="-3213.0858851646367" sparseCutoff="1.0000000000000000"/>
      <sparseX i="416" alpha="-940.02519711721516" sparseCutoff="1.0000000000000000"/>
      <sparseX i="417" alpha="-844.58448525095514" sparseCutoff="1.0000000000000000"/>
      <sparseX i="418" alpha="-66.897463250189759" sparseCutoff="1.0000000000000000"/>
      <sparseX i="419" alpha="253.06428133574414" sparseCutoff="1.0000000000000000"/>
      <sparseX i="420" alpha="282.09190452044692" sparseCutoff="1.0000000000000000"/>
      <sparseX i="421" alpha="-345.05712377322948" sparseCutoff="1.0000000000000000"/>
      <sparseX i="422" alpha="1160.9212462710598" sparseCutoff="1.0000000000000000"/>
      <sparseX i="423" alpha="-5144.1979278867693" sparseCutoff="1.0000000000000000"/>
      <sparseX i="424" alpha="3806.2317888071275" sparseCutoff="1.0000000000000000"/>
      <sparseX i="425" alpha="-2339.2492287835325" sparseCutoff="1.0000000000000000"/>
      <sparseX i="426" alpha="-1010.4203254398127" sparseCutoff="1.0000000000000000"/>
      <sparseX i="427" alpha="-1006.5835016461397" sparseCutoff="1.0000000000000000"/>
      <sparseX i="428" alpha="254.29290435332436" sparseCutoff="1.0000000000000000"/>
      <sparseX i="429" alpha="618.52619214341439" sparseCutoff="1.0000000000000000"/>
      <sparseX i="430" alpha="612.05329643346295" sparseCutoff="1.0000000000000000"/>
      <sparseX i="431" alpha="608.31290281350994" sparseCutoff="1.0000000000000000"/>
      <sparseX i="432" alpha="-618.43392370481547" sparseCutoff="1.0000000000000000"/>
      <sparseX i="433" alpha="-609.45525463900185" sparseCutoff="1.0000000000000000"/>
      <sparseX i="434" alpha="-621.98326928936308" sparseCutoff="1.0000000000000000"/>
      <sparseX i="435" alpha="-1159.8023768314686" sparseCutoff="1.0000000000000000"/>
      <sparseX i="436" alpha="-1153.8764579977105" sparseCutoff="1.0000000000000000"/>
      <sparseX i="437" alpha="-231.46147102628322" sparseCutoff="1.0000000000000000"/>
      <sparseX i="438" alpha="-227.85320352920863" sparseCutoff="1.0000000000000000"/>
      <sparseX i="439" alpha="-209.02246978550446" sparseCutoff="1.0000000000000000"/>
      <sparseX i="440" alpha="-1258.9278603879852" sparseCutoff="1.0000000000000000"/>
      <sparseX i="441" alpha="-1269.7052491440948" sparseCutoff="1.0000000000000000"/>
      <sparseX i="442" alpha="47.568943696986985" sparseCutoff="1.0000000000000000"/>
      <sparseX i="443" alpha="392.73404483851670" sparseCutoff="1.0000000000000000"/>
      <sparseX i="444" alpha="234.98309187141749" sparseCutoff="1.0000000000000000"/>
      <sparseX i="445" alpha="538.90394498069168" sparseCutoff="1.0000000000000000"/>
      <sparseX i="446" alpha="418.68131988003194" sparseCutoff="1.0000000000000000"/>
      <sparseX i="447" alpha="1999.9867456619797" sparseCutoff="1.0000000000000000"/>
      <sparseX i="448" alpha="2069.2143514829281" sparseCutoff="1.0000000000000000"/>
      <sparseX i="449" alpha="2162.1715409663557" sparseCutoff="1.0000000000000000"/>
      <sparseX i="450" alpha="262.52152341785285" sparseCutoff="1.0000000000000000"/>
      <sparseX i="451" alpha="265.54249295386705" sparseCutoff="1.0000000000000000"/>
      <sparseX i="452" alpha="270.21310113114623" sparseCutoff="1.0000000000000000"/>
      <sparseX i="453" alpha="516.75922951942505" sparseCutoff="1.0000000000000000"/>
      <sparseX i="454" alpha="514.47666237648809" sparseCutoff="1.0000000000000000"/>
      <sparseX i="455" alpha="681.30390406678566" sparseCutoff="1.0000000000000000"/>
      <sparseX i="456" alpha="4467.2334324045587" sparseCutoff="1.0000000000000000"/>
      <sparseX i="457" alpha="4884.4148791064672" sparseCutoff="1.0000000000000000"/>
      <sparseX i="458" alpha="-2672.5760371095530" sparseCutoff="1.0000000000000000"/>
      <sparseX i="459" alpha="-2125.7314328949365" sparseCutoff="1.0000000000000000"/>
      <sparseX i="460" alpha="-2639.9219352146806" sparseCutoff="1.0000000000000000"/>
      <sparseX i="461" alpha="583.11960855047028" sparseCutoff="1.0000000000000000"/>
      <sparseX i="462" alpha="578.90295600774937" sparseCutoff="1.0000000000000000"/>
      <sparseX i="463" alpha="579.10884383895336" sparseCutoff="1.0000000000000000"/>
      <sparseX i="464" alpha="-2745.1028398523404" sparseCutoff="1.0000000000000000"/>
      <sparseX i="465" alpha="-124.94979696956666" sparseCutoff="1.0000000000000000"/>
      <sparseX i="466" alpha="-601.24387715790681" sparseCutoff="1.0000000000000000"/>
      <sparseX i="467" alpha="646.18812078220139" sparseCutoff="1.0000000000000000"/>
      <sparseX i="468" alpha="45.971898622311237" sparseCutoff="1.0000000000000000"/>
      <sparseX i="469" alpha="3606.7547717197440" sparseCutoff="1.0000000000000000"/>
      <sparseX i="470" alpha="3558.7222228013511" sparseCutoff="1.0000000000000000"/>
      <sparseX i="471" alpha="-1604.9697311341995" sparseCutoff="1.0000000000000000"/>
      <sparseX i="472" alpha="-2312.8489684406204" sparseCutoff="1.0000000000000000"/>
      <sparseX i="473" alpha="-298.17763048920250" sparseCutoff="1.0000000000000000"/>
      <sparseX i="474" alpha="189.06713751771227" sparseCutoff="1.0000000000000000"/>
      <sparseX i="475" alpha="191.88986973396095" sparseCutoff="1.0000000000000000"/>
      <sparseX i="476" alpha="-483.47476900852752" sparseCutoff="1.0000000000000000"/>
      <sparseX i="477" alpha="-1600.2262021602633" sparseCutoff="1.0000000000000000"/>
      <sparseX i="478" alpha="-1015.2752737704769" sparseCutoff="1.0000000000000000"/>
      <sparseX i="479" alpha="802.49600407879927" sparseCutoff="1.0000000000000000"/>
      <sparseX i="480" alpha="-273.74178212121160" sparseCutoff="1.0000000000000000"/>
      <sparseX i="481" alpha="171.05928793920319" sparseCutoff="1.0000000000000000"/>
      <sparseX i="482" alpha="419.87412189695749" sparseCutoff="1.0000000000000000"/>
      <sparseX i="483" alpha="439.42453272689136" sparseCutoff="1.0000000000000000"/>
      <sparseX i="484" alpha="1073.9895623599834" sparseCutoff="1.0000000000000000"/>
      <sparseX i="485" alpha="155.58092729600799" sparseCutoff="1.0000000000000000"/>
      <sparseX i="486" alpha="660.69037278341943" sparseCutoff="1.0000000000000000"/>
      <sparseX i="487" alpha="1261.5103436348400" sparseCutoff="1.0000000000000000"/>
      <sparseX i="488" alpha="1246.4984537486789" sparseCutoff="1.0000000000000000"/>
      <sparseX i="489" alpha="-2196.0435857885059" sparseCutoff="1.0000000000000000"/>
      <sparseX i="490" alpha="-1881.5901745001440" sparseCutoff="1.0000000000000000"/>
      <sparseX i="491" alpha="613.96933328537477" sparseCutoff="1.0000000000000000"/>
      <sparseX i="492" alpha="-3633.2444458785135" sparseCutoff="1.0000000000000000"/>
      <sparseX i="493" alpha="-350.08341048161714" sparseCutoff="1.0000000000000000"/>
      <sparseX i="494" alpha="-555.14990858036901" sparseCutoff="1.0000000000000000"/>
      <sparseX i="495" alpha="87.515249487443157" sparseCutoff="1.0000000000000000"/>
      <sparseX i="496" alpha="93.890337766945507" sparseCutoff="1.0000000000000000"/>
      <sparseX i="497" alpha="1430.1708844279703" sparseCutoff="1.0000000000000000"/>
      <sparseX i="498" alpha="1443.8115960333594" sparseCutoff="1.0000000000000000"/>
      <sparseX i="499" alpha="-2500.0897565121195" sparseCutoff="1.0000000000000000"/>
      <sparseX i="500" alpha="-484.63796929820927" sparseCutoff="1.0000000000000000"/>
      <sparseX i="501" alpha="-487.33927833098545" sparseCutoff="1.0000000000000000"/>
      <sparseX i="502" alpha="1659.8070776330467" sparseCutoff="1.0000000000000000"/>
      <sparseX i="503" alpha="1669.2944995222172" sparseCutoff="1.0000000000000000"/>
      <sparseX i="504" alpha="-298.92087060233655" sparseCutoff="1.0000000000000000"/>
      <sparseX i="505" alpha="-296.10460392922073" sparseCutoff="1.0000000000000000"/>
      <sparseX i="506" alpha="-295.63516830324681" sparseCutoff="1.0000000000000000"/>
      <sparseX i="507" alpha="1196.8573011211010" sparseCutoff="1.0000000000000000"/>
      <sparseX i="508" alpha="1197.1299637664711" sparseCutoff="1.0000000000000000"/>
      <sparseX i="509" alpha="1466.8466612118243" sparseCutoff="1.0000000000000000"/>
      <sparseX i="510" alpha="2484.1299208286277" sparseCutoff="1.0000000000000000"/>
      <sparseX i="511" alpha="1589.8192223746867" sparseCutoff="1.0000000000000000"/>
      <sparseX i="512" alpha="1920.7212622273071" sparseCutoff="1.0000000000000000"/>
      <sparseX i="513" alpha="1240.5023117138521" sparseCutoff="1.0000000000000000"/>
      <sparseX i="514" alpha="-514.91566016210072" sparseCutoff="1.0000000000000000"/>
      <sparseX i="515" alpha="-778.26384737189687" sparseCutoff="1.0000000000000000"/>
      <sparseX i="516" alpha="-296.75136862399506" sparseCutoff="1.0000000000000000"/>
      <sparseX i="517" alpha="-541.70651593441414" sparseCutoff="1.0000000000000000"/>
      <sparseX i="518" alpha="-292.83940129191893" sparseCutoff="1.0000000000000000"/>
      <sparseX i="519" alpha="393.47787908337403" sparseCutoff="1.0000000000000000"/>
      <sparseX i="520" alpha="-193.54590624988279" sparseCutoff="1.0000000000000000"/>
      <sparseX i="521" alpha="-496.95200761359916" sparseCutoff="1.0000000000000000"/>
      <sparseX i="522" alpha="258.07737023060332" sparseCutoff="1.0000000000000000"/>
      <sparseX i="523" alpha="11.364500923331285" sparseCutoff="1.0000000000000000"/>
      <sparseX i="524" alpha="198.99030668591243" sparseCutoff="1.0000000000000000"/>
      <sparseX i="525" alpha="-1292.7636010838016" sparseCutoff="1.0000000000000000"/>
      <sparseX i="526" alpha="-1248.5479102635870" sparseCutoff="1.0000000000000000"/>
      <sparseX i="527" alpha="651.40282014884178" sparseCutoff="1.0000000000000000"/>
      <sparseX i="528" alpha="-3436.0369318926146" sparseCutoff="1.0000000000000000"/>
      <sparseX i="529" alpha="3.9144553235047841" sparseCutoff="1.0000000000000000"/>
      <sparseX i="530" alpha="-1598.4031030808048" sparseCutoff="1.0000000000000000"/>
      <sparseX i="531" alpha="-468.09763939436402" sparseCutoff="1.0000000000000000"/>
      <sparseX i="532" alpha="-315.80544446947681" sparseCutoff="1.0000000000000000"/>
      <sparseX i="533" alpha="-1639.3446318744520" sparseCutoff="1.0000000000000000"/>
      <sparseX i="534" alpha="1668.9193495412915" sparseCutoff="1.0000000000000000"/>
      <sparseX i="535" alpha="1740.1113295650675" sparseCutoff="1.0000000000000000"/>
      <sparseX i="536" alpha="-5125.2626152542307" sparseCutoff="1.0000000000000000"/>
      <sparseX i="537" alpha="-280.74843133538707" sparseCutoff="1.0000000000000000"/>
      <sparseX i="538" alpha="407.61638275074705" sparseCutoff="1.0000000000000000"/>
      <sparseX i="539" alpha="167.98911521537519" sparseCutoff="1.0000000000000000"/>
      <sparseX i="540" alpha="-7449.0079017402795" sparseCutoff="1.0000000000000000"/>
      <sparseX i="541" alpha="3847.9453866014924" sparseCutoff="1.0000000000000000"/>
      <sparseX i="542" alpha="174.52105934010959" sparseCutoff="1.0000000000000000"/>
      <sparseX i="543" alpha="84.494889220637205" sparseCutoff="1.0000000000000000"/>
      <sparseX i="544" alpha="2319.1685001177825" sparseCutoff="1.0000000000000000"/>
      <sparseX i="545" alpha="-1523.1212371198203" sparseCutoff="1.0000000000000000"/>
      <sparseX i="546" alpha="-921.73071374829181" sparseCutoff="1.0000000000000000"/>
      <sparseX i="547" alpha="-82.171401204855002" sparseCutoff="1.0000000000000000"/>
      <sparseX i="548" alpha="-470.76927658207399" sparseCutoff="1.0000000000000000"/>
      <sparseX i="549" alpha="-371.02108168672515" sparseCutoff="1.0000000000000000"/>
      <sparseX i="550" alpha="490.31174086327928" sparseCutoff="1.0000000000000000"/>
      <sparseX i="551" alpha="358.35499592058795" sparseCutoff="1.0000000000000000"/>
      <sparseX i="552" alpha="-1060.1581628634187" sparseCutoff="1.0000000000000000"/>
      <sparseX i="553" alpha="-783.38219306643896" sparseCutoff="1.0000000000000000"/>
      <sparseX i="554" alpha="2280.3461944578207" sparseCutoff="1.0000000000000000"/>
      <sparseX i="555" alpha="2459.9041782118493" sparseCutoff="1.0000000000000000"/>
      <sparseX i="556" alpha="2743.8816488041198" sparseCutoff="1.0000000000000000"/>
      <sparseX i="557" alpha="1539.6773902686823" sparseCutoff="1.0000000000000000"/>
      <sparseX i="558" alpha="959.29259090125743" sparseCutoff="1.0000000000000000"/>
      <sparseX i="559" alpha="-1779.1079211238471" sparseCutoff="1.0000000000000000"/>
      <sparseX i="560" alpha="-3187.0808378574452" sparseCutoff="1.0000000000000000"/>
      <sparseX i="561" alpha="435.92876449666119" sparseCutoff="1.0000000000000000"/>
      <sparseX i="562" alpha="314.88998716289763" sparseCutoff="1.0000000000000000"/>
      <sparseX i="563" alpha="575.52319293686935" sparseCutoff="1.0000000000000000"/>
      <sparseX i="564" alpha="326.31368868927535" sparseCutoff="1.0000000000000000"/>
      <sparseX i="565" alpha="-1273.2761260984412" sparseCutoff="1.0000000000000000"/>
      <sparseX i="566" alpha="-1095.8415535089628" sparseCutoff="1.0000000000000000"/>
      <sparseX i="567" alpha="-574.04679314854127" sparseCutoff="1.0000000000000000"/>
      <sparseX i="568" alpha="-874.15761862930663" sparseCutoff="1.0000000000000000"/>
      <sparseX i="569" alpha="-157.58442741527020" sparseCutoff="1.0000000000000000"/>
      <sparseX i="570" alpha="-197.71761820454040" sparseCutoff="1.0000000000000000"/>
      <sparseX i="571" alpha="-90.720090669028039" sparseCutoff="1.0000000000000000"/>
      <sparseX i="572" alpha="-203.90869640808128" sparseCutoff="1.0000000000000000"/>
      <sparseX i="573" alpha="-934.17988969687451" sparseCutoff="1.0000000000000000"/>
      <sparseX i="574" alpha="1432.8770324305908" sparseCutoff="1.0000000000000000"/>
      <sparseX i="575" alpha="39.621426408773821" sparseCutoff="1.0000000000000000"/>
      <sparseX i="576" alpha="57.473127038033930" sparseCutoff="1.0000000000000000"/>
      <sparseX i="577" alpha="-101.60402900028043" sparseCutoff="1.0000000000000000"/>
      <sparseX i="578" alpha="189.07303175117741" sparseCutoff="1.0000000000000000"/>
      <sparseX i="579" alpha="-836.34076946396340" sparseCutoff="1.0000000000000000"/>
      <sparseX i="580" alpha="69.645025605455871" sparseCutoff="1.0000000000000000"/>
      <sparseX i="581" alpha="-311.93559945040533" sparseCutoff="1.0000000000000000"/>
      <sparseX i="582" alpha="-380.71900659207643" sparseCutoff="1.0000000000000000"/>
      <sparseX i="583" alpha="-62.893688914874481" sparseCutoff="1.0000000000000000"/>
      <sparseX i="584" alpha="-606.94578533819379" sparseCutoff="1.0000000000000000"/>
      <sparseX i="585" alpha="-612.09606048851413" sparseCutoff="1.0000000000000000"/>
      <sparseX i="586" alpha="403.73228026945850" sparseCutoff="1.0000000000000000"/>
      <sparseX i="587" alpha="414.92364700244900" sparseCutoff="1.0000000000000000"/>
      <sparseX i="588" alpha="402.36380290719984" sparseCutoff="1.0000000000000000"/>
      <sparseX i="589" alpha="358.76085879616687" sparseCutoff="1.0000000000000000"/>
      <sparseX i="590" alpha="-106.72356624457517" sparseCutoff="1.0000000000000000"/>
      <sparseX i="591" alpha="-115.71514519766808" sparseCutoff="1.0000000000000000"/>
      <sparseX i="592" alpha="571.37601491173530" sparseCutoff="1.0000000000000000"/>
      <sparseX i="593" alpha="574.37847160222157" sparseCutoff="1.0000000000000000"/>
      <sparseX i="594" alpha="-436.69476358277825" sparseCutoff="1.0000000000000000"/>
      <sparseX i="595" alpha="-164.09891447744741" sparseCutoff="1.0000000000000000"/>
      <sparseX i="596" alpha="2283.6253992021357" sparseCutoff="1.0000000000000000"/>
      <sparseX i="597" alpha="156.35346183784557" sparseCutoff="1.0000000000000000"/>
      <sparseX i="598" alpha="169.37339046098376" sparseCutoff="1.0000000000000000"/>
      <sparseX i="599" alpha="505.47615760175660" sparseCutoff="1.0000000000000000"/>
      <sparseX i="600" alpha="531.76029460177540" sparseCutoff="1.0000000000000000"/>
      <sparseX i="601" alpha="-105.79326740041245" sparseCutoff="1.0000000000000000"/>
      <sparseX i="602" alpha="700.37903530781909" sparseCutoff="1.0000000000000000"/>
      <sparseX i="603" alpha="-2107.8928121336953" sparseCutoff="1.0000000000000000"/>
      <sparseX i="604" alpha="-1512.7397399328436" sparseCutoff="1.0000000000000000"/>
      <sparseX i="605" alpha="-448.34536091671896" sparseCutoff="1.0000000000000000"/>
      <sparseX i="606" alpha="547.23279994094923" sparseCutoff="1.0000000000000000"/>
      <sparseX i="607" alpha="-393.51155723021333" sparseCutoff="1.0000000000000000"/>
      <sparseX i="608" alpha="-241.63878217206536" sparseCutoff="1.0000000000000000"/>
      <sparseX i="609" alpha="322.32593505116438" sparseCutoff="1.0000000000000000"/>
      <sparseX i="610" alpha="336.86637517439704" sparseCutoff="1.0000000000000000"/>
      <sparseX i="611" alpha="-411.30531522081827" sparseCutoff="1.0000000000000000"/>
      <sparseX i="612" alpha="-409.33695576715479" sparseCutoff="1.0000000000000000"/>
      <sparseX i="613" alpha="-376.78314064458630" sparseCutoff="1.0000000000000000"/>
      <sparseX i="614" alpha="-430.27153746045605" sparseCutoff="1.0000000000000000"/>
      <sparseX i="615" alpha="-2189.8603678508152" sparseCutoff="1.0000000000000000"/>
      <sparseX i="616" alpha="-2250.0420745973488" sparseCutoff="1.0000000000000000"/>
      <sparseX i="617" alpha="-753.70009175282848" sparseCutoff="1.0000000000000000"/>
      <sparseX i="618" alpha="-1755.5118506901563" sparseCutoff="1.0000000000000000"/>
      <sparseX i="619" alpha="633.21064355094632" sparseCutoff="1.0000000000000000"/>
      <sparseX i="620" alpha="670.49773300189599" sparseCutoff="1.0000000000000000"/>
      <sparseX i="621" alpha="865.77795177712824" sparseCutoff="1.0000000000000000"/>
      <sparseX i="622" alpha="545.41125243794568" sparseCutoff="1.0000000000000000"/>
      <sparseX i="623" alpha="86.051162216853712" sparseCutoff="1.0000000000000000"/>
      <sparseX i="624" alpha="442.97921776646348" sparseCutoff="1.0000000000000000"/>
      <sparseX i="625" alpha="59.960696295493889" sparseCutoff="1.0000000000000000"/>
      <sparseX i="626" alpha="867.71233423794467" sparseCutoff="1.0000000000000000"/>
      <sparseX i="627" alpha="150.08390549537677" sparseCutoff="1.0000000000000000"/>
      <sparseX i="628" alpha="176.79661390411488" sparseCutoff="1.0000000000000000"/>
      <sparseX i="629" alpha="180.04390733639929" sparseCutoff="1.0000000000000000"/>
      <sparseX i="630" alpha="161.97933236193467" sparseCutoff="1.0000000000000000"/>
      <sparseX i="631" alpha="100.34791399281858" sparseCutoff="1.0000000000000000"/>
      <sparseX i="632" alpha="108.15949219707763" sparseCutoff="1.0000000000000000"/>
      <sparseX i="633" alpha="554.53881263633764" sparseCutoff="1.0000000000000000"/>
      <sparseX i="634" alpha="549.48324808014229" sparseCutoff="1.0000000000000000"/>
      <sparseX i="635" alpha="949.80001106490010" sparseCutoff="1.0000000000000000"/>
      <sparseX i="636" alpha="-21.348954142514248" sparseCutoff="1.0000000000000000"/>
      <sparseX i="637" alpha="-214.86486002254082" sparseCutoff="1.0000000000000000"/>
      <sparseX i="638" alpha="-845.38670681822339" sparseCutoff="1.0000000000000000"/>
      <sparseX i="639" alpha="-839.56151685317741" sparseCutoff="1.0000000000000000"/>
      <sparseX i="640" alpha="1443.7360787139444" sparseCutoff="1.0000000000000000"/>
      <sparseX i="641" alpha="1347.2182485745263" sparseCutoff="1.0000000000000000"/>
      <sparseX i="642" alpha="221.68975172500188" sparseCutoff="1.0000000000000000"/>
      <sparseX i="643" alpha="455.63456424868917" sparseCutoff="1.0000000000000000"/>
      <sparseX i="644" alpha="-174.40191942466774" sparseCutoff="1.0000000000000000"/>
      <sparseX i="645" alpha="-80.073726697953148" sparseCutoff="1.0000000000000000"/>
      <sparseX i="646" alpha="-2536.6398084339448" sparseCutoff="1.0000000000000000"/>
      <sparseX i="647" alpha="-456.17535595057433" sparseCutoff="1.0000000000000000"/>
      <sparseX i="648" alpha="-2713.2866160662506" sparseCutoff="1.0000000000000000"/>
      <sparseX i="649" alpha="-2659.4626075651167" sparseCutoff="1.0000000000000000"/>
      <sparseX i="650" alpha="2330.1630847248252" sparseCutoff="1.0000000000000000"/>
      <sparseX i="651" alpha="-492.70927292762536" sparseCutoff="1.0000000000000000"/>
      <sparseX i="652" alpha="-516.53825211979915" sparseCutoff="1.0000000000000000"/>
      <sparseX i="653" alpha="-1326.2678732342349" sparseCutoff="1.0000000000000000"/>
      <sparseX i="654" alpha="-435.81729620536919" sparseCutoff="1.0000000000000000"/>
      <sparseX i="655" alpha="-163.76628483232813" sparseCutoff="1.0000000000000000"/>
      <sparseX i="656" alpha="923.09501726023768" sparseCutoff="1.0000000000000000"/>
      <sparseX i="657" alpha="744.72399288867894" sparseCutoff="1.0000000000000000"/>
      <sparseX i="658" alpha="808.96924098322734" sparseCutoff="1.0000000000000000"/>
      <sparseX i="659" alpha="1405.8583090456191" sparseCutoff="1.0000000000000000"/>
      <sparseX i="660" alpha="-972.01205062674762" sparseCutoff="1.0000000000000000"/>
      <sparseX i="661" alpha="-1059.3541914832479" sparseCutoff="1.0000000000000000"/>
      <sparseX i="662" alpha="263.26228649367300" sparseCutoff="1.0000000000000000"/>
      <sparseX i="663" alpha="228.35971842051208" sparseCutoff="1.0000000000000000"/>
      <sparseX i="664" alpha="-951.33772250542313" sparseCutoff="1.0000000000000000"/>
      <sparseX i="665" alpha="-604.33045852432861" sparseCutoff="1.0000000000000000"/>
      <sparseX i="666" alpha="26.997181145269327" sparseCutoff="1.0000000000000000"/>
      <sparseX i="667" alpha="-702.27149435688420" sparseCutoff="1.0000000000000000"/>
      <sparseX i="668" alpha="-70.939985938857575" sparseCutoff="1.0000000000000000"/>
      <sparseX i="669" alpha="-469.39464131705074" sparseCutoff="1.0000000000000000"/>
      <sparseX i="670" alpha="-563.45760848935322" sparseCutoff="1.0000000000000000"/>
      <sparseX i="671" alpha="4461.9513758853491" sparseCutoff="1.0000000000000000"/>
      <sparseX i="672" alpha="-89.778403705800017" sparseCutoff="1.0000000000000000"/>
      <sparseX i="673" alpha="500.30820321633291" sparseCutoff="1.0000000000000000"/>
      <sparseX i="674" alpha="528.23719974969708" sparseCutoff="1.0000000000000000"/>
      <sparseX i="675" alpha="959.37392396359303" sparseCutoff="1.0000000000000000"/>
      <sparseX i="676" alpha="71.525767850373441" sparseCutoff="1.0000000000000000"/>
      <sparseX i="677" alpha="-550.96085113368713" sparseCutoff="1.0000000000000000"/>
      <sparseX i="678" alpha="66.054091199022508" sparseCutoff="1.0000000000000000"/>
      <sparseX i="679" alpha="1.4480441365581567" sparseCutoff="1.0000000000000000"/>
      <sparseX i="680" alpha="758.56452347496543" sparseCutoff="1.0000000000000000"/>
      <sparseX i="681" alpha="-267.63103952064893" sparseCutoff="1.0000000000000000"/>
      <sparseX i="682" alpha="-378.13905068373390" sparseCutoff="1.0000000000000000"/>
      <sparseX i="683" alpha="442.24337404646025" sparseCutoff="1.0000000000000000"/>
      <sparseX i="684" alpha="-2946.9256826846076" sparseCutoff="1.0000000000000000"/>
      <sparseX i="685" alpha="3632.3480046599802" sparseCutoff="1.0000000000000000"/>
      <sparseX i="686" alpha="-1507.8316039851479" sparseCutoff="1.0000000000000000"/>
      <sparseX i="687" alpha="-557.26398956019420" sparseCutoff="1.0000000000000000"/>
      <sparseX i="688" alpha="2004.0516287077621" sparseCutoff="1.0000000000000000"/>
      <sparseX i="689" alpha="-765.46129750704813" sparseCutoff="1.0000000000000000"/>
      <sparseX i="690" alpha="835.72850734331280" sparseCutoff="1.0000000000000000"/>
      <sparseX i="691" alpha="936.78077545468091" sparseCutoff="1.0000000000000000"/>
      <sparseX i="692" alpha="1331.7894577722152" sparseCutoff="1.0000000000000000"/>
      <sparseX i="693" alpha="1426.8377386888587" sparseCutoff="1.0000000000000000"/>
      <sparseX i="694" alpha="1146.3765104881559" sparseCutoff="1.0000000000000000"/>
      <sparseX i="695" alpha="-271.44432084829407" sparseCutoff="1.0000000000000000"/>
      <sparseX i="696" alpha="-339.11961029369053" sparseCutoff="1.0000000000000000"/>
      <sparseX i="697" alpha="69.052885445738397" sparseCutoff="1.0000000000000000"/>
      <sparseX i="698" alpha="-146.47538802007284" sparseCutoff="1.0000000000000000"/>
      <sparseX i="699" alpha="-399.85318388920444" sparseCutoff="1.0000000000000000"/>
      <sparseX i="700" alpha="-7764.7227100650625" sparseCutoff="1.0000000000000000"/>
      <sparseX i="701" alpha="1713.9397676119208" sparseCutoff="1.0000000000000000"/>
      <sparseX i="702" alpha="-387.20150816624516" sparseCutoff="1.0000000000000000"/>
      <sparseX i="703" alpha="-194.08130487384895" sparseCutoff="1.0000000000000000"/>
      <sparseX i="704" alpha="426.07347025888322" sparseCutoff="1.0000000000000000"/>
      <sparseX i="705" alpha="-600.43007706968956" sparseCutoff="1.0000000000000000"/>
      <sparseX i="706" alpha="-1765.3444712022790" sparseCutoff="1.0000000000000000"/>
      <sparseX i="707" alpha="-1679.1731488818386" sparseCutoff="1.0000000000000000"/>
      <sparseX i="708" alpha="5229.0190419175724" sparseCutoff="1.0000000000000000"/>
      <sparseX i="709" alpha="-847.58289505625044" sparseCutoff="1.0000000000000000"/>
      <sparseX i="710" alpha="-1643.9296819835993" sparseCutoff="1.0000000000000000"/>
      <sparseX i="711" alpha="1043.9514443269686" sparseCutoff="1.0000000000000000"/>
      <sparseX i="712" alpha="1470.4013027467313" sparseCutoff="1.0000000000000000"/>
      <sparseX i="713" alpha="-505.88839583483065" sparseCutoff="1.0000000000000000"/>
      <sparseX i="714" alpha="873.17363781408108" sparseCutoff="1.0000000000000000"/>
      <sparseX i="715" alpha="-791.08185368552870" sparseCutoff="1.0000000000000000"/>
      <sparseX i="716" alpha="-391.54381149867726" sparseCutoff="1.0000000000000000"/>
      <sparseX i="717" alpha="231.19910074084243" sparseCutoff="1.0000000000000000"/>
      <sparseX i="718" alpha="244.41740000068464" sparseCutoff="1.0000000000000000"/>
      <sparseX i="719" alpha="708.72837883184911" sparseCutoff="1.0000000000000000"/>
      <sparseX i="720" alpha="-481.76943874389593" sparseCutoff="1.0000000000000000"/>
      <sparseX i="721" alpha="-507.17173661272165" sparseCutoff="1.0000000000000000"/>
      <sparseX i="722" alpha="397.57284922052810" sparseCutoff="1.0000000000000000"/>
      <sparseX i="723" alpha="300.86044462055810" sparseCutoff="1.0000000000000000"/>
      <sparseX i="724" alpha="-673.89118180995297" sparseCutoff="1.0000000000000000"/>
      <sparseX i="725" alpha="-668.04270577339321" sparseCutoff="1.0000000000000000"/>
      <sparseX i="726" alpha="-916.75405640085910" sparseCutoff="1.0000000000000000"/>
      <sparseX i="727" alpha="1800.8775157234040" sparseCutoff="1.0000000000000000"/>
      <sparseX i="728" alpha="608.78842246340355" sparseCutoff="1.0000000000000000"/>
      <sparseX i="729" alpha="2348.2484965118897" sparseCutoff="1.0000000000000000"/>
      <sparseX i="730" alpha="219.50235256951666" sparseCutoff="1.0000000000000000"/>
      <sparseX i="731" alpha="283.92255253023950" sparseCutoff="1.0000000000000000"/>
      <sparseX i="732" alpha="-248.45498061117397" sparseCutoff="1.0000000000000000"/>
      <sparseX i="733" alpha="760.27480919167795" sparseCutoff="1.0000000000000000"/>
      <sparseX i="734" alpha="-724.70722291064919" sparseCutoff="1.0000000000000000"/>
      <sparseX i="735" alpha="-324.88971328405802" sparseCutoff="1.0000000000000000"/>
      <sparseX i="736" alpha="3157.8692271329401" sparseCutoff="1.0000000000000000"/>
      <sparseX i="737" alpha="-2772.0886048358843" sparseCutoff="1.0000000000000000"/>
      <sparseX i="738" alpha="-247.18903705509993" sparseCutoff="1.0000000000000000"/>
      <sparseX i="739" alpha="-1555.1597431891928" sparseCutoff="1.0000000000000000"/>
      <sparseX i="740" alpha="839.07761020057308" sparseCutoff="1.0000000000000000"/>
      <sparseX i="741" alpha="446.16451617988690" sparseCutoff="1.0000000000000000"/>
      <sparseX i="742" alpha="-42.645525724869728" sparseCutoff="1.0000000000000000"/>
      <sparseX i="743" alpha="126.34148962926123" sparseCutoff="1.0000000000000000"/>
      <sparseX i="744" alpha="1221.0698436275363" sparseCutoff="1.0000000000000000"/>
      <sparseX i="745" alpha="1701.1767301537764" sparseCutoff="1.0000000000000000"/>
      <sparseX i="746" alpha="-2598.9592083268349" sparseCutoff="1.0000000000000000"/>
      <sparseX i="747" alpha="748.59978364038807" sparseCutoff="1.0000000000000000"/>
      <sparseX i="748" alpha="30.005754390296200" sparseCutoff="1.0000000000000000"/>
      <sparseX i="749" alpha="19546.487621384804" sparseCutoff="1.0000000000000000"/>
      <sparseX i="750" alpha="2899.3188019676677" sparseCutoff="1.0000000000000000"/>
      <sparseX i="751" alpha="2888.2279325153022" sparseCutoff="1.0000000000000000"/>
      <sparseX i="752" alpha="1078.1578720938558" sparseCutoff="1.0000000000000000"/>
      <sparseX i="753" alpha="-927.77958964701145" sparseCutoff="1.0000000000000000"/>
      <sparseX i="754" alpha="-271.00787342907438" sparseCutoff="1.0000000000000000"/>
      <sparseX i="755" alpha="2.5609897132616704" sparseCutoff="1.0000000000000000"/>
      <sparseX i="756" alpha="-15756.835868999011" sparseCutoff="1.0000000000000000"/>
      <sparseX i="757" alpha="-419.89567736158477" sparseCutoff="1.0000000000000000"/>
      <sparseX i="758" alpha="-158.59091645555853" sparseCutoff="1.0000000000000000"/>
      <sparseX i="759" alpha="-7765.5709074423758" sparseCutoff="1.0000000000000000"/>
      <sparseX i="760" alpha="2555.9983196432836" sparseCutoff="1.0000000000000000"/>
      <sparseX i="761" alpha="-134.05165596019532" sparseCutoff="1.0000000000000000"/>
      <sparseX i="762" alpha="606.33524181751409" sparseCutoff="1.0000000000000000"/>
      <sparseX i="763" alpha="1173.9983457550295" sparseCutoff="1.0000000000000000"/>
      <sparseX i="764" alpha="-5915.0243096304084" sparseCutoff="1.0000000000000000"/>
      <sparseX i="765" alpha="-166.47267361274231" sparseCutoff="1.0000000000000000"/>
      <sparseX i="766" alpha="6520.4961877809328" sparseCutoff="1.0000000000000000"/>
      <sparseX i="767" alpha="-38.081888155407064" sparseCutoff="1.0000000000000000"/>
      <sparseX i="768" alpha="-1661.0667338979963" sparseCutoff="1.0000000000000000"/>
      <sparseX i="769" alpha="-4665.1277188024515" sparseCutoff="1.0000000000000000"/>
      <sparseX i="770" alpha="-1738.7166765916552" sparseCutoff="1.0000000000000000"/>
      <sparseX i="771" alpha="2626.4810927938252" sparseCutoff="1.0000000000000000"/>
      <sparseX i="772" alpha="1458.2493739882816" sparseCutoff="1.0000000000000000"/>
      <sparseX i="773" alpha="-2627.6856610501627" sparseCutoff="1.0000000000000000"/>
      <sparseX i="774" alpha="-235.65619513370297" sparseCutoff="1.0000000000000000"/>
      <sparseX i="775" alpha="-234.70650691287588" sparseCutoff="1.0000000000000000"/>
      <sparseX i="776" alpha="-749.33055940321913" sparseCutoff="1.0000000000000000"/>
      <sparseX i="777" alpha="-820.24766340957626" sparseCutoff="1.0000000000000000"/>
      <sparseX i="778" alpha="-775.58755952558045" sparseCutoff="1.0000000000000000"/>
      <sparseX i="779" alpha="429.04748831209218" sparseCutoff="1.0000000000000000"/>
      <sparseX i="780" alpha="361.94803030752581" sparseCutoff="1.0000000000000000"/>
      <sparseX i="781" alpha="6995.0416495837226" sparseCutoff="1.0000000000000000"/>
      <sparseX i="782" alpha="6656.2706916053730" sparseCutoff="1.0000000000000000"/>
      <sparseX i="783" alpha="-10529.158139355464" sparseCutoff="1.0000000000000000"/>
      <sparseX i="784" alpha="-717.20844322164328" sparseCutoff="1.0000000000000000"/>
      <sparseX i="785" alpha="-1533.5534859751840" sparseCutoff="1.0000000000000000"/>
      <sparseX i="786" alpha="-38461.230717488012" sparseCutoff="1.0000000000000000"/>
      <sparseX i="787" alpha="-37258.557336851576" sparseCutoff="1.0000000000000000"/>
      <sparseX i="788" alpha="24677.525341144123" sparseCutoff="1.0000000000000000"/>
      <sparseX i="789" alpha="24353.875463196080" sparseCutoff="1.0000000000000000"/>
      <sparseX i="790" alpha="25553.203681354462" sparseCutoff="1.0000000000000000"/>
      <sparseX i="791" alpha="810.08032320057714" sparseCutoff="1.0000000000000000"/>
      <sparseX i="792" alpha="246.41273963190636" sparseCutoff="1.0000000000000000"/>
      <sparseX i="793" alpha="82.218430342883792" sparseCutoff="1.0000000000000000"/>
      <sparseX i="794" alpha="-554.08674455217567" sparseCutoff="1.0000000000000000"/>
      <sparseX i="795" alpha="-1467.4027378781354" sparseCutoff="1.0000000000000000"/>
      <sparseX i="796" alpha="-7932.9181757864853" sparseCutoff="1.0000000000000000"/>
      <sparseX i="797" alpha="-156.51715054680301" sparseCutoff="1.0000000000000000"/>
      <sparseX i="798" alpha="-12966.316913948518" sparseCutoff="1.0000000000000000"/>
      <sparseX i="799" alpha="216.75912491915918" sparseCutoff="1.0000000000000000"/>
      <sparseX i="800" alpha="187.02644872507739" sparseCutoff="1.0000000000000000"/>
      <sparseX i="801" alpha="2926.3135510985435" sparseCutoff="1.0000000000000000"/>
      <sparseX i="802" alpha="-738.49831734872566" sparseCutoff="1.0000000000000000"/>
      <sparseX i="803" alpha="-710.09426754561309" sparseCutoff="1.0000000000000000"/>
      <sparseX i="804" alpha="-776.54010196557249" sparseCutoff="1.0000000000000000"/>
      <sparseX i="805" alpha="764.78411768359172" sparseCutoff="1.0000000000000000"/>
      <sparseX i="806" alpha="898.86124301474865" sparseCutoff="1.0000000000000000"/>
      <sparseX i="807" alpha="2213.5016368539227" sparseCutoff="1.0000000000000000"/>
      <sparseX i="808" alpha="273.35332583976782" sparseCutoff="1.0000000000000000"/>
      <sparseX i="809" alpha="-5239.1733834146853" sparseCutoff="1.0000000000000000"/>
      <sparseX i="810" alpha="-230.87344713930935" sparseCutoff="1.0000000000000000"/>
      <sparseX i="811" alpha="894.96683350060243" sparseCutoff="1.0000000000000000"/>
      <sparseX i="812" alpha="62.809888044136670" sparseCutoff="1.0000000000000000"/>
      <sparseX i="813" alpha="14511.822588723919" sparseCutoff="1.0000000000000000"/>
      <sparseX i="814" alpha="-1720.9612512614196" sparseCutoff="1.0000000000000000"/>
      <sparseX i="815" alpha="1310.2486885907058" sparseCutoff="1.0000000000000000"/>
      <sparseX i="816" alpha="-207.77449303420681" sparseCutoff="1.0000000000000000"/>
      <sparseX i="817" alpha="-4963.6955742677865" sparseCutoff="1.0000000000000000"/>
      <sparseX i="818" alpha="1149.2972348502028" sparseCutoff="1.0000000000000000"/>
      <sparseX i="819" alpha="19514.763592316027" sparseCutoff="1.0000000000000000"/>
      <sparseX i="820" alpha="5214.1630874328357" sparseCutoff="1.0000000000000000"/>
      <sparseX i="821" alpha="-306.36260598779876" sparseCutoff="1.0000000000000000"/>
      <sparseX i="822" alpha="-335.70159858686281" sparseCutoff="1.0000000000000000"/>
      <sparseX i="823" alpha="-33517.529887895813" sparseCutoff="1.0000000000000000"/>
      <sparseX i="824" alpha="-71331.138994412555" sparseCutoff="1.0000000000000000"/>
      <sparseX i="825" alpha="-71314.717742922265" sparseCutoff="1.0000000000000000"/>
      <sparseX i="826" alpha="3385.1172854277611" sparseCutoff="1.0000000000000000"/>
      <sparseX i="827" alpha="1151.1722681572610" sparseCutoff="1.0000000000000000"/>
      <sparseX i="828" alpha="56577.274720160611" sparseCutoff="1.0000000000000000"/>
      <sparseX i="829" alpha="9420.1337581021344" sparseCutoff="1.0000000000000000"/>
      <sparseX i="830" alpha="-1903.3282940879596" sparseCutoff="1.0000000000000000"/>
      <sparseX i="831" alpha="2885.4821664880087" sparseCutoff="1.0000000000000000"/>
      <sparseX i="832" alpha="-8306.2472143783325" sparseCutoff="1.0000000000000000"/>
      <sparseX i="833" alpha="-675.48749808189336" sparseCutoff="1.0000000000000000"/>
      <sparseX i="834" alpha="535.77405951856110" sparseCutoff="1.0000000000000000"/>
      <sparseX i="835" alpha="-140.41861996536730" sparseCutoff="1.0000000000000000"/>
      <sparseX i="836" alpha="-981.29498243799526" sparseCutoff="1.0000000000000000"/>
      <sparseX i="837" alpha="5974.7583826869250" sparseCutoff="1.0000000000000000"/>
      <sparseX i="838" alpha="1474.4146887169313" sparseCutoff="1.0000000000000000"/>
      <sparseX i="839" alpha="10244.766138249719" sparseCutoff="1.0000000000000000"/>
      <sparseX i="840" alpha="476.65384208011750" sparseCutoff="1.0000000000000000"/>
      <sparseX i="841" alpha="337.60791272467873" sparseCutoff="1.0000000000000000"/>
      <sparseX i="842" alpha="3763.0783825628155" sparseCutoff="1.0000000000000000"/>
      <sparseX i="843" alpha="-528.88490415817341" sparseCutoff="1.0000000000000000"/>
      <sparseX i="844" alpha="1364.8347722822321" sparseCutoff="1.0000000000000000"/>
      <sparseX i="845" alpha="-800.60891402619006" sparseCutoff="1.0000000000000000"/>
      <sparseX i="846" alpha="-1232.2320964898306" sparseCutoff="1.0000000000000000"/>
      <sparseX i="847" alpha="-739.05342941028562" sparseCutoff="1.0000000000000000"/>
      <sparseX i="848" alpha="-207.94929298018741" sparseCutoff="1.0000000000000000"/>
      <sparseX i="849" alpha="-3328.2782099143355" sparseCutoff="1.0000000000000000"/>
      <sparseX i="850" alpha="-3325.6511201512808" sparseCutoff="1.0000000000000000"/>
      <sparseX i="851" alpha="-2488.4197085852120" sparseCutoff="1.0000000000000000"/>
      <sparseX i="852" alpha="-1109.2373035649819" sparseCutoff="1.0000000000000000"/>
      <sparseX i="853" alpha="-15600.314433982077" sparseCutoff="1.0000000000000000"/>
      <sparseX i="854" alpha="9353.1074802332241" sparseCutoff="1.0000000000000000"/>
      <sparseX i="855" alpha="2351.8544248683020" sparseCutoff="1.0000000000000000"/>
      <sparseX i="856" alpha="1996.1278101638588" sparseCutoff="1.0000000000000000"/>
      <sparseX i="857" alpha="3176.4493976491813" sparseCutoff="1.0000000000000000"/>
      <sparseX i="858" alpha="404.88805368617614" sparseCutoff="1.0000000000000000"/>
      <sparseX i="859" alpha="-1716.2745199905803" sparseCutoff="1.0000000000000000"/>
      <sparseX i="860" alpha="-2310.1385166750779" sparseCutoff="1.0000000000000000"/>
      <sparseX i="861" alpha="95.964358164784045" sparseCutoff="1.0000000000000000"/>
      <sparseX i="862" alpha="638.40344335886959" sparseCutoff="1.0000000000000000"/>
      <sparseX i="863" alpha="-8289.6198079961214" sparseCutoff="1.0000000000000000"/>
      <sparseX i="864" alpha="-8280.9297986139409" sparseCutoff="1.0000000000000000"/>
      <sparseX i="865" alpha="9196.7533178827216" sparseCutoff="1.0000000000000000"/>
      <sparseX i="866" alpha="9236.4686455951432" sparseCutoff="1.0000000000000000"/>
      <sparseX i="867" alpha="-157.09001487151801" sparseCutoff="1.0000000000000000"/>
      <sparseX i="868" alpha="-29176.162639966908" sparseCutoff="1.0000000000000000"/>
      <sparseX i="869" alpha="-5165.3614938897263" sparseCutoff="1.0000000000000000"/>
      <sparseX i="870" alpha="1720.6872051685407" sparseCutoff="1.0000000000000000"/>
      <sparseX i="871" alpha="-2430.3648597612860" sparseCutoff="1.0000000000000000"/>
      <sparseX i="872" alpha="378.09376059539522" sparseCutoff="1.0000000000000000"/>
      <sparseX i="873" alpha="398.96798909922745" sparseCutoff="1.0000000000000000"/>
      <sparseX i="874" alpha="402.06933251212382" sparseCutoff="1.0000000000000000"/>
      <sparseX i="875" alpha="4235.1143806428872" sparseCutoff="1.0000000000000000"/>
      <sparseX i="876" alpha="-2164.8385476620242" sparseCutoff="1.0000000000000000"/>
      <sparseX i="877" alpha="-2969.0522166331598" sparseCutoff="1.0000000000000000"/>
      <sparseX i="878" alpha="541.05760790539091" sparseCutoff="1.0000000000000000"/>
      <sparseX i="879" alpha="177728.78415558170" sparseCutoff="1.0000000000000000"/>
      <sparseX i="880" alpha="-7963.5704312520711" sparseCutoff="1.0000000000000000"/>
      <sparseX i="881" alpha="-7994.6260565140710" sparseCutoff="1.0000000000000000"/>
      <sparseX i="882" alpha="102618.93234873199" sparseCutoff="1.0000000000000000"/>
      <sparseX i="883" alpha="-101224.80193447221" sparseCutoff="1.0000000000000000"/>
      <sparseX i="884" alpha="5221.3025277185934" sparseCutoff="1.0000000000000000"/>
      <sparseX i="885" alpha="13542.141407802981" sparseCutoff="1.0000000000000000"/>
      <sparseX i="886" alpha="4574.6696458498463" sparseCutoff="1.0000000000000000"/>
      <sparseX i="887" alpha="1210.0463892189828" sparseCutoff="1.0000000000000000"/>
      <sparseX i="888" alpha="-2921.8357855814656" sparseCutoff="1.0000000000000000"/>
      <sparseX i="889" alpha="3477.0135705351654" sparseCutoff="1.0000000000000000"/>
      <sparseX i="890" alpha="-3156.2823878359932" sparseCutoff="1.0000000000000000"/>
      <sparseX i="891" alpha="5369.9349198493674" sparseCutoff="1.0000000000000000"/>
      <sparseX i="892" alpha="-2506.8603458031503" sparseCutoff="1.0000000000000000"/>
      <sparseX i="893" alpha="17747.599057815896" sparseCutoff="1.0000000000000000"/>
      <sparseX i="894" alpha="3221.2550090060854" sparseCutoff="1.0000000000000000"/>
      <sparseX i="895" alpha="1870.9347942035995" sparseCutoff="1.0000000000000000"/>
      <sparseX i="896" alpha="11992.932593645000" sparseCutoff="1.0000000000000000"/>
      <sparseX i="897" alpha="8775.9513524386984" sparseCutoff="1.0000000000000000"/>
      <sparseX i="898" alpha="8002.2933866217509" sparseCutoff="1.0000000000000000"/>
      <sparseX i="899" alpha="584.92513446823216" sparseCutoff="1.0000000000000000"/>
      <sparseX i="900" alpha="-4118.4863290298608" sparseCutoff="1.0000000000000000"/>
      <sparseX i="901" alpha="2019.4963365943020" sparseCutoff="1.0000000000000000"/>
      <sparseX i="902" alpha="2167.1455140311341" sparseCutoff="1.0000000000000000"/>
      <sparseX i="903" alpha="-1330.1609907444342" sparseCutoff="1.0000000000000000"/>
      <sparseX i="904" alpha="-5286.0906036940578" sparseCutoff="1.0000000000000000"/>
      <sparseX i="905" alpha="-1019.6555028136265" sparseCutoff="1.0000000000000000"/>
      <sparseX i="906" alpha="-1459.4548159826682" sparseCutoff="1.0000000000000000"/>
      <sparseX i="907" alpha="2096.6273223012795" sparseCutoff="1.0000000000000000"/>
      <sparseX i="908" alpha="6256.3245125221938" sparseCutoff="1.0000000000000000"/>
      <sparseX i="909" alpha="492.61531224370094" sparseCutoff="1.0000000000000000"/>
      <sparseX i="910" alpha="-2900.9490022333130" sparseCutoff="1.0000000000000000"/>
      <sparseX i="911" alpha="-2582.4521894122636" sparseCutoff="1.0000000000000000"/>
      <sparseX i="912" alpha="-936.68905894002683" sparseCutoff="1.0000000000000000"/>
      <sparseX i="913" alpha="-1557.3235549560090" sparseCutoff="1.0000000000000000"/>
      <sparseX i="914" alpha="-6729.3884786237659" sparseCutoff="1.0000000000000000"/>
      <sparseX i="915" alpha="-2357.0256419560114" sparseCutoff="1.0000000000000000"/>
      <sparseX i="916" alpha="-2822.3096627914510" sparseCutoff="1.0000000000000000"/>
      <sparseX i="917" alpha="-8894.7318990315998" sparseCutoff="1.0000000000000000"/>
      <sparseX i="918" alpha="-4680.0553237052573" sparseCutoff="1.0000000000000000"/>
      <sparseX i="919" alpha="9524.8036586462295" sparseCutoff="1.0000000000000000"/>
      <sparseX i="920" alpha="10017.716112717884" sparseCutoff="1.0000000000000000"/>
      <sparseX i="921" alpha="-14764.505408518949" sparseCutoff="1.0000000000000000"/>
      <sparseX i="922" alpha="17303.312779810778" sparseCutoff="1.0000000000000000"/>
      <sparseX i="923" alpha="4876.4066753903116" sparseCutoff="1.0000000000000000"/>
      <sparseX i="924" alpha="13265.671112490832" sparseCutoff="1.0000000000000000"/>
      <sparseX i="925" alpha="-876.62367593565000" sparseCutoff="1.0000000000000000"/>
      <sparseX i="926" alpha="-8171.1276405121853" sparseCutoff="1.0000000000000000"/>
      <sparseX i="927" alpha="-2474.2853819647607" sparseCutoff="1.0000000000000000"/>
      <sparseX i="928" alpha="-615.44841413437007" sparseCutoff="1.0000000000000000"/>
      <sparseX i="929" alpha="19353.053108298944" sparseCutoff="1.0000000000000000"/>
      <sparseX i="930" alpha="-2796.0194598449607" sparseCutoff="1.0000000000000000"/>
      <sparseX i="931" alpha="-2260.3927060286805" sparseCutoff="1.0000000000000000"/>
      <sparseX i="932" alpha="-92568.176455142078" sparseCutoff="1.0000000000000000"/>
      <sparseX i="933" alpha="-59647.041610179738" sparseCutoff="1.0000000000000000"/>
      <sparseX i="934" alpha="-562.25291976019275" sparseCutoff="1.0000000000000000"/>
      <sparseX i="935" alpha="-477.04363983276687" sparseCutoff="1.0000000000000000"/>
      <sparseX i="936" alpha="-539.97337898731848" sparseCutoff="1.0000000000000000"/>
      <sparseX i="937" alpha="-1477.9806529381103" sparseCutoff="1.0000000000000000"/>
      <sparseX i="938" alpha="-48309.321805463820" sparseCutoff="1.0000000000000000"/>
      <sparseX i="939" alpha="-49076.037594723952" sparseCutoff="1.0000000000000000"/>
      <sparseX i="940" alpha="-36440.874869590472" sparseCutoff="1.0000000000000000"/>
      <sparseX i="941" alpha="2005.4796999664864" sparseCutoff="1.0000000000000000"/>
      <sparseX i="942" alpha="24188.761287112389" sparseCutoff="1.0000000000000000"/>
      <sparseX i="943" alpha="-25614.030517031151" sparseCutoff="1.0000000000000000"/>
      <sparseX i="944" alpha="-3203.5839922627351" sparseCutoff="1.0000000000000000"/>
      <sparseX i="945" alpha="-13448.566261106091" sparseCutoff="1.0000000000000000"/>
      <sparseX i="946" alpha="15384.226854070861" sparseCutoff="1.0000000000000000"/>
      <sparseX i="947" alpha="940.36560789229293" sparseCutoff="1.0000000000000000"/>
      <sparseX i="948" alpha="699.90060721212399" sparseCutoff="1.0000000000000000"/>
      <sparseX i="949" alpha="-8056.0597049820344" sparseCutoff="1.0000000000000000"/>
      <sparseX i="950" alpha="2467.8455358215488" sparseCutoff="1.0000000000000000"/>
      <sparseX i="951" alpha="-7865.3124422299925" sparseCutoff="1.0000000000000000"/>
      <sparseX i="952" alpha="12168.764625938855" sparseCutoff="1.0000000000000000"/>
      <sparseX i="953" alpha="-3001.7285785276576" sparseCutoff="1.0000000000000000"/>
      <sparseX i="954" alpha="-1310.1866038422145" sparseCutoff="1.0000000000000000"/>
      <sparseX i="955" alpha="-361.96760047761899" sparseCutoff="1.0000000000000000"/>
      <sparseX i="956" alpha="-2827.9666656425425" sparseCutoff="1.0000000000000000"/>
      <sparseX i="957" alpha="-637.32116923382648" sparseCutoff="1.0000000000000000"/>
      <sparseX i="958" alpha="-6065.2020560197416" sparseCutoff="1.0000000000000000"/>
      <sparseX i="959" alpha="504.97794928845150" sparseCutoff="1.0000000000000000"/>
      <sparseX i="960" alpha="-13705.298058650667" sparseCutoff="1.0000000000000000"/>
      <sparseX i="961" alpha="-83666.606074115101" sparseCutoff="1.0000000000000000"/>
      <sparseX i="962" alpha="79451.113619680138" sparseCutoff="1.0000000000000000"/>
      <sparseX i="963" alpha="6088.4990223044524" sparseCutoff="1.0000000000000000"/>
      <sparseX i="964" alpha="4595.6277181301557" sparseCutoff="1.0000000000000000"/>
      <sparseX i="965" alpha="-832.09512753971148" sparseCutoff="1.0000000000000000"/>
      <sparseX i="966" alpha="84146.281402934532" sparseCutoff="1.0000000000000000"/>
      <sparseX i="967" alpha="-42616.166487037510" sparseCutoff="1.0000000000000000"/>
      <sparseX i="968" alpha="-42646.709626649885" sparseCutoff="1.0000000000000000"/>
      <sparseX i="969" alpha="663.61518747918137" sparseCutoff="1.0000000000000000"/>
      <sparseX i="970" alpha="-1916.2744828971258" sparseCutoff="1.0000000000000000"/>
      <sparseX i="971" alpha="2792.1145826627207" sparseCutoff="1.0000000000000000"/>
      <sparseX i="972" alpha="-5415.2222576985068" sparseCutoff="1.0000000000000000"/>
      <sparseX i="973" alpha="-1064.4238010664997" sparseCutoff="1.0000000000000000"/>
      <sparseX i="974" alpha="-2239.4937853822812" sparseCutoff="1.0000000000000000"/>
      <sparseX i="975" alpha="-133.91282012649606" sparseCutoff="1.0000000000000000"/>
      <sparseX i="976" alpha="315.07744407684396" sparseCutoff="1.0000000000000000"/>
      <sparseX i="977" alpha="-298.52702767543144" sparseCutoff="1.0000000000000000"/>
      <sparseX i="978" alpha="-4666.3811127612325" sparseCutoff="1.0000000000000000"/>
      <sparseX i="979" alpha="4719.8380735112632" sparseCutoff="1.0000000000000000"/>
      <sparseX i="980" alpha="-70208.259489162796" sparseCutoff="1.0000000000000000"/>
      <sparseX i="981" alpha="-10594.653174685684" sparseCutoff="1.0000000000000000"/>
      <sparseX i="982" alpha="10697.739422382179" sparseCutoff="1.0000000000000000"/>
      <sparseX i="983" alpha="21511.085013283151" sparseCutoff="1.0000000000000000"/>
      <sparseX i="984" alpha="7959.1531467242021" sparseCutoff="1.0000000000000000"/>
      <sparseX i="985" alpha="-20514.483999011365" sparseCutoff="1.0000000000000000"/>
      <sparseX i="986" alpha="-3858.9646922103284" sparseCutoff="1.0000000000000000"/>
      <sparseX i="987" alpha="1307.7047366716640" sparseCutoff="1.0000000000000000"/>
      <sparseX i="988" alpha="871.57310314745848" sparseCutoff="1.0000000000000000"/>
      <sparseX i="989" alpha="3069.6503191608554" sparseCutoff="1.0000000000000000"/>
      <sparseX i="990" alpha="3810.5417615014408" sparseCutoff="1.0000000000000000"/>
      <sparseX i="991" alpha="-978.46537249081632" sparseCutoff="1.0000000000000000"/>
      <sparseX i="992" alpha="-962.35305091617658" sparseCutoff="1.0000000000000000"/>
      <sparseX i="993" alpha="-13415.803268069514" sparseCutoff="1.0000000000000000"/>
      <sparseX i="994" alpha="358.32652101100922" sparseCutoff="1.0000000000000000"/>
      <sparseX i="995" alpha="1806.7802452311987" sparseCutoff="1.0000000000000000"/>
      <sparseX i="996" alpha="444.48924394963308" sparseCutoff="1.0000000000000000"/>
      <sparseX i="997" alpha="8803.7721705702133" sparseCutoff="1.0000000000000000"/>
      <sparseX i="998" alpha="3055.9464612855818" sparseCutoff="1.0000000000000000"/>
      <sparseX i="999" alpha="15765.680488610558" sparseCutoff="1.0000000000000000"/>
      <sparseX i="1000" alpha="40084.705268509235" sparseCutoff="1.0000000000000000"/>
      <sparseX i="1001" alpha="-5354.3497941194391" sparseCutoff="1.0000000000000000"/>
      <sparseX i="1002" alpha="-916.22967701501818" sparseCutoff="1.0000000000000000"/>
      <sparseX i="1003" alpha="-1021.3610754113572" sparseCutoff="1.0000000000000000"/>
      <sparseX i="1004" alpha="3298.5081615461418" sparseCutoff="1.0000000000000000"/>
      <sparseX i="1005" alpha="288.42509140293419" sparseCutoff="1.0000000000000000"/>
      <sparseX i="1006" alpha="9703.7240144331172" sparseCutoff="1.0000000000000000"/>
      <sparseX i="1007" alpha="16059.105201141136" sparseCutoff="1.0000000000000000"/>
      <sparseX i="1008" alpha="-1990.5565685671804" sparseCutoff="1.0000000000000000"/>
      <sparseX i="1009" alpha="-413.51833404970063" sparseCutoff="1.0000000000000000"/>
      <sparseX i="1010" alpha="-14344.360953600664" sparseCutoff="1.0000000000000000"/>
      <sparseX i="1011" alpha="-44679.285071494523" sparseCutoff="1.0000000000000000"/>
      <sparseX i="1012" alpha="-9149.1535885042140" sparseCutoff="1.0000000000000000"/>
      <sparseX i="1013" alpha="-2334.2703717583695" sparseCutoff="1.0000000000000000"/>
      <sparseX i="1014" alpha="201.61856284158171" sparseCutoff="1.0000000000000000"/>
      <sparseX i="1015" alpha="-52950.187148983721" sparseCutoff="1.0000000000000000"/>
      <sparseX i="1016" alpha="8429.3817251427427" sparseCutoff="1.0000000000000000"/>
      <sparseX i="1017" alpha="-2221.1193508247707" sparseCutoff="1.0000000000000000"/>
      <sparseX i="1018" alpha="972.25819423314726" sparseCutoff="1.0000000000000000"/>
      <sparseX i="1019" alpha="-30591.625404961371" sparseCutoff="1.0000000000000000"/>
      <sparseX i="1020" alpha="4523.4849334645160" sparseCutoff="1.0000000000000000"/>
      <sparseX i="1021" alpha="-21679.607556418287" sparseCutoff="1.0000000000000000"/>
      <sparseX i="1022" alpha="999.86058515022000" sparseCutoff="1.0000000000000000"/>
      <sparseX i="1023" alpha="1610.6965489287466" sparseCutoff="1.0000000000000000"/>
      <sparseX i="1024" alpha="-10704.172961186505" sparseCutoff="1.0000000000000000"/>
      <sparseX i="1025" alpha="-1085.7077431807793" sparseCutoff="1.0000000000000000"/>
      <sparseX i="1026" alpha="-6346.1782338565117" sparseCutoff="1.0000000000000000"/>
      <sparseX i="1027" alpha="91756.117569587703" sparseCutoff="1.0000000000000000"/>
      <sparseX i="1028" alpha="-28488.358788342812" sparseCutoff="1.0000000000000000"/>
      <sparseX i="1029" alpha="-28501.654901435137" sparseCutoff="1.0000000000000000"/>
      <sparseX i="1030" alpha="-84331.656302807722" sparseCutoff="1.0000000000000000"/>
      <sparseX i="1031" alpha="20947.906886558769" sparseCutoff="1.0000000000000000"/>
      <sparseX i="1032" alpha="138301.07877049953" sparseCutoff="1.0000000000000000"/>
      <sparseX i="1033" alpha="-424.26425471608906" sparseCutoff="1.0000000000000000"/>
      <sparseX i="1034" alpha="-118.26166298469821" sparseCutoff="1.0000000000000000"/>
      <sparseX i="1035" alpha="-11318.233590474118" sparseCutoff="1.0000000000000000"/>
      <sparseX i="1036" alpha="5377.4833466923601" sparseCutoff="1.0000000000000000"/>
      <sparseX i="1037" alpha="-4223.1563400292607" sparseCutoff="1.0000000000000000"/>
      <sparseX i="1038" alpha="14696.866872609713" sparseCutoff="1.0000000000000000"/>
      <sparseX i="1039" alpha="6092.3021792931504" sparseCutoff="1.0000000000000000"/>
      <sparseX i="1040" alpha="3375.1493193713168" sparseCutoff="1.0000000000000000"/>
      <sparseX i="1041" alpha="4616.6484600055728" sparseCutoff="1.0000000000000000"/>
      <sparseX i="1042" alpha="1932.0598245977833" sparseCutoff="1.0000000000000000"/>
      <sparseX i="1043" alpha="10478.797546496495" sparseCutoff="1.0000000000000000"/>
      <sparseX i="1044" alpha="14388.066362225984" sparseCutoff="1.0000000000000000"/>
      <sparseX i="1045" alpha="1484.9805412416379" sparseCutoff="1.0000000000000000"/>
      <sparseX i="1046" alpha="-1539.4705337361390" sparseCutoff="1.0000000000000000"/>
      <sparseX i="1047" alpha="38064.741552399559" sparseCutoff="1.0000000000000000"/>
      <sparseX i="1048" alpha="-483.82913632592641" sparseCutoff="1.0000000000000000"/>
      <sparseX i="1049" alpha="10466.737452052184" sparseCutoff="1.0000000000000000"/>
      <sparseX i="1050" alpha="-3146.2177156925450" sparseCutoff="1.0000000000000000"/>
      <sparseX i="1051" alpha="-3096.3307646316725" sparseCutoff="1.0000000000000000"/>
      <sparseX i="1052" alpha="-1646.7665963486209" sparseCutoff="1.0000000000000000"/>
      <sparseX i="1053" alpha="-77068.425286921934" sparseCutoff="1.0000000000000000"/>
      <sparseX i="1054" alpha="21075.330295532534" sparseCutoff="1.0000000000000000"/>
