<GAP_2026_1_20_0_16_51_7_895>
<Potential label="GAP_2026_1_20_0_16_51_7_895" init_args="IP GAP label=GAP_2026_1_20_0_16_51_7_895"/>
<GAP_params label="GAP_2026_1_20_0_16_51_7_895" gap_version="1686220958">
  <GAP_data do_core="F">
    <e0 Z="1" value=".00000000000000000E+000"/>
    <e0 Z="2" value=".00000000000000000E+000"/>
    <e0 Z="3" value=".00000000000000000E+000"/>
    <e0 Z="4" value=".00000000000000000E+000"/>
    <e0 Z="5" value=".00000000000000000E+000"/>
    <e0 Z="6" value=".00000000000000000E+000"/>
    <e0 Z="7" value=".00000000000000000E+000"/>
    <e0 Z="8" value=".00000000000000000E+000"/>
    <e0 Z="9" value=".00000000000000000E+000"/>
    <e0 Z="10" value=".00000000000000000E+000"/>
    <e0 Z="11" value=".00000000000000000E+000"/>
    <e0 Z="12" value=".00000000000000000E+000"/>
    <e0 Z="13" value=".00000000000000000E+000"/>
    <e0 Z="14" value=".00000000000000000E+000"/>
    <e0 Z="15" value=".00000000000000000E+000"/>
    <e0 Z="16" value=".00000000000000000E+000"/>
    <e0 Z="17" value=".00000000000000000E+000"/>
    <e0 Z="18" value=".00000000000000000E+000"/>
    <e0 Z="19" value=".00000000000000000E+000"/>
    <e0 Z="20" value=".00000000000000000E+000"/>
    <e0 Z="21" value=".00000000000000000E+000"/>
    <e0 Z="22" value=".00000000000000000E+000"/>
    <e0 Z="23" value=".00000000000000000E+000"/>
    <e0 Z="24" value=".00000000000000000E+000"/>
    <e0 Z="25" value=".00000000000000000E+000"/>
    <e0 Z="26" value=".00000000000000000E+000"/>
    <e0 Z="27" value=".00000000000000000E+000"/>
    <e0 Z="28" value=".00000000000000000E+000"/>
    <e0 Z="29" value=".00000000000000000E+000"/>
    <e0 Z="30" value=".00000000000000000E+000"/>
    <e0 Z="31" value=".00000000000000000E+000"/>
    <e0 Z="32" value=".00000000000000000E+000"/>
    <e0 Z="33" value=".00000000000000000E+000"/>
    <e0 Z="34" value=".00000000000000000E+000"/>
    <e0 Z="35" value=".00000000000000000E+000"/>
    <e0 Z="36" value=".00000000000000000E+000"/>
    <e0 Z="37" value=".00000000000000000E+000"/>
    <e0 Z="38" value=".00000000000000000E+000"/>
    <e0 Z="39" value=".00000000000000000E+000"/>
    <e0 Z="40" value=".00000000000000000E+000"/>
    <e0 Z="41" value=".00000000000000000E+000"/>
    <e0 Z="42" value=".00000000000000000E+000"/>
    <e0 Z="43" value=".00000000000000000E+000"/>
    <e0 Z="44" value=".00000000000000000E+000"/>
    <e0 Z="45" value=".00000000000000000E+000"/>
    <e0 Z="46" value=".00000000000000000E+000"/>
    <e0 Z="47" value=".00000000000000000E+000"/>
    <e0 Z="48" value=".00000000000000000E+000"/>
    <e0 Z="49" value=".00000000000000000E+000"/>
    <e0 Z="50" value=".00000000000000000E+000"/>
    <e0 Z="51" value=".00000000000000000E+000"/>
    <e0 Z="52" value=".00000000000000000E+000"/>
    <e0 Z="53" value=".00000000000000000E+000"/>
    <e0 Z="54" value=".00000000000000000E+000"/>
    <e0 Z="55" value=".00000000000000000E+000"/>
    <e0 Z="56" value=".00000000000000000E+000"/>
    <e0 Z="57" value=".00000000000000000E+000"/>
    <e0 Z="58" value=".00000000000000000E+000"/>
    <e0 Z="59" value=".00000000000000000E+000"/>
    <e0 Z="60" value=".00000000000000000E+000"/>
    <e0 Z="61" value=".00000000000000000E+000"/>
    <e0 Z="62" value=".00000000000000000E+000"/>
    <e0 Z="63" value=".00000000000000000E+000"/>
    <e0 Z="64" value=".00000000000000000E+000"/>
    <e0 Z="65" value=".00000000000000000E+000"/>
    <e0 Z="66" value=".00000000000000000E+000"/>
    <e0 Z="67" value=".00000000000000000E+000"/>
    <e0 Z="68" value=".00000000000000000E+000"/>
    <e0 Z="69" value=".00000000000000000E+000"/>
    <e0 Z="70" value=".00000000000000000E+000"/>
    <e0 Z="71" value=".00000000000000000E+000"/>
    <e0 Z="72" value=".00000000000000000E+000"/>
    <e0 Z="73" value=".00000000000000000E+000"/>
    <e0 Z="74" value=".00000000000000000E+000"/>
    <e0 Z="75" value=".00000000000000000E+000"/>
    <e0 Z="76" value=".00000000000000000E+000"/>
    <e0 Z="77" value=".00000000000000000E+000"/>
    <e0 Z="78" value=".00000000000000000E+000"/>
    <e0 Z="79" value=".00000000000000000E+000"/>
    <e0 Z="80" value=".00000000000000000E+000"/>
    <e0 Z="81" value=".00000000000000000E+000"/>
    <e0 Z="82" value=".00000000000000000E+000"/>
    <e0 Z="83" value="-695.12685956999997"/>
    <e0 Z="84" value=".00000000000000000E+000"/>
    <e0 Z="85" value=".00000000000000000E+000"/>
    <e0 Z="86" value=".00000000000000000E+000"/>
    <e0 Z="87" value=".00000000000000000E+000"/>
    <e0 Z="88" value=".00000000000000000E+000"/>
    <e0 Z="89" value=".00000000000000000E+000"/>
    <e0 Z="90" value=".00000000000000000E+000"/>
    <e0 Z="91" value=".00000000000000000E+000"/>
    <e0 Z="92" value=".00000000000000000E+000"/>
    <e0 Z="93" value=".00000000000000000E+000"/>
    <e0 Z="94" value=".00000000000000000E+000"/>
    <e0 Z="95" value=".00000000000000000E+000"/>
    <e0 Z="96" value=".00000000000000000E+000"/>
    <e0 Z="97" value=".00000000000000000E+000"/>
    <e0 Z="98" value=".00000000000000000E+000"/>
    <e0 Z="99" value=".00000000000000000E+000"/>
    <e0 Z="100" value=".00000000000000000E+000"/>
    <e0 Z="101" value=".00000000000000000E+000"/>
    <e0 Z="102" value=".00000000000000000E+000"/>
    <e0 Z="103" value=".00000000000000000E+000"/>
    <e0 Z="104" value=".00000000000000000E+000"/>
    <e0 Z="105" value=".00000000000000000E+000"/>
    <e0 Z="106" value=".00000000000000000E+000"/>
    <e0 Z="107" value=".00000000000000000E+000"/>
    <e0 Z="108" value=".00000000000000000E+000"/>
    <e0 Z="109" value=".00000000000000000E+000"/>
    <e0 Z="110" value=".00000000000000000E+000"/>
    <e0 Z="111" value=".00000000000000000E+000"/>
    <e0 Z="112" value=".00000000000000000E+000"/>
    <e0 Z="113" value=".00000000000000000E+000"/>
    <e0 Z="114" value=".00000000000000000E+000"/>
    <e0 Z="115" value=".00000000000000000E+000"/>
    <e0 Z="116" value=".00000000000000000E+000"/>
    <e0 Z="117" value=".00000000000000000E+000"/>
    <e0 Z="118" value=".00000000000000000E+000"/>
  </GAP_data>
  <gpSparse label="GAP_2026_1_20_0_16_51_7_895" n_coordinate="3" fitted="T">
    <gpCoordinates label="GAP_2026_1_20_0_16_51_7_8951" dimensions="1" signal_variance="2.0000000000000000" signal_mean=".00000000000000000E+000" sparsified="T" n_permutations="2" covariance_type="1" n_sparseX="15" sparseX_filename="GAP.xml.sparseX.GAP_2026_1_20_0_16_51_7_8951" sparseX_md5sum="91b9508afaf98fe185725bcdea675d5e">
      <theta>  0.50000000000000000E+000 </theta>
      <descriptor>distance_Nb order=2 cutoff=5.0 n_sparse=15 covariance_type=ard_se delta=2.0 theta_uniform=0.5 sparse_method=uniform compact_clusters=T Z={83 83 }</descriptor>
      <permutation i="1">1  </permutation>
      <permutation i="2">1  </permutation>
      <sparseX i="1" alpha="8367.6319375782623" sparseCutoff="1.0000000000000000"/>
      <sparseX i="2" alpha="-6756.1344431909574" sparseCutoff="1.0000000000000000"/>
      <sparseX i="3" alpha="-4974.5960732861413" sparseCutoff="1.0000000000000000"/>
      <sparseX i="4" alpha="9012.3841054214481" sparseCutoff="1.0000000000000000"/>
      <sparseX i="5" alpha="-252.58008613128129" sparseCutoff=".45585656072317976"/>
      <sparseX i="6" alpha="441.30514732996653" sparseCutoff="1.0000000000000000"/>
      <sparseX i="7" alpha="1982.5937494734012" sparseCutoff=".99570798482189549"/>
      <sparseX i="8" alpha="14676.603595328417" sparseCutoff="1.0000000000000000"/>
      <sparseX i="9" alpha="58717.675368826880" sparseCutoff="1.0000000000000000"/>
      <sparseX i="10" alpha="-2718.7054629624663" sparseCutoff="1.0000000000000000"/>
      <sparseX i="11" alpha="-8090.0432629513016" sparseCutoff="1.0000000000000000"/>
      <sparseX i="12" alpha="263.12836131309382" sparseCutoff=".69470655011975690E-001"/>
      <sparseX i="13" alpha="12874.757971255311" sparseCutoff="1.0000000000000000"/>
      <sparseX i="14" alpha="-63734.948169249597" sparseCutoff="1.0000000000000000"/>
      <sparseX i="15" alpha="-19691.170589267571" sparseCutoff="1.0000000000000000"/>
    </gpCoordinates>
    <gpCoordinates label="GAP_2026_1_20_0_16_51_7_8952" dimensions="3" signal_variance="2.0000000000000000" signal_mean=".00000000000000000E+000" sparsified="T" n_permutations="6" covariance_type="1" n_sparseX="100" sparseX_filename="GAP.xml.sparseX.GAP_2026_1_20_0_16_51_7_8952" sparseX_md5sum="89c2555ff3c5f3a64729b800bfef13ed">
      <theta>  0.10000000000000000E+001  0.10000000000000000E+001  0.10000000000000000E+001 </theta>
      <descriptor> distance_Nb order=3 cutoff=3.25 n_sparse=100 covariance_type=ard_se delta=2.0 theta_uniform=1.0 sparse_method=uniform compact_clusters=T Z={83 83 83 }</descriptor>
      <permutation i="1">1 2 3  </permutation>
      <permutation i="2">2 1 3  </permutation>
      <permutation i="3">1 3 2  </permutation>
      <permutation i="4">3 1 2  </permutation>
      <permutation i="5">2 3 1  </permutation>
      <permutation i="6">3 2 1  </permutation>
      <sparseX i="1" alpha="16303.486747323583" sparseCutoff="1.0000000000000000"/>
      <sparseX i="2" alpha="-6977.1820042654172" sparseCutoff=".58965604465638977E-001"/>
      <sparseX i="3" alpha="-1144.9051454687010" sparseCutoff=".58965604465638977E-001"/>
      <sparseX i="4" alpha="-3156.2299142477677" sparseCutoff="1.0000000000000000"/>
      <sparseX i="5" alpha="-19416.746965156472" sparseCutoff="1.0000000000000000"/>
      <sparseX i="6" alpha="-3207.9475797983910" sparseCutoff=".99951504797528501"/>
      <sparseX i="7" alpha="-154.46117096596257" sparseCutoff=".87523617514957719"/>
      <sparseX i="8" alpha="961.33670880112390" sparseCutoff=".58965604465638977E-001"/>
      <sparseX i="9" alpha="1964.1738745680955" sparseCutoff=".99951504797528501"/>
      <sparseX i="10" alpha="8417.0228033646581" sparseCutoff=".87523617514957719"/>
      <sparseX i="11" alpha="-4666.3576430782532" sparseCutoff=".34769425099981832E-002"/>
      <sparseX i="12" alpha="8378.5650897345877" sparseCutoff=".58937008976364821E-001"/>
      <sparseX i="13" alpha="4969.2170510434617" sparseCutoff=".99951504797528501"/>
      <sparseX i="14" alpha="3747.4442375710842" sparseCutoff=".87481172759433456"/>
      <sparseX i="15" alpha="3097.4774623228241" sparseCutoff="1.0000000000000000"/>
      <sparseX i="16" alpha="3001.1001312354401" sparseCutoff=".58965604465638977E-001"/>
      <sparseX i="17" alpha="961.33454005972487" sparseCutoff=".58965604465638977E-001"/>
      <sparseX i="18" alpha="-1144.9209128082064" sparseCutoff=".58965604465638977E-001"/>
      <sparseX i="19" alpha="8068.5582206765248" sparseCutoff=".58965604465638977E-001"/>
      <sparseX i="20" alpha="3747.0871043081484" sparseCutoff="1.0000000000000000"/>
      <sparseX i="21" alpha="1965.5002694610880" sparseCutoff="1.0000000000000000"/>
      <sparseX i="22" alpha="600.81575769145184" sparseCutoff=".58965604465638977E-001"/>
      <sparseX i="23" alpha="-3156.4696846944103" sparseCutoff="1.0000000000000000"/>
      <sparseX i="24" alpha="4307.0556349470835" sparseCutoff=".58965604465638977E-001"/>
      <sparseX i="25" alpha="-7503.6104407877456" sparseCutoff=".87523617514957719"/>
      <sparseX i="26" alpha="600.81969151067199" sparseCutoff=".58965604465638977E-001"/>
      <sparseX i="27" alpha="9374.0146212546442" sparseCutoff=".51608830117888686E-001"/>
      <sparseX i="28" alpha="19145.000807759818" sparseCutoff=".87523617514957719"/>
      <sparseX i="29" alpha="8416.5956297163211" sparseCutoff=".87523617514957719"/>
      <sparseX i="30" alpha="-1836.5283995071961" sparseCutoff=".87481172759433456"/>
      <sparseX i="31" alpha="10913.417879201406" sparseCutoff=".65000220213912926E-001"/>
      <sparseX i="32" alpha="8461.0963683592490" sparseCutoff=".65031757496381570E-001"/>
      <sparseX i="33" alpha="663.31339628492128" sparseCutoff=".76603836229046141"/>
      <sparseX i="34" alpha="-1733.3770392796471" sparseCutoff=".65000220213912926E-001"/>
      <sparseX i="35" alpha="2031.2832677955239" sparseCutoff=".65031757496381570E-001"/>
      <sparseX i="36" alpha="-11165.335985983291" sparseCutoff=".11184661519166739E-001"/>
      <sparseX i="37" alpha="712.57621592865598" sparseCutoff=".11184661239540072E-001"/>
      <sparseX i="38" alpha="-738.90239807711032" sparseCutoff=".46227391991032204E-003"/>
      <sparseX i="39" alpha="749.42811613711274" sparseCutoff=".21500562860966521E-001"/>
      <sparseX i="40" alpha="3573.1768648736006" sparseCutoff=".21500562860966521E-001"/>
      <sparseX i="41" alpha="-231.92437620551229" sparseCutoff=".18235714308836345E-001"/>
      <sparseX i="42" alpha="-10819.340863640207" sparseCutoff=".27061135851275714"/>
      <sparseX i="43" alpha="7400.2614744355951" sparseCutoff=".11184654661663573E-001"/>
      <sparseX i="44" alpha="-17883.884387490325" sparseCutoff=".52020319614385913"/>
      <sparseX i="45" alpha="5495.9835386339128" sparseCutoff=".52020319614385913"/>
      <sparseX i="46" alpha="8835.4288334276880" sparseCutoff=".44121062917124637"/>
      <sparseX i="47" alpha="-2888.0399866440393" sparseCutoff=".52020319614385913"/>
      <sparseX i="48" alpha="3703.6265668657998" sparseCutoff=".52020319614385913"/>
      <sparseX i="49" alpha="-11165.330772452893" sparseCutoff=".11184654382037076E-001"/>
      <sparseX i="50" alpha="12898.452572208158" sparseCutoff=".44121061814058099"/>
      <sparseX i="51" alpha="-9922.5417552677591" sparseCutoff=".52020318313830805"/>
      <sparseX i="52" alpha="-2686.5238729110843" sparseCutoff=".52020318313830805"/>
      <sparseX i="53" alpha="40.051416945686881" sparseCutoff=".37888325326454050E-002"/>
      <sparseX i="54" alpha="4289.1968953615751" sparseCutoff=".18235703128214705E-001"/>
      <sparseX i="55" alpha="26.023334138556095" sparseCutoff=".15659646986516758E-003"/>
      <sparseX i="56" alpha="-1957.3959253832777" sparseCutoff="1.0000000000000000"/>
      <sparseX i="57" alpha="-10766.130764162943" sparseCutoff=".84815055432537589"/>
      <sparseX i="58" alpha="1347.8151523151705" sparseCutoff="1.0000000000000000"/>
      <sparseX i="59" alpha="1219.9063738024918" sparseCutoff=".72833705280078154E-002"/>
      <sparseX i="60" alpha="298.60564304758577" sparseCutoff="1.0000000000000000"/>
      <sparseX i="61" alpha="363.08408321942238" sparseCutoff=".84815055432537589"/>
      <sparseX i="62" alpha="10044.461379436036" sparseCutoff=".84815055432537589"/>
      <sparseX i="63" alpha="-14219.569574117060" sparseCutoff=".84815055432537589"/>
      <sparseX i="64" alpha="3021.3298873290591" sparseCutoff=".61773947506869346E-002"/>
      <sparseX i="65" alpha="709.10534984838580" sparseCutoff=".11182286330340930E-001"/>
      <sparseX i="66" alpha="7400.1818207432489" sparseCutoff=".11184299553713658E-001"/>
      <sparseX i="67" alpha="340.25778741606376" sparseCutoff=".84814439962241228"/>
      <sparseX i="68" alpha="308.73819815435780" sparseCutoff="1.0000000000000000"/>
      <sparseX i="69" alpha="3751.9465353323767" sparseCutoff=".51881016314289996"/>
      <sparseX i="70" alpha="692.89265584736279" sparseCutoff=".21957051618828716E-001"/>
      <sparseX i="71" alpha="3484.7291418564819" sparseCutoff=".51881016314289996"/>
      <sparseX i="72" alpha="4999.2068867150219" sparseCutoff=".51881014387994207"/>
      <sparseX i="73" alpha="36.392305154493023" sparseCutoff=".37786305651258934E-002"/>
      <sparseX i="74" alpha="-1577.1380671462662" sparseCutoff=".51881016314289996"/>
      <sparseX i="75" alpha="-2895.4509566247148" sparseCutoff=".51881014387994207"/>
      <sparseX i="76" alpha="-4631.4775832699970" sparseCutoff=".44002593433684067"/>
      <sparseX i="77" alpha="8859.9399376618494" sparseCutoff=".44002591799907081"/>
      <sparseX i="78" alpha="-236.38525040959121" sparseCutoff=".18622750362729798E-001"/>
      <sparseX i="79" alpha="-4742.1225395456158" sparseCutoff="1.0000000000000000"/>
      <sparseX i="80" alpha="16361.250670442194" sparseCutoff="1.0000000000000000"/>
      <sparseX i="81" alpha="-6542.8111497358859" sparseCutoff="1.0000000000000000"/>
      <sparseX i="82" alpha="-4672.6699082864470" sparseCutoff=".27854449138232352E-002"/>
      <sparseX i="83" alpha="7875.2112083971515" sparseCutoff=".61357848259688763"/>
      <sparseX i="84" alpha="49.313455954833252" sparseCutoff=".61373920514860066E-003"/>
      <sparseX i="85" alpha="-4121.1041296291178" sparseCutoff=".12463953739954145E-001"/>
      <sparseX i="86" alpha="8496.8245311451265" sparseCutoff=".61357848259688763"/>
      <sparseX i="87" alpha="2706.8679636025336" sparseCutoff=".30866408024057496"/>
      <sparseX i="88" alpha="-13808.248523438611" sparseCutoff=".30865082355521145"/>
      <sparseX i="89" alpha="-10104.377195320296" sparseCutoff=".97211926602634546"/>
      <sparseX i="90" alpha="-3212.5256115515745" sparseCutoff=".69275675053838337"/>
      <sparseX i="91" alpha="-24254.903474730127" sparseCutoff=".97211926602634546"/>
      <sparseX i="92" alpha="15759.130142131989" sparseCutoff=".71262526600270970"/>
      <sparseX i="93" alpha="1621.3210713478970" sparseCutoff="1.0000000000000000"/>
      <sparseX i="94" alpha="-3026.3139244169747" sparseCutoff=".65277503091823086"/>
      <sparseX i="95" alpha="14412.321860705950" sparseCutoff=".43541753589273591E-001"/>
      <sparseX i="96" alpha="-17589.545939996784" sparseCutoff=".71262526600270970"/>
      <sparseX i="97" alpha="8426.0493544589226" sparseCutoff=".22343459767880647"/>
      <sparseX i="98" alpha="5872.7707844038687" sparseCutoff=".95947230908657211"/>
      <sparseX i="99" alpha="-13851.919299227497" sparseCutoff=".24074706390784478"/>
      <sparseX i="100" alpha="-84.590837061082553" sparseCutoff=".55546679358353490"/>
    </gpCoordinates>
    <gpCoordinates label="GAP_2026_1_20_0_16_51_7_8953" dimensions="859" signal_variance="1.0000000000000000" signal_mean=".00000000000000000E+000" sparsified="T" n_permutations="1" covariance_type="2" zeta="4.0000000000000000" n_sparseX="2000" sparseX_filename="GAP.xml.sparseX.GAP_2026_1_20_0_16_51_7_8953" sparseX_md5sum="7041016460da618dd65840b779df966f">
      <descriptor> soap l_max=10 n_max=12 atom_sigma=0.5 cutoff=5.0 radial_scaling=0.0 cutoff_transition_width=1.0 central_weight=1.0 n_sparse=2000 delta=1.0 covariance_type=dot_product zeta=4 sparse_method=cur_points n_species=1 Z=83 species_Z={83 }</descriptor>
      <permutation i="1">1  </permutation>
      <sparseX i="1" alpha=".20342965046751418" sparseCutoff="1.0000000000000000"/>
      <sparseX i="2" alpha="169.00705849088197" sparseCutoff="1.0000000000000000"/>
      <sparseX i="3" alpha="-154.38561575182817" sparseCutoff="1.0000000000000000"/>
      <sparseX i="4" alpha="-133.78706744254222" sparseCutoff="1.0000000000000000"/>
      <sparseX i="5" alpha="-1205.0134778173322" sparseCutoff="1.0000000000000000"/>
      <sparseX i="6" alpha="1173.9446356940878" sparseCutoff="1.0000000000000000"/>
      <sparseX i="7" alpha="428.93538394967169" sparseCutoff="1.0000000000000000"/>
      <sparseX i="8" alpha="250.74518449634644" sparseCutoff="1.0000000000000000"/>
      <sparseX i="9" alpha="98.096636615309862" sparseCutoff="1.0000000000000000"/>
      <sparseX i="10" alpha="489.20398933514866" sparseCutoff="1.0000000000000000"/>
      <sparseX i="11" alpha="-841.62550746642876" sparseCutoff="1.0000000000000000"/>
      <sparseX i="12" alpha="-286.60349174361119" sparseCutoff="1.0000000000000000"/>
      <sparseX i="13" alpha="13.811972213677320" sparseCutoff="1.0000000000000000"/>
      <sparseX i="14" alpha="-240.02209716290878" sparseCutoff="1.0000000000000000"/>
      <sparseX i="15" alpha="42.859019970871941" sparseCutoff="1.0000000000000000"/>
      <sparseX i="16" alpha="-4.0927906480813228" sparseCutoff="1.0000000000000000"/>
      <sparseX i="17" alpha="-459.84081791701817" sparseCutoff="1.0000000000000000"/>
      <sparseX i="18" alpha="209.32207945286024" sparseCutoff="1.0000000000000000"/>
      <sparseX i="19" alpha="265.17491182239735" sparseCutoff="1.0000000000000000"/>
      <sparseX i="20" alpha="-766.53545789285670" sparseCutoff="1.0000000000000000"/>
      <sparseX i="21" alpha="556.81171589720384" sparseCutoff="1.0000000000000000"/>
      <sparseX i="22" alpha="277.86696227965712" sparseCutoff="1.0000000000000000"/>
      <sparseX i="23" alpha="-176.51364176263243" sparseCutoff="1.0000000000000000"/>
      <sparseX i="24" alpha="-356.42042957948854" sparseCutoff="1.0000000000000000"/>
      <sparseX i="25" alpha="371.92335379675387" sparseCutoff="1.0000000000000000"/>
      <sparseX i="26" alpha="-279.18917175295110" sparseCutoff="1.0000000000000000"/>
      <sparseX i="27" alpha="236.58794918156732" sparseCutoff="1.0000000000000000"/>
      <sparseX i="28" alpha="1722.7905597041567" sparseCutoff="1.0000000000000000"/>
      <sparseX i="29" alpha="-1635.8365614347622" sparseCutoff="1.0000000000000000"/>
      <sparseX i="30" alpha="-255.58403479912511" sparseCutoff="1.0000000000000000"/>
      <sparseX i="31" alpha="253.98319381318075" sparseCutoff="1.0000000000000000"/>
      <sparseX i="32" alpha="-310.29356675815143" sparseCutoff="1.0000000000000000"/>
      <sparseX i="33" alpha="1272.2158501887322" sparseCutoff="1.0000000000000000"/>
      <sparseX i="34" alpha="-1141.9373304571734" sparseCutoff="1.0000000000000000"/>
      <sparseX i="35" alpha="-1493.3734054945423" sparseCutoff="1.0000000000000000"/>
      <sparseX i="36" alpha="-129.38921059701136" sparseCutoff="1.0000000000000000"/>
      <sparseX i="37" alpha="1530.5527528173805" sparseCutoff="1.0000000000000000"/>
      <sparseX i="38" alpha="-288.19051284010533" sparseCutoff="1.0000000000000000"/>
      <sparseX i="39" alpha="352.92818537214356" sparseCutoff="1.0000000000000000"/>
      <sparseX i="40" alpha="-1993.2663924829708" sparseCutoff="1.0000000000000000"/>
      <sparseX i="41" alpha="2349.3863315878893" sparseCutoff="1.0000000000000000"/>
      <sparseX i="42" alpha="-236.59204523103736" sparseCutoff="1.0000000000000000"/>
      <sparseX i="43" alpha="-1190.2035443416746" sparseCutoff="1.0000000000000000"/>
      <sparseX i="44" alpha="155.11244761551691" sparseCutoff="1.0000000000000000"/>
      <sparseX i="45" alpha="993.36631377830815" sparseCutoff="1.0000000000000000"/>
      <sparseX i="46" alpha="-263.68487493371140" sparseCutoff="1.0000000000000000"/>
      <sparseX i="47" alpha="639.53667960489327" sparseCutoff="1.0000000000000000"/>
      <sparseX i="48" alpha="-364.65718183005498" sparseCutoff="1.0000000000000000"/>
      <sparseX i="49" alpha="239.21850456085429" sparseCutoff="1.0000000000000000"/>
      <sparseX i="50" alpha="210.13908956174717" sparseCutoff="1.0000000000000000"/>
      <sparseX i="51" alpha="22.472994836885736" sparseCutoff="1.0000000000000000"/>
      <sparseX i="52" alpha="-43.403255142868886" sparseCutoff="1.0000000000000000"/>
      <sparseX i="53" alpha="-148.08107089769859" sparseCutoff="1.0000000000000000"/>
      <sparseX i="54" alpha="244.47867381469348" sparseCutoff="1.0000000000000000"/>
      <sparseX i="55" alpha="487.07302385082340" sparseCutoff="1.0000000000000000"/>
      <sparseX i="56" alpha="-148.44822877189921" sparseCutoff="1.0000000000000000"/>
      <sparseX i="57" alpha="87.617700707162825" sparseCutoff="1.0000000000000000"/>
      <sparseX i="58" alpha="-131.96810402052535" sparseCutoff="1.0000000000000000"/>
      <sparseX i="59" alpha="171.38840475445906" sparseCutoff="1.0000000000000000"/>
      <sparseX i="60" alpha="-611.68194909535339" sparseCutoff="1.0000000000000000"/>
      <sparseX i="61" alpha="438.67460827049933" sparseCutoff="1.0000000000000000"/>
      <sparseX i="62" alpha="-432.23348702787780" sparseCutoff="1.0000000000000000"/>
      <sparseX i="63" alpha="-675.70787644818063" sparseCutoff="1.0000000000000000"/>
      <sparseX i="64" alpha="1061.2984821546447" sparseCutoff="1.0000000000000000"/>
      <sparseX i="65" alpha="-668.66805013439216" sparseCutoff="1.0000000000000000"/>
      <sparseX i="66" alpha="572.17312253599164" sparseCutoff="1.0000000000000000"/>
      <sparseX i="67" alpha="85.324452551327369" sparseCutoff="1.0000000000000000"/>
      <sparseX i="68" alpha="-46.964628415094154" sparseCutoff="1.0000000000000000"/>
      <sparseX i="69" alpha="-445.85778736868701" sparseCutoff="1.0000000000000000"/>
      <sparseX i="70" alpha="66.945281145565573" sparseCutoff="1.0000000000000000"/>
      <sparseX i="71" alpha="478.24789972512917" sparseCutoff="1.0000000000000000"/>
      <sparseX i="72" alpha="905.20092651083985" sparseCutoff="1.0000000000000000"/>
      <sparseX i="73" alpha="-128.84524058677565" sparseCutoff="1.0000000000000000"/>
      <sparseX i="74" alpha="-927.58676380154850" sparseCutoff="1.0000000000000000"/>
      <sparseX i="75" alpha="209.01789511663870" sparseCutoff="1.0000000000000000"/>
      <sparseX i="76" alpha="-144.06521090490762" sparseCutoff="1.0000000000000000"/>
      <sparseX i="77" alpha="71.908838801526784" sparseCutoff="1.0000000000000000"/>
      <sparseX i="78" alpha="-324.07919120652053" sparseCutoff="1.0000000000000000"/>
      <sparseX i="79" alpha="82.847809043783343" sparseCutoff="1.0000000000000000"/>
      <sparseX i="80" alpha="-586.70170142588881" sparseCutoff="1.0000000000000000"/>
      <sparseX i="81" alpha="-89.786565799628974" sparseCutoff="1.0000000000000000"/>
      <sparseX i="82" alpha="314.56481596739911" sparseCutoff="1.0000000000000000"/>
      <sparseX i="83" alpha="100.90819643910952" sparseCutoff="1.0000000000000000"/>
      <sparseX i="84" alpha="-258.47501936420281" sparseCutoff="1.0000000000000000"/>
      <sparseX i="85" alpha="-329.40300296662400" sparseCutoff="1.0000000000000000"/>
      <sparseX i="86" alpha="795.11401978926096" sparseCutoff="1.0000000000000000"/>
      <sparseX i="87" alpha="520.23266508379436" sparseCutoff="1.0000000000000000"/>
      <sparseX i="88" alpha="-472.96116134419123" sparseCutoff="1.0000000000000000"/>
      <sparseX i="89" alpha="53.676409814271722" sparseCutoff="1.0000000000000000"/>
      <sparseX i="90" alpha="40.007865694455518" sparseCutoff="1.0000000000000000"/>
      <sparseX i="91" alpha="-72.936593009231188" sparseCutoff="1.0000000000000000"/>
      <sparseX i="92" alpha="-38.187062725207618" sparseCutoff="1.0000000000000000"/>
      <sparseX i="93" alpha="-193.28117458124939" sparseCutoff="1.0000000000000000"/>
      <sparseX i="94" alpha="-19.215680857617606" sparseCutoff="1.0000000000000000"/>
      <sparseX i="95" alpha="19.333146606853170" sparseCutoff="1.0000000000000000"/>
      <sparseX i="96" alpha="40.958147769208566" sparseCutoff="1.0000000000000000"/>
      <sparseX i="97" alpha="-58.097053620948373" sparseCutoff="1.0000000000000000"/>
      <sparseX i="98" alpha="-1829.9291159960394" sparseCutoff="1.0000000000000000"/>
      <sparseX i="99" alpha="1485.8169373515309" sparseCutoff="1.0000000000000000"/>
      <sparseX i="100" alpha="-266.56581995663254" sparseCutoff="1.0000000000000000"/>
      <sparseX i="101" alpha="357.09472309815527" sparseCutoff="1.0000000000000000"/>
      <sparseX i="102" alpha="2193.6225352782471" sparseCutoff="1.0000000000000000"/>
      <sparseX i="103" alpha="-1762.0649031551195" sparseCutoff="1.0000000000000000"/>
      <sparseX i="104" alpha="305.65132627070813" sparseCutoff="1.0000000000000000"/>
      <sparseX i="105" alpha="-538.12271447521277" sparseCutoff="1.0000000000000000"/>
      <sparseX i="106" alpha="566.10403754471599" sparseCutoff="1.0000000000000000"/>
      <sparseX i="107" alpha="367.01616930044349" sparseCutoff="1.0000000000000000"/>
      <sparseX i="108" alpha="-684.02647997886709" sparseCutoff="1.0000000000000000"/>
      <sparseX i="109" alpha="374.26031900831379" sparseCutoff="1.0000000000000000"/>
      <sparseX i="110" alpha="-107.47344427806247" sparseCutoff="1.0000000000000000"/>
      <sparseX i="111" alpha="-135.37359457495955" sparseCutoff="1.0000000000000000"/>
      <sparseX i="112" alpha="-466.51899904535264" sparseCutoff="1.0000000000000000"/>
      <sparseX i="113" alpha="-207.35911397861989" sparseCutoff="1.0000000000000000"/>
      <sparseX i="114" alpha="-357.77908134635652" sparseCutoff="1.0000000000000000"/>
      <sparseX i="115" alpha="-603.99930129634913" sparseCutoff="1.0000000000000000"/>
      <sparseX i="116" alpha="-159.25547812971570" sparseCutoff="1.0000000000000000"/>
      <sparseX i="117" alpha="-797.16249897554314" sparseCutoff="1.0000000000000000"/>
      <sparseX i="118" alpha="907.20576554471768" sparseCutoff="1.0000000000000000"/>
      <sparseX i="119" alpha="694.30838402984659" sparseCutoff="1.0000000000000000"/>
      <sparseX i="120" alpha="143.24781385078865" sparseCutoff="1.0000000000000000"/>
      <sparseX i="121" alpha="145.97159288886832" sparseCutoff="1.0000000000000000"/>
      <sparseX i="122" alpha="97.209066115824328" sparseCutoff="1.0000000000000000"/>
      <sparseX i="123" alpha="-383.67836104961276" sparseCutoff="1.0000000000000000"/>
      <sparseX i="124" alpha="13.716373863905037" sparseCutoff="1.0000000000000000"/>
      <sparseX i="125" alpha="-538.54486316360101" sparseCutoff="1.0000000000000000"/>
      <sparseX i="126" alpha="-507.86050466815783" sparseCutoff="1.0000000000000000"/>
      <sparseX i="127" alpha="149.90124739731607" sparseCutoff="1.0000000000000000"/>
      <sparseX i="128" alpha="218.24489973591676" sparseCutoff="1.0000000000000000"/>
      <sparseX i="129" alpha="-2.2918703794339721" sparseCutoff="1.0000000000000000"/>
      <sparseX i="130" alpha="253.41410441012283" sparseCutoff="1.0000000000000000"/>
      <sparseX i="131" alpha="-1069.3585699123926" sparseCutoff="1.0000000000000000"/>
      <sparseX i="132" alpha="-576.00268025706498" sparseCutoff="1.0000000000000000"/>
      <sparseX i="133" alpha="477.65725555462080" sparseCutoff="1.0000000000000000"/>
      <sparseX i="134" alpha="970.85260455960861" sparseCutoff="1.0000000000000000"/>
      <sparseX i="135" alpha="105.74540659046478" sparseCutoff="1.0000000000000000"/>
      <sparseX i="136" alpha="-147.80974367730897" sparseCutoff="1.0000000000000000"/>
      <sparseX i="137" alpha="66.947767883225112" sparseCutoff="1.0000000000000000"/>
      <sparseX i="138" alpha="444.44929497287541" sparseCutoff="1.0000000000000000"/>
      <sparseX i="139" alpha="119.66073987043136" sparseCutoff="1.0000000000000000"/>
      <sparseX i="140" alpha="-25.573970980027010" sparseCutoff="1.0000000000000000"/>
      <sparseX i="141" alpha="585.13835021200146" sparseCutoff="1.0000000000000000"/>
      <sparseX i="142" alpha="1157.2652044792981" sparseCutoff="1.0000000000000000"/>
      <sparseX i="143" alpha="-634.28708256343111" sparseCutoff="1.0000000000000000"/>
      <sparseX i="144" alpha="-832.28249884461707" sparseCutoff="1.0000000000000000"/>
      <sparseX i="145" alpha="835.43663324009412" sparseCutoff="1.0000000000000000"/>
      <sparseX i="146" alpha="244.66949724209280" sparseCutoff="1.0000000000000000"/>
      <sparseX i="147" alpha="-558.29334148505222" sparseCutoff="1.0000000000000000"/>
      <sparseX i="148" alpha="-981.06556509431323" sparseCutoff="1.0000000000000000"/>
      <sparseX i="149" alpha="1216.0328788062800" sparseCutoff="1.0000000000000000"/>
      <sparseX i="150" alpha="-148.58513896831352" sparseCutoff="1.0000000000000000"/>
      <sparseX i="151" alpha="-648.56601938488734" sparseCutoff="1.0000000000000000"/>
      <sparseX i="152" alpha="-513.19771424874034" sparseCutoff="1.0000000000000000"/>
      <sparseX i="153" alpha="613.69273815056113" sparseCutoff="1.0000000000000000"/>
      <sparseX i="154" alpha="1363.3287504990853" sparseCutoff="1.0000000000000000"/>
      <sparseX i="155" alpha="-1218.5134586575136" sparseCutoff="1.0000000000000000"/>
      <sparseX i="156" alpha="-3.2814061184807182" sparseCutoff="1.0000000000000000"/>
      <sparseX i="157" alpha="-21.667203274011101" sparseCutoff="1.0000000000000000"/>
      <sparseX i="158" alpha="-6.9402172476831838" sparseCutoff="1.0000000000000000"/>
      <sparseX i="159" alpha="4.9732158172457845" sparseCutoff="1.0000000000000000"/>
      <sparseX i="160" alpha="123.50492392630198" sparseCutoff="1.0000000000000000"/>
      <sparseX i="161" alpha="117.09048332396553" sparseCutoff="1.0000000000000000"/>
      <sparseX i="162" alpha="126.49505068137027" sparseCutoff="1.0000000000000000"/>
      <sparseX i="163" alpha="64.187600933270772" sparseCutoff="1.0000000000000000"/>
      <sparseX i="164" alpha="-71.447580755417917" sparseCutoff="1.0000000000000000"/>
      <sparseX i="165" alpha="8.7429650594069468" sparseCutoff="1.0000000000000000"/>
      <sparseX i="166" alpha="-33.305932190034085" sparseCutoff="1.0000000000000000"/>
      <sparseX i="167" alpha="-21.262732616112920" sparseCutoff="1.0000000000000000"/>
      <sparseX i="168" alpha="-253.96296471471558" sparseCutoff="1.0000000000000000"/>
      <sparseX i="169" alpha="67.821253307540175" sparseCutoff="1.0000000000000000"/>
      <sparseX i="170" alpha="-126.66230792864869" sparseCutoff="1.0000000000000000"/>
      <sparseX i="171" alpha="111.55659585713632" sparseCutoff="1.0000000000000000"/>
      <sparseX i="172" alpha="68.980014120824862" sparseCutoff="1.0000000000000000"/>
      <sparseX i="173" alpha="-409.42189650876793" sparseCutoff="1.0000000000000000"/>
      <sparseX i="174" alpha="550.64906069142182" sparseCutoff="1.0000000000000000"/>
      <sparseX i="175" alpha="-265.56600734800969" sparseCutoff="1.0000000000000000"/>
      <sparseX i="176" alpha="-592.41022856021664" sparseCutoff="1.0000000000000000"/>
      <sparseX i="177" alpha="347.95889420611331" sparseCutoff="1.0000000000000000"/>
      <sparseX i="178" alpha="-328.18702573840960" sparseCutoff="1.0000000000000000"/>
      <sparseX i="179" alpha="142.68442331777794" sparseCutoff="1.0000000000000000"/>
      <sparseX i="180" alpha="-313.73508630294396" sparseCutoff="1.0000000000000000"/>
      <sparseX i="181" alpha="770.44071813841822" sparseCutoff="1.0000000000000000"/>
      <sparseX i="182" alpha="-152.26123547116981" sparseCutoff="1.0000000000000000"/>
      <sparseX i="183" alpha="157.34325278701698" sparseCutoff="1.0000000000000000"/>
      <sparseX i="184" alpha="-98.690468026529771" sparseCutoff="1.0000000000000000"/>
      <sparseX i="185" alpha="135.79161587176301" sparseCutoff="1.0000000000000000"/>
      <sparseX i="186" alpha="-6.5808798865597762" sparseCutoff="1.0000000000000000"/>
      <sparseX i="187" alpha="991.71466223348170" sparseCutoff="1.0000000000000000"/>
      <sparseX i="188" alpha="-927.55666541555922" sparseCutoff="1.0000000000000000"/>
      <sparseX i="189" alpha="502.03515143672001" sparseCutoff="1.0000000000000000"/>
      <sparseX i="190" alpha="-871.73111921162752" sparseCutoff="1.0000000000000000"/>
      <sparseX i="191" alpha="174.94959561835887" sparseCutoff="1.0000000000000000"/>
      <sparseX i="192" alpha="651.29175605350497" sparseCutoff="1.0000000000000000"/>
      <sparseX i="193" alpha="-76.250064459238956" sparseCutoff="1.0000000000000000"/>
      <sparseX i="194" alpha="-2168.0966558697655" sparseCutoff="1.0000000000000000"/>
      <sparseX i="195" alpha="2205.7817749466690" sparseCutoff="1.0000000000000000"/>
      <sparseX i="196" alpha="-249.09001997620888" sparseCutoff="1.0000000000000000"/>
      <sparseX i="197" alpha="-222.35761591173173" sparseCutoff="1.0000000000000000"/>
      <sparseX i="198" alpha="187.41829298939240" sparseCutoff="1.0000000000000000"/>
      <sparseX i="199" alpha="297.06741733768763" sparseCutoff="1.0000000000000000"/>
      <sparseX i="200" alpha="107.00921091451379" sparseCutoff="1.0000000000000000"/>
      <sparseX i="201" alpha="-367.56055976165368" sparseCutoff="1.0000000000000000"/>
      <sparseX i="202" alpha="122.53792865449527" sparseCutoff="1.0000000000000000"/>
      <sparseX i="203" alpha="151.75153085263938" sparseCutoff="1.0000000000000000"/>
      <sparseX i="204" alpha="-278.74410120730465" sparseCutoff="1.0000000000000000"/>
      <sparseX i="205" alpha="229.15037214540570" sparseCutoff="1.0000000000000000"/>
      <sparseX i="206" alpha="-429.79849490725633" sparseCutoff="1.0000000000000000"/>
      <sparseX i="207" alpha="208.63347253198543" sparseCutoff="1.0000000000000000"/>
      <sparseX i="208" alpha="-621.00310231194794" sparseCutoff="1.0000000000000000"/>
      <sparseX i="209" alpha="230.07140155659383" sparseCutoff="1.0000000000000000"/>
      <sparseX i="210" alpha="-398.55507127526994" sparseCutoff="1.0000000000000000"/>
      <sparseX i="211" alpha="173.00814885250000" sparseCutoff="1.0000000000000000"/>
      <sparseX i="212" alpha="-65.133336208841570" sparseCutoff="1.0000000000000000"/>
      <sparseX i="213" alpha="-203.64690089935326" sparseCutoff="1.0000000000000000"/>
      <sparseX i="214" alpha="434.42049100567203" sparseCutoff="1.0000000000000000"/>
      <sparseX i="215" alpha="364.72959692798088" sparseCutoff="1.0000000000000000"/>
      <sparseX i="216" alpha="-368.43661151924238" sparseCutoff="1.0000000000000000"/>
      <sparseX i="217" alpha="1236.3193100607987" sparseCutoff="1.0000000000000000"/>
      <sparseX i="218" alpha="-1200.2588950157851" sparseCutoff="1.0000000000000000"/>
      <sparseX i="219" alpha="417.76471106224125" sparseCutoff="1.0000000000000000"/>
      <sparseX i="220" alpha="-398.83502958645073" sparseCutoff="1.0000000000000000"/>
      <sparseX i="221" alpha="-335.68983517972691" sparseCutoff="1.0000000000000000"/>
      <sparseX i="222" alpha="174.95390766831252" sparseCutoff="1.0000000000000000"/>
      <sparseX i="223" alpha="287.23515382399034" sparseCutoff="1.0000000000000000"/>
      <sparseX i="224" alpha="450.88179124046974" sparseCutoff="1.0000000000000000"/>
      <sparseX i="225" alpha="-191.01853831558077" sparseCutoff="1.0000000000000000"/>
      <sparseX i="226" alpha="469.94739849638057" sparseCutoff="1.0000000000000000"/>
      <sparseX i="227" alpha="-360.08327975171153" sparseCutoff="1.0000000000000000"/>
      <sparseX i="228" alpha="522.54325955559807" sparseCutoff="1.0000000000000000"/>
      <sparseX i="229" alpha="-283.06067226459658" sparseCutoff="1.0000000000000000"/>
      <sparseX i="230" alpha="557.44791041533495" sparseCutoff="1.0000000000000000"/>
      <sparseX i="231" alpha="315.83929145342489" sparseCutoff="1.0000000000000000"/>
      <sparseX i="232" alpha="-11.261368968502289" sparseCutoff="1.0000000000000000"/>
      <sparseX i="233" alpha="-117.78824455434386" sparseCutoff="1.0000000000000000"/>
      <sparseX i="234" alpha="280.94010340431123" sparseCutoff="1.0000000000000000"/>
      <sparseX i="235" alpha="-421.89531827496614" sparseCutoff="1.0000000000000000"/>
      <sparseX i="236" alpha="-127.29043641425680" sparseCutoff="1.0000000000000000"/>
      <sparseX i="237" alpha="-264.89967681524070" sparseCutoff="1.0000000000000000"/>
      <sparseX i="238" alpha="266.03445289933097" sparseCutoff="1.0000000000000000"/>
      <sparseX i="239" alpha="-412.77384633176126" sparseCutoff="1.0000000000000000"/>
      <sparseX i="240" alpha="-283.01629671440656" sparseCutoff="1.0000000000000000"/>
      <sparseX i="241" alpha="-658.02491443565930" sparseCutoff="1.0000000000000000"/>
      <sparseX i="242" alpha="708.32456816395234" sparseCutoff="1.0000000000000000"/>
      <sparseX i="243" alpha="779.72161915751360" sparseCutoff="1.0000000000000000"/>
      <sparseX i="244" alpha="644.81225784333549" sparseCutoff="1.0000000000000000"/>
      <sparseX i="245" alpha="-1554.0702979923847" sparseCutoff="1.0000000000000000"/>
      <sparseX i="246" alpha="188.43947519794489" sparseCutoff="1.0000000000000000"/>
      <sparseX i="247" alpha="41.552585880783639" sparseCutoff="1.0000000000000000"/>
      <sparseX i="248" alpha="104.16903135445656" sparseCutoff="1.0000000000000000"/>
      <sparseX i="249" alpha="-7.1544160646121178" sparseCutoff="1.0000000000000000"/>
      <sparseX i="250" alpha="745.95850304386045" sparseCutoff="1.0000000000000000"/>
      <sparseX i="251" alpha="448.02469175611458" sparseCutoff="1.0000000000000000"/>
      <sparseX i="252" alpha="-1357.8849871205357" sparseCutoff="1.0000000000000000"/>
      <sparseX i="253" alpha="525.84225582672354" sparseCutoff="1.0000000000000000"/>
      <sparseX i="254" alpha="-12.469563705703623" sparseCutoff="1.0000000000000000"/>
      <sparseX i="255" alpha="-42.681778742918560" sparseCutoff="1.0000000000000000"/>
      <sparseX i="256" alpha="437.49721271390297" sparseCutoff="1.0000000000000000"/>
      <sparseX i="257" alpha="-495.71158394552083" sparseCutoff="1.0000000000000000"/>
      <sparseX i="258" alpha="-304.90561903778809" sparseCutoff="1.0000000000000000"/>
      <sparseX i="259" alpha="-63.102109951144911" sparseCutoff="1.0000000000000000"/>
      <sparseX i="260" alpha="-63.094811408859115" sparseCutoff="1.0000000000000000"/>
      <sparseX i="261" alpha="-66.203661784005831" sparseCutoff="1.0000000000000000"/>
      <sparseX i="262" alpha="-176.99488288263257" sparseCutoff="1.0000000000000000"/>
      <sparseX i="263" alpha="-250.67188606264492" sparseCutoff="1.0000000000000000"/>
      <sparseX i="264" alpha="7.6694277575200491" sparseCutoff="1.0000000000000000"/>
      <sparseX i="265" alpha="-244.68038651209307" sparseCutoff="1.0000000000000000"/>
      <sparseX i="266" alpha="52.108484400422938" sparseCutoff="1.0000000000000000"/>
      <sparseX i="267" alpha="105.18164914765499" sparseCutoff="1.0000000000000000"/>
      <sparseX i="268" alpha="-70.794580886060729" sparseCutoff="1.0000000000000000"/>
      <sparseX i="269" alpha="-230.37378921002636" sparseCutoff="1.0000000000000000"/>
      <sparseX i="270" alpha="-484.57005480708170" sparseCutoff="1.0000000000000000"/>
      <sparseX i="271" alpha="-193.42283596910400" sparseCutoff="1.0000000000000000"/>
      <sparseX i="272" alpha="34.087348955206885" sparseCutoff="1.0000000000000000"/>
      <sparseX i="273" alpha="-1.4171800519419233" sparseCutoff="1.0000000000000000"/>
      <sparseX i="274" alpha="211.00482323254795" sparseCutoff="1.0000000000000000"/>
      <sparseX i="275" alpha="-47.504480386703158" sparseCutoff="1.0000000000000000"/>
      <sparseX i="276" alpha="132.07984588581405" sparseCutoff="1.0000000000000000"/>
      <sparseX i="277" alpha="198.18802393686718" sparseCutoff="1.0000000000000000"/>
      <sparseX i="278" alpha="-261.28982050249112" sparseCutoff="1.0000000000000000"/>
      <sparseX i="279" alpha="79.360428275867406" sparseCutoff="1.0000000000000000"/>
      <sparseX i="280" alpha="483.85063535261128" sparseCutoff="1.0000000000000000"/>
      <sparseX i="281" alpha="72.085389950839641" sparseCutoff="1.0000000000000000"/>
      <sparseX i="282" alpha="457.18710712608134" sparseCutoff="1.0000000000000000"/>
      <sparseX i="283" alpha="-320.33848899576566" sparseCutoff="1.0000000000000000"/>
      <sparseX i="284" alpha="-30.729566593834740" sparseCutoff="1.0000000000000000"/>
      <sparseX i="285" alpha="112.08092319631116" sparseCutoff="1.0000000000000000"/>
      <sparseX i="286" alpha="103.76376100506761" sparseCutoff="1.0000000000000000"/>
      <sparseX i="287" alpha="-234.23873669473076" sparseCutoff="1.0000000000000000"/>
      <sparseX i="288" alpha="113.23788144521666" sparseCutoff="1.0000000000000000"/>
      <sparseX i="289" alpha="-191.04048415368717" sparseCutoff="1.0000000000000000"/>
      <sparseX i="290" alpha="247.72884580888157" sparseCutoff="1.0000000000000000"/>
      <sparseX i="291" alpha="-193.30158227572832" sparseCutoff="1.0000000000000000"/>
      <sparseX i="292" alpha="250.18468502164924" sparseCutoff="1.0000000000000000"/>
      <sparseX i="293" alpha="1143.9964313139324" sparseCutoff="1.0000000000000000"/>
      <sparseX i="294" alpha="-1605.2771754991663" sparseCutoff="1.0000000000000000"/>
      <sparseX i="295" alpha="1159.1944722330807" sparseCutoff="1.0000000000000000"/>
      <sparseX i="296" alpha="-1620.0204286343132" sparseCutoff="1.0000000000000000"/>
      <sparseX i="297" alpha="75.813377097617334" sparseCutoff="1.0000000000000000"/>
      <sparseX i="298" alpha="106.11747326423804" sparseCutoff="1.0000000000000000"/>
      <sparseX i="299" alpha="251.57657541121023" sparseCutoff="1.0000000000000000"/>
      <sparseX i="300" alpha="111.48278815463196" sparseCutoff="1.0000000000000000"/>
      <sparseX i="301" alpha="829.93983950116876" sparseCutoff="1.0000000000000000"/>
      <sparseX i="302" alpha="821.48699801174200" sparseCutoff="1.0000000000000000"/>
      <sparseX i="303" alpha="-1906.0396977302867" sparseCutoff="1.0000000000000000"/>
      <sparseX i="304" alpha="-141.16849746584688" sparseCutoff="1.0000000000000000"/>
      <sparseX i="305" alpha="-28.394081156222128" sparseCutoff="1.0000000000000000"/>
      <sparseX i="306" alpha="29.158482620687028" sparseCutoff="1.0000000000000000"/>
      <sparseX i="307" alpha="-677.85073378069012" sparseCutoff="1.0000000000000000"/>
      <sparseX i="308" alpha="2087.9234366522542" sparseCutoff="1.0000000000000000"/>
      <sparseX i="309" alpha="-1417.8535535914393" sparseCutoff="1.0000000000000000"/>
      <sparseX i="310" alpha="-507.09786744991879" sparseCutoff="1.0000000000000000"/>
      <sparseX i="311" alpha="529.58490271484368" sparseCutoff="1.0000000000000000"/>
      <sparseX i="312" alpha="-813.48838606720813" sparseCutoff="1.0000000000000000"/>
      <sparseX i="313" alpha="194.60252662345232" sparseCutoff="1.0000000000000000"/>
      <sparseX i="314" alpha="-1158.5630814892795" sparseCutoff="1.0000000000000000"/>
      <sparseX i="315" alpha="833.14770691408194" sparseCutoff="1.0000000000000000"/>
      <sparseX i="316" alpha="-933.27234021666527" sparseCutoff="1.0000000000000000"/>
      <sparseX i="317" alpha="-275.15079658778558" sparseCutoff="1.0000000000000000"/>
      <sparseX i="318" alpha="1159.4391990504623" sparseCutoff="1.0000000000000000"/>
      <sparseX i="319" alpha="577.06230305918234" sparseCutoff="1.0000000000000000"/>
      <sparseX i="320" alpha="-544.20626095452360" sparseCutoff="1.0000000000000000"/>
      <sparseX i="321" alpha="-233.60617126443793" sparseCutoff="1.0000000000000000"/>
      <sparseX i="322" alpha="116.02498035978057" sparseCutoff="1.0000000000000000"/>
      <sparseX i="323" alpha="-199.73007693753081" sparseCutoff="1.0000000000000000"/>
      <sparseX i="324" alpha="-285.35307096419444" sparseCutoff="1.0000000000000000"/>
      <sparseX i="325" alpha="-512.31635228181847" sparseCutoff="1.0000000000000000"/>
      <sparseX i="326" alpha="775.20876562291346" sparseCutoff="1.0000000000000000"/>
      <sparseX i="327" alpha="-133.71750027043376" sparseCutoff="1.0000000000000000"/>
      <sparseX i="328" alpha="-215.67107143479413" sparseCutoff="1.0000000000000000"/>
      <sparseX i="329" alpha="40.277858654404163" sparseCutoff="1.0000000000000000"/>
      <sparseX i="330" alpha="270.93446263993792" sparseCutoff="1.0000000000000000"/>
      <sparseX i="331" alpha="-448.96529179952807" sparseCutoff="1.0000000000000000"/>
      <sparseX i="332" alpha="259.81300821374941" sparseCutoff="1.0000000000000000"/>
      <sparseX i="333" alpha="176.77679810628300" sparseCutoff="1.0000000000000000"/>
      <sparseX i="334" alpha="-616.50697431802075" sparseCutoff="1.0000000000000000"/>
      <sparseX i="335" alpha="-391.76259076213881" sparseCutoff="1.0000000000000000"/>
      <sparseX i="336" alpha="-20.743244819748668" sparseCutoff="1.0000000000000000"/>
      <sparseX i="337" alpha="185.92288371373354" sparseCutoff="1.0000000000000000"/>
      <sparseX i="338" alpha="-375.80516660524927" sparseCutoff="1.0000000000000000"/>
      <sparseX i="339" alpha="89.605301436016575" sparseCutoff="1.0000000000000000"/>
      <sparseX i="340" alpha="-107.84001530476731" sparseCutoff="1.0000000000000000"/>
      <sparseX i="341" alpha="-137.74179737161643" sparseCutoff="1.0000000000000000"/>
      <sparseX i="342" alpha="-198.83633129819810" sparseCutoff="1.0000000000000000"/>
      <sparseX i="343" alpha="2.5801111508291248" sparseCutoff="1.0000000000000000"/>
      <sparseX i="344" alpha="16.037954602968675" sparseCutoff="1.0000000000000000"/>
      <sparseX i="345" alpha="-4.2529660040949278" sparseCutoff="1.0000000000000000"/>
      <sparseX i="346" alpha="100.68495912623406" sparseCutoff="1.0000000000000000"/>
      <sparseX i="347" alpha="91.631575452291344" sparseCutoff="1.0000000000000000"/>
      <sparseX i="348" alpha="5.8347203340696021" sparseCutoff="1.0000000000000000"/>
      <sparseX i="349" alpha="-114.92950566009445" sparseCutoff="1.0000000000000000"/>
      <sparseX i="350" alpha="-9.6213990217601033" sparseCutoff="1.0000000000000000"/>
      <sparseX i="351" alpha="-747.28992057334062" sparseCutoff="1.0000000000000000"/>
      <sparseX i="352" alpha="527.31810483575987" sparseCutoff="1.0000000000000000"/>
      <sparseX i="353" alpha="-13.062646358343386" sparseCutoff="1.0000000000000000"/>
      <sparseX i="354" alpha="-304.64098184859245" sparseCutoff="1.0000000000000000"/>
      <sparseX i="355" alpha="196.43879331002611" sparseCutoff="1.0000000000000000"/>
      <sparseX i="356" alpha="646.66420443682955" sparseCutoff="1.0000000000000000"/>
      <sparseX i="357" alpha="-332.71829369041086" sparseCutoff="1.0000000000000000"/>
      <sparseX i="358" alpha="377.29435682614462" sparseCutoff="1.0000000000000000"/>
      <sparseX i="359" alpha="470.41538938535012" sparseCutoff="1.0000000000000000"/>
      <sparseX i="360" alpha="34.305843031316265" sparseCutoff="1.0000000000000000"/>
      <sparseX i="361" alpha="-1178.8005793300390" sparseCutoff="1.0000000000000000"/>
      <sparseX i="362" alpha="2981.7906167454848" sparseCutoff="1.0000000000000000"/>
      <sparseX i="363" alpha="-1910.7351862062210" sparseCutoff="1.0000000000000000"/>
      <sparseX i="364" alpha="233.13644804742762" sparseCutoff="1.0000000000000000"/>
      <sparseX i="365" alpha="657.08432430021367" sparseCutoff="1.0000000000000000"/>
      <sparseX i="366" alpha="-1019.2148990654788" sparseCutoff="1.0000000000000000"/>
      <sparseX i="367" alpha="487.79744139496108" sparseCutoff="1.0000000000000000"/>
      <sparseX i="368" alpha="-731.35093594890338" sparseCutoff="1.0000000000000000"/>
      <sparseX i="369" alpha="236.29168597257473" sparseCutoff="1.0000000000000000"/>
      <sparseX i="370" alpha="-1.1962028990793794" sparseCutoff="1.0000000000000000"/>
      <sparseX i="371" alpha="972.00228193697694" sparseCutoff="1.0000000000000000"/>
      <sparseX i="372" alpha="-970.02299017852442" sparseCutoff="1.0000000000000000"/>
      <sparseX i="373" alpha="544.26662546242801" sparseCutoff="1.0000000000000000"/>
      <sparseX i="374" alpha="-388.51175416052689" sparseCutoff="1.0000000000000000"/>
      <sparseX i="375" alpha="147.79406628051245" sparseCutoff="1.0000000000000000"/>
      <sparseX i="376" alpha="-296.43221398028624" sparseCutoff="1.0000000000000000"/>
      <sparseX i="377" alpha="475.72098126858532" sparseCutoff="1.0000000000000000"/>
      <sparseX i="378" alpha="-155.22729212566907" sparseCutoff="1.0000000000000000"/>
      <sparseX i="379" alpha="-87.106773818306024" sparseCutoff="1.0000000000000000"/>
      <sparseX i="380" alpha="168.19766036976458" sparseCutoff="1.0000000000000000"/>
      <sparseX i="381" alpha="-292.34145655789303" sparseCutoff="1.0000000000000000"/>
      <sparseX i="382" alpha="1064.2156969019547" sparseCutoff="1.0000000000000000"/>
      <sparseX i="383" alpha="-1023.6777937584698" sparseCutoff="1.0000000000000000"/>
      <sparseX i="384" alpha="165.14669129002075" sparseCutoff="1.0000000000000000"/>
      <sparseX i="385" alpha="411.29955613673798" sparseCutoff="1.0000000000000000"/>
      <sparseX i="386" alpha="-320.64168905600070" sparseCutoff="1.0000000000000000"/>
      <sparseX i="387" alpha="1280.0791575493231" sparseCutoff="1.0000000000000000"/>
      <sparseX i="388" alpha="-1030.2092217239970" sparseCutoff="1.0000000000000000"/>
      <sparseX i="389" alpha="-156.17939994301909" sparseCutoff="1.0000000000000000"/>
      <sparseX i="390" alpha="-64.499171797819216" sparseCutoff="1.0000000000000000"/>
      <sparseX i="391" alpha="230.46671722702877" sparseCutoff="1.0000000000000000"/>
      <sparseX i="392" alpha="-324.67057474461387" sparseCutoff="1.0000000000000000"/>
      <sparseX i="393" alpha="-111.24977600643005" sparseCutoff="1.0000000000000000"/>
      <sparseX i="394" alpha="-180.11419409057581" sparseCutoff="1.0000000000000000"/>
      <sparseX i="395" alpha="-91.901726997989201" sparseCutoff="1.0000000000000000"/>
      <sparseX i="396" alpha="-298.62856770654207" sparseCutoff="1.0000000000000000"/>
      <sparseX i="397" alpha="193.42641903766415" sparseCutoff="1.0000000000000000"/>
      <sparseX i="398" alpha="-38.961467042924369" sparseCutoff="1.0000000000000000"/>
      <sparseX i="399" alpha="37.419166953123295" sparseCutoff="1.0000000000000000"/>
      <sparseX i="400" alpha="-20.566128563055820" sparseCutoff="1.0000000000000000"/>
      <sparseX i="401" alpha="107.12381665879293" sparseCutoff="1.0000000000000000"/>
      <sparseX i="402" alpha="744.65874781887419" sparseCutoff="1.0000000000000000"/>
      <sparseX i="403" alpha="-236.85379300067143" sparseCutoff="1.0000000000000000"/>
      <sparseX i="404" alpha="-400.80041877404597" sparseCutoff="1.0000000000000000"/>
      <sparseX i="405" alpha="-402.06558020232131" sparseCutoff="1.0000000000000000"/>
      <sparseX i="406" alpha="573.91532789346218" sparseCutoff="1.0000000000000000"/>
      <sparseX i="407" alpha="34.897005616014667" sparseCutoff="1.0000000000000000"/>
      <sparseX i="408" alpha="-49.204266879376313" sparseCutoff="1.0000000000000000"/>
      <sparseX i="409" alpha="-232.52959313049541" sparseCutoff="1.0000000000000000"/>
      <sparseX i="410" alpha="22.109626315806715" sparseCutoff="1.0000000000000000"/>
      <sparseX i="411" alpha="36.726917734285571" sparseCutoff="1.0000000000000000"/>
      <sparseX i="412" alpha="-9.9604340846575941" sparseCutoff="1.0000000000000000"/>
      <sparseX i="413" alpha="-175.64449668160870" sparseCutoff="1.0000000000000000"/>
      <sparseX i="414" alpha="-20.918167261035780" sparseCutoff="1.0000000000000000"/>
      <sparseX i="415" alpha="-14.105840326315361" sparseCutoff="1.0000000000000000"/>
      <sparseX i="416" alpha="-54.782258414235436" sparseCutoff="1.0000000000000000"/>
      <sparseX i="417" alpha="-150.34074394251707" sparseCutoff="1.0000000000000000"/>
      <sparseX i="418" alpha="94.429179261022782" sparseCutoff="1.0000000000000000"/>
      <sparseX i="419" alpha="81.103819030967912" sparseCutoff="1.0000000000000000"/>
      <sparseX i="420" alpha="-1.6685210588588724" sparseCutoff="1.0000000000000000"/>
      <sparseX i="421" alpha="-337.69875779684355" sparseCutoff="1.0000000000000000"/>
      <sparseX i="422" alpha="-254.51479793351282" sparseCutoff="1.0000000000000000"/>
      <sparseX i="423" alpha="-505.48556640643812" sparseCutoff="1.0000000000000000"/>
      <sparseX i="424" alpha="792.99398926193976" sparseCutoff="1.0000000000000000"/>
      <sparseX i="425" alpha="148.09570214796415" sparseCutoff="1.0000000000000000"/>
      <sparseX i="426" alpha="-69.741017292839587" sparseCutoff="1.0000000000000000"/>
      <sparseX i="427" alpha="-111.97673517991417" sparseCutoff="1.0000000000000000"/>
      <sparseX i="428" alpha="154.23576640851493" sparseCutoff="1.0000000000000000"/>
      <sparseX i="429" alpha="-175.50940100765166" sparseCutoff="1.0000000000000000"/>
      <sparseX i="430" alpha="162.66017017662463" sparseCutoff="1.0000000000000000"/>
      <sparseX i="431" alpha="2.2700486416921457" sparseCutoff="1.0000000000000000"/>
      <sparseX i="432" alpha="-345.33356152293669" sparseCutoff="1.0000000000000000"/>
      <sparseX i="433" alpha="787.47118605452772" sparseCutoff="1.0000000000000000"/>
      <sparseX i="434" alpha="238.41580091620693" sparseCutoff="1.0000000000000000"/>
      <sparseX i="435" alpha="-65.014589082695807" sparseCutoff="1.0000000000000000"/>
      <sparseX i="436" alpha="-52.217346025659182" sparseCutoff="1.0000000000000000"/>
      <sparseX i="437" alpha="-15.990006261560350" sparseCutoff="1.0000000000000000"/>
      <sparseX i="438" alpha="-4.6828322497758643" sparseCutoff="1.0000000000000000"/>
      <sparseX i="439" alpha="-149.61151660753515" sparseCutoff="1.0000000000000000"/>
      <sparseX i="440" alpha="-159.95645624246100" sparseCutoff="1.0000000000000000"/>
      <sparseX i="441" alpha="-82.491221935228822" sparseCutoff="1.0000000000000000"/>
      <sparseX i="442" alpha="-180.60583049220349" sparseCutoff="1.0000000000000000"/>
      <sparseX i="443" alpha="-132.63430714799188" sparseCutoff="1.0000000000000000"/>
      <sparseX i="444" alpha="-74.288524645064840" sparseCutoff="1.0000000000000000"/>
      <sparseX i="445" alpha="-35.122889077460428" sparseCutoff="1.0000000000000000"/>
      <sparseX i="446" alpha="-97.774183164407944" sparseCutoff="1.0000000000000000"/>
      <sparseX i="447" alpha="-106.03179594670584" sparseCutoff="1.0000000000000000"/>
      <sparseX i="448" alpha="111.38783127262971" sparseCutoff="1.0000000000000000"/>
      <sparseX i="449" alpha="-125.33961980735356" sparseCutoff="1.0000000000000000"/>
      <sparseX i="450" alpha="145.62646490124504" sparseCutoff="1.0000000000000000"/>
      <sparseX i="451" alpha="-94.870622616361615" sparseCutoff="1.0000000000000000"/>
      <sparseX i="452" alpha="299.51423959608462" sparseCutoff="1.0000000000000000"/>
      <sparseX i="453" alpha="266.22468811947522" sparseCutoff="1.0000000000000000"/>
      <sparseX i="454" alpha="-294.71220213389716" sparseCutoff="1.0000000000000000"/>
      <sparseX i="455" alpha="106.07670716315151" sparseCutoff="1.0000000000000000"/>
      <sparseX i="456" alpha="120.77542384162969" sparseCutoff="1.0000000000000000"/>
      <sparseX i="457" alpha="-279.22482219721053" sparseCutoff="1.0000000000000000"/>
      <sparseX i="458" alpha="-294.45447850941019" sparseCutoff="1.0000000000000000"/>
      <sparseX i="459" alpha="136.21710754697617" sparseCutoff="1.0000000000000000"/>
      <sparseX i="460" alpha="-429.32818052813502" sparseCutoff="1.0000000000000000"/>
      <sparseX i="461" alpha="346.64761226861265" sparseCutoff="1.0000000000000000"/>
      <sparseX i="462" alpha="662.13552094696570" sparseCutoff="1.0000000000000000"/>
      <sparseX i="463" alpha="818.36197431378514" sparseCutoff="1.0000000000000000"/>
      <sparseX i="464" alpha="-1275.3987716981421" sparseCutoff="1.0000000000000000"/>
      <sparseX i="465" alpha="89.755739926725454" sparseCutoff="1.0000000000000000"/>
      <sparseX i="466" alpha="-226.78507158766413" sparseCutoff="1.0000000000000000"/>
      <sparseX i="467" alpha="-223.34873264812484" sparseCutoff="1.0000000000000000"/>
      <sparseX i="468" alpha="398.71072908589525" sparseCutoff="1.0000000000000000"/>
      <sparseX i="469" alpha="-564.56983571235696" sparseCutoff="1.0000000000000000"/>
      <sparseX i="470" alpha="-81.672514646079577" sparseCutoff="1.0000000000000000"/>
      <sparseX i="471" alpha="-34.544385839505182" sparseCutoff="1.0000000000000000"/>
      <sparseX i="472" alpha="390.76313452673782" sparseCutoff="1.0000000000000000"/>
      <sparseX i="473" alpha="-542.28582262333532" sparseCutoff="1.0000000000000000"/>
      <sparseX i="474" alpha="997.62623357261828" sparseCutoff="1.0000000000000000"/>
      <sparseX i="475" alpha="-390.27251202205349" sparseCutoff="1.0000000000000000"/>
      <sparseX i="476" alpha="-429.65598198778662" sparseCutoff="1.0000000000000000"/>
      <sparseX i="477" alpha="142.48462867418894" sparseCutoff="1.0000000000000000"/>
      <sparseX i="478" alpha="103.65681817044393" sparseCutoff="1.0000000000000000"/>
      <sparseX i="479" alpha="-117.47230954239961" sparseCutoff="1.0000000000000000"/>
      <sparseX i="480" alpha="-23.494078791318412" sparseCutoff="1.0000000000000000"/>
      <sparseX i="481" alpha="-397.06085203004847" sparseCutoff="1.0000000000000000"/>
      <sparseX i="482" alpha="-57.365930911802558" sparseCutoff="1.0000000000000000"/>
      <sparseX i="483" alpha="-413.50686724800403" sparseCutoff="1.0000000000000000"/>
      <sparseX i="484" alpha="151.32054559064900" sparseCutoff="1.0000000000000000"/>
      <sparseX i="485" alpha="19.950439317631755" sparseCutoff="1.0000000000000000"/>
      <sparseX i="486" alpha="-21.697543701880402" sparseCutoff="1.0000000000000000"/>
      <sparseX i="487" alpha="-7.0201615231934449" sparseCutoff="1.0000000000000000"/>
      <sparseX i="488" alpha="117.42903645705780" sparseCutoff="1.0000000000000000"/>
      <sparseX i="489" alpha="169.94963481941613" sparseCutoff="1.0000000000000000"/>
      <sparseX i="490" alpha="-91.173620666844059" sparseCutoff="1.0000000000000000"/>
      <sparseX i="491" alpha="-45.420867937137899" sparseCutoff="1.0000000000000000"/>
      <sparseX i="492" alpha="514.49426081376998" sparseCutoff="1.0000000000000000"/>
      <sparseX i="493" alpha="-161.62244221480066" sparseCutoff="1.0000000000000000"/>
      <sparseX i="494" alpha="-423.32454714035134" sparseCutoff="1.0000000000000000"/>
      <sparseX i="495" alpha="-323.01901382705336" sparseCutoff="1.0000000000000000"/>
      <sparseX i="496" alpha="-301.42491915495822" sparseCutoff="1.0000000000000000"/>
      <sparseX i="497" alpha="224.13534125256118" sparseCutoff="1.0000000000000000"/>
      <sparseX i="498" alpha="304.77114838190204" sparseCutoff="1.0000000000000000"/>
      <sparseX i="499" alpha="-114.38895632731308" sparseCutoff="1.0000000000000000"/>
      <sparseX i="500" alpha="-43.553222452926434" sparseCutoff="1.0000000000000000"/>
      <sparseX i="501" alpha="4.5590078530555358" sparseCutoff="1.0000000000000000"/>
      <sparseX i="502" alpha="-16.212904034114949" sparseCutoff="1.0000000000000000"/>
      <sparseX i="503" alpha="158.57424170252176" sparseCutoff="1.0000000000000000"/>
      <sparseX i="504" alpha="156.54890973491959" sparseCutoff="1.0000000000000000"/>
      <sparseX i="505" alpha="-582.19098799693995" sparseCutoff="1.0000000000000000"/>
      <sparseX i="506" alpha="-269.56955846652551" sparseCutoff="1.0000000000000000"/>
      <sparseX i="507" alpha="350.62681279044443" sparseCutoff="1.0000000000000000"/>
      <sparseX i="508" alpha="317.76330931952810" sparseCutoff="1.0000000000000000"/>
      <sparseX i="509" alpha="-88.602935510165253" sparseCutoff="1.0000000000000000"/>
      <sparseX i="510" alpha="-139.89323051162913" sparseCutoff="1.0000000000000000"/>
      <sparseX i="511" alpha="61.929712667829612" sparseCutoff="1.0000000000000000"/>
      <sparseX i="512" alpha="27.135610678143333" sparseCutoff="1.0000000000000000"/>
      <sparseX i="513" alpha="33.478988687792459" sparseCutoff="1.0000000000000000"/>
      <sparseX i="514" alpha="484.71943101246706" sparseCutoff="1.0000000000000000"/>
      <sparseX i="515" alpha="-23.243688152945854" sparseCutoff="1.0000000000000000"/>
      <sparseX i="516" alpha="2316.7462792640049" sparseCutoff="1.0000000000000000"/>
      <sparseX i="517" alpha="-1802.9533103438825" sparseCutoff="1.0000000000000000"/>
      <sparseX i="518" alpha="171.24623378318051" sparseCutoff="1.0000000000000000"/>
      <sparseX i="519" alpha="-591.93110628413126" sparseCutoff="1.0000000000000000"/>
      <sparseX i="520" alpha="1024.3289878339833" sparseCutoff="1.0000000000000000"/>
      <sparseX i="521" alpha="1706.3153514548130" sparseCutoff="1.0000000000000000"/>
      <sparseX i="522" alpha="868.48335786083317" sparseCutoff="1.0000000000000000"/>
      <sparseX i="523" alpha="-2620.3029625704485" sparseCutoff="1.0000000000000000"/>
      <sparseX i="524" alpha="274.21213031160613" sparseCutoff="1.0000000000000000"/>
      <sparseX i="525" alpha="-175.72324065137084" sparseCutoff="1.0000000000000000"/>
      <sparseX i="526" alpha="-34.231609878902447" sparseCutoff="1.0000000000000000"/>
      <sparseX i="527" alpha="-213.80899633242649" sparseCutoff="1.0000000000000000"/>
      <sparseX i="528" alpha="-205.92871329140920" sparseCutoff="1.0000000000000000"/>
      <sparseX i="529" alpha="597.28625000534441" sparseCutoff="1.0000000000000000"/>
      <sparseX i="530" alpha="-89.624133819324342" sparseCutoff="1.0000000000000000"/>
      <sparseX i="531" alpha="-253.87921665616065" sparseCutoff="1.0000000000000000"/>
      <sparseX i="532" alpha="41.249854298526969" sparseCutoff="1.0000000000000000"/>
      <sparseX i="533" alpha="86.982953702558973" sparseCutoff="1.0000000000000000"/>
      <sparseX i="534" alpha="18.622859624546717" sparseCutoff="1.0000000000000000"/>
      <sparseX i="535" alpha="-321.00191204685723" sparseCutoff="1.0000000000000000"/>
      <sparseX i="536" alpha="219.28436184520999" sparseCutoff="1.0000000000000000"/>
      <sparseX i="537" alpha="103.46765612698562" sparseCutoff="1.0000000000000000"/>
      <sparseX i="538" alpha="168.84033747270888" sparseCutoff="1.0000000000000000"/>
      <sparseX i="539" alpha="166.06882191062525" sparseCutoff="1.0000000000000000"/>
      <sparseX i="540" alpha="337.15668233418569" sparseCutoff="1.0000000000000000"/>
      <sparseX i="541" alpha="-767.67549456267943" sparseCutoff="1.0000000000000000"/>
      <sparseX i="542" alpha="371.98371585680349" sparseCutoff="1.0000000000000000"/>
      <sparseX i="543" alpha="143.33015050639131" sparseCutoff="1.0000000000000000"/>
      <sparseX i="544" alpha="311.08666730791026" sparseCutoff="1.0000000000000000"/>
      <sparseX i="545" alpha="-128.74990892106194" sparseCutoff="1.0000000000000000"/>
      <sparseX i="546" alpha="139.13682452625170" sparseCutoff="1.0000000000000000"/>
      <sparseX i="547" alpha="-454.54011819827360" sparseCutoff="1.0000000000000000"/>
      <sparseX i="548" alpha="-173.89097343892863" sparseCutoff="1.0000000000000000"/>
      <sparseX i="549" alpha="-230.49737781385181" sparseCutoff="1.0000000000000000"/>
      <sparseX i="550" alpha="-1048.1505610896772" sparseCutoff="1.0000000000000000"/>
      <sparseX i="551" alpha="-271.10933394428611" sparseCutoff="1.0000000000000000"/>
      <sparseX i="552" alpha="1127.6079332497857" sparseCutoff="1.0000000000000000"/>
      <sparseX i="553" alpha="-671.85713700577776" sparseCutoff="1.0000000000000000"/>
      <sparseX i="554" alpha="23.629758252915817" sparseCutoff="1.0000000000000000"/>
      <sparseX i="555" alpha="-931.79011750397501" sparseCutoff="1.0000000000000000"/>
      <sparseX i="556" alpha="-107.78741126732893" sparseCutoff="1.0000000000000000"/>
      <sparseX i="557" alpha="856.23210741310027" sparseCutoff="1.0000000000000000"/>
      <sparseX i="558" alpha="-309.17791526592924" sparseCutoff="1.0000000000000000"/>
      <sparseX i="559" alpha="-88.770695143809078" sparseCutoff="1.0000000000000000"/>
      <sparseX i="560" alpha="832.69756121518526" sparseCutoff="1.0000000000000000"/>
      <sparseX i="561" alpha="-144.65288433348636" sparseCutoff="1.0000000000000000"/>
      <sparseX i="562" alpha="-131.64198955810676" sparseCutoff="1.0000000000000000"/>
      <sparseX i="563" alpha="-55.778595127533009" sparseCutoff="1.0000000000000000"/>
      <sparseX i="564" alpha="760.30117873492622" sparseCutoff="1.0000000000000000"/>
      <sparseX i="565" alpha="186.39220575825578" sparseCutoff="1.0000000000000000"/>
      <sparseX i="566" alpha="84.791166320896934" sparseCutoff="1.0000000000000000"/>
      <sparseX i="567" alpha="-129.96636132573053" sparseCutoff="1.0000000000000000"/>
      <sparseX i="568" alpha="-56.207626914281320" sparseCutoff="1.0000000000000000"/>
      <sparseX i="569" alpha="-135.13124739597393" sparseCutoff="1.0000000000000000"/>
      <sparseX i="570" alpha="-121.98687203564150" sparseCutoff="1.0000000000000000"/>
      <sparseX i="571" alpha="-812.08525631427142" sparseCutoff="1.0000000000000000"/>
      <sparseX i="572" alpha="-544.65648899920427" sparseCutoff="1.0000000000000000"/>
      <sparseX i="573" alpha="-7.9331105763827408" sparseCutoff="1.0000000000000000"/>
      <sparseX i="574" alpha="-22.608687142123028" sparseCutoff="1.0000000000000000"/>
      <sparseX i="575" alpha="309.08143082605392" sparseCutoff="1.0000000000000000"/>
      <sparseX i="576" alpha="217.22332184356273" sparseCutoff="1.0000000000000000"/>
      <sparseX i="577" alpha="-94.394420308532077" sparseCutoff="1.0000000000000000"/>
      <sparseX i="578" alpha="31.386441275250796" sparseCutoff="1.0000000000000000"/>
      <sparseX i="579" alpha="280.30641199312902" sparseCutoff="1.0000000000000000"/>
      <sparseX i="580" alpha="-267.07605149266811" sparseCutoff="1.0000000000000000"/>
      <sparseX i="581" alpha="564.84338342614728" sparseCutoff="1.0000000000000000"/>
      <sparseX i="582" alpha="-249.47728056902801" sparseCutoff="1.0000000000000000"/>
      <sparseX i="583" alpha="-318.75944209927098" sparseCutoff="1.0000000000000000"/>
      <sparseX i="584" alpha="249.13594718908081" sparseCutoff="1.0000000000000000"/>
      <sparseX i="585" alpha="890.87183747758672" sparseCutoff="1.0000000000000000"/>
      <sparseX i="586" alpha="-1216.6568331018368" sparseCutoff="1.0000000000000000"/>
      <sparseX i="587" alpha="-5.9408924801977916" sparseCutoff="1.0000000000000000"/>
      <sparseX i="588" alpha="138.25126179849693" sparseCutoff="1.0000000000000000"/>
      <sparseX i="589" alpha="128.58678177631560" sparseCutoff="1.0000000000000000"/>
      <sparseX i="590" alpha="-42.494709992771703" sparseCutoff="1.0000000000000000"/>
      <sparseX i="591" alpha="-84.019963517352139" sparseCutoff="1.0000000000000000"/>
      <sparseX i="592" alpha="37.856366881985522" sparseCutoff="1.0000000000000000"/>
      <sparseX i="593" alpha="-49.331774203374010" sparseCutoff="1.0000000000000000"/>
      <sparseX i="594" alpha="-50.718807678355198" sparseCutoff="1.0000000000000000"/>
      <sparseX i="595" alpha="22.364459219816464" sparseCutoff="1.0000000000000000"/>
      <sparseX i="596" alpha="71.041006441133973" sparseCutoff="1.0000000000000000"/>
      <sparseX i="597" alpha="865.72634964293513" sparseCutoff="1.0000000000000000"/>
      <sparseX i="598" alpha="-303.58294662797300" sparseCutoff="1.0000000000000000"/>
      <sparseX i="599" alpha="-187.62453766888402" sparseCutoff="1.0000000000000000"/>
      <sparseX i="600" alpha="512.40795406578127" sparseCutoff="1.0000000000000000"/>
      <sparseX i="601" alpha="1647.6223863722039" sparseCutoff="1.0000000000000000"/>
      <sparseX i="602" alpha="-2080.2195482176944" sparseCutoff="1.0000000000000000"/>
      <sparseX i="603" alpha="-1598.8324491347730" sparseCutoff="1.0000000000000000"/>
      <sparseX i="604" alpha="-4.2512632288651666" sparseCutoff="1.0000000000000000"/>
      <sparseX i="605" alpha="1619.5909282913556" sparseCutoff="1.0000000000000000"/>
      <sparseX i="606" alpha="1016.2624485599888" sparseCutoff="1.0000000000000000"/>
      <sparseX i="607" alpha="-846.63175928276394" sparseCutoff="1.0000000000000000"/>
      <sparseX i="608" alpha="330.85664648403247" sparseCutoff="1.0000000000000000"/>
      <sparseX i="609" alpha="34.475561090671000" sparseCutoff="1.0000000000000000"/>
      <sparseX i="610" alpha="221.18822883912750" sparseCutoff="1.0000000000000000"/>
      <sparseX i="611" alpha="45.071429978888986" sparseCutoff="1.0000000000000000"/>
      <sparseX i="612" alpha="-838.53263047884559" sparseCutoff="1.0000000000000000"/>
      <sparseX i="613" alpha="-34.092413279714258" sparseCutoff="1.0000000000000000"/>
      <sparseX i="614" alpha="23.464440439713048" sparseCutoff="1.0000000000000000"/>
      <sparseX i="615" alpha="40.587823910836121" sparseCutoff="1.0000000000000000"/>
      <sparseX i="616" alpha="104.32779817813160" sparseCutoff="1.0000000000000000"/>
      <sparseX i="617" alpha="94.418406560563000" sparseCutoff="1.0000000000000000"/>
      <sparseX i="618" alpha="-24.279830816253831" sparseCutoff="1.0000000000000000"/>
      <sparseX i="619" alpha="-26.212272387765143" sparseCutoff="1.0000000000000000"/>
      <sparseX i="620" alpha="10.550934780189788" sparseCutoff="1.0000000000000000"/>
      <sparseX i="621" alpha="-80.066348388195024" sparseCutoff="1.0000000000000000"/>
      <sparseX i="622" alpha="50.615052417505659" sparseCutoff="1.0000000000000000"/>
      <sparseX i="623" alpha="12.942393745751414" sparseCutoff="1.0000000000000000"/>
      <sparseX i="624" alpha="795.35477678828568" sparseCutoff="1.0000000000000000"/>
      <sparseX i="625" alpha="108.69912383173815" sparseCutoff="1.0000000000000000"/>
      <sparseX i="626" alpha="-726.65312497953028" sparseCutoff="1.0000000000000000"/>
      <sparseX i="627" alpha="-314.76637754274702" sparseCutoff="1.0000000000000000"/>
      <sparseX i="628" alpha="41.276032959976135" sparseCutoff="1.0000000000000000"/>
      <sparseX i="629" alpha="34.865026119328640" sparseCutoff="1.0000000000000000"/>
      <sparseX i="630" alpha="-234.71739490324308" sparseCutoff="1.0000000000000000"/>
      <sparseX i="631" alpha="323.65743393244492" sparseCutoff="1.0000000000000000"/>
      <sparseX i="632" alpha="-53.277142395149646" sparseCutoff="1.0000000000000000"/>
      <sparseX i="633" alpha="-142.18466070669328" sparseCutoff="1.0000000000000000"/>
      <sparseX i="634" alpha="375.07976613741386" sparseCutoff="1.0000000000000000"/>
      <sparseX i="635" alpha="25.779748918805165" sparseCutoff="1.0000000000000000"/>
      <sparseX i="636" alpha="48.782101535495215" sparseCutoff="1.0000000000000000"/>
      <sparseX i="637" alpha="-200.00633357893452" sparseCutoff="1.0000000000000000"/>
      <sparseX i="638" alpha="466.38352274330907" sparseCutoff="1.0000000000000000"/>
      <sparseX i="639" alpha="-36.921201870031524" sparseCutoff="1.0000000000000000"/>
      <sparseX i="640" alpha="-68.712310778057869" sparseCutoff="1.0000000000000000"/>
      <sparseX i="641" alpha="282.18654730700808" sparseCutoff="1.0000000000000000"/>
      <sparseX i="642" alpha="323.03946634308039" sparseCutoff="1.0000000000000000"/>
      <sparseX i="643" alpha="-479.78423924892797" sparseCutoff="1.0000000000000000"/>
      <sparseX i="644" alpha="595.33425629661110" sparseCutoff="1.0000000000000000"/>
      <sparseX i="645" alpha="-310.56428160295889" sparseCutoff="1.0000000000000000"/>
      <sparseX i="646" alpha="-211.15295926254470" sparseCutoff="1.0000000000000000"/>
      <sparseX i="647" alpha="163.10675781456249" sparseCutoff="1.0000000000000000"/>
      <sparseX i="648" alpha="682.50415611829442" sparseCutoff="1.0000000000000000"/>
      <sparseX i="649" alpha="-337.40897894477570" sparseCutoff="1.0000000000000000"/>
      <sparseX i="650" alpha="1967.1581255469539" sparseCutoff="1.0000000000000000"/>
      <sparseX i="651" alpha="-1781.0908564648742" sparseCutoff="1.0000000000000000"/>
      <sparseX i="652" alpha="40.826369954986603" sparseCutoff="1.0000000000000000"/>
      <sparseX i="653" alpha="-.44584890173577370E-001" sparseCutoff="1.0000000000000000"/>
      <sparseX i="654" alpha="-200.20794953670168" sparseCutoff="1.0000000000000000"/>
      <sparseX i="655" alpha="-126.75514648820183" sparseCutoff="1.0000000000000000"/>
      <sparseX i="656" alpha="214.93990122680145" sparseCutoff="1.0000000000000000"/>
      <sparseX i="657" alpha="267.51499119083201" sparseCutoff="1.0000000000000000"/>
      <sparseX i="658" alpha="50.196718608137608" sparseCutoff="1.0000000000000000"/>
      <sparseX i="659" alpha="150.04772518810859" sparseCutoff="1.0000000000000000"/>
      <sparseX i="660" alpha="-256.87433156040521" sparseCutoff="1.0000000000000000"/>
      <sparseX i="661" alpha="10.335863348203954" sparseCutoff="1.0000000000000000"/>
      <sparseX i="662" alpha=".59505862643946927" sparseCutoff="1.0000000000000000"/>
      <sparseX i="663" alpha="-5.7519294866567341" sparseCutoff="1.0000000000000000"/>
      <sparseX i="664" alpha="-292.83979718645935" sparseCutoff="1.0000000000000000"/>
      <sparseX i="665" alpha="290.77682335160665" sparseCutoff="1.0000000000000000"/>
      <sparseX i="666" alpha="266.82255378757077" sparseCutoff="1.0000000000000000"/>
      <sparseX i="667" alpha="-288.05618615595847" sparseCutoff="1.0000000000000000"/>
      <sparseX i="668" alpha="687.60707903072091" sparseCutoff="1.0000000000000000"/>
      <sparseX i="669" alpha="-286.61440326513718" sparseCutoff="1.0000000000000000"/>
      <sparseX i="670" alpha="-7276.6826863827146" sparseCutoff="1.0000000000000000"/>
      <sparseX i="671" alpha="7187.3633431805811" sparseCutoff="1.0000000000000000"/>
      <sparseX i="672" alpha="-445.27977025141939" sparseCutoff="1.0000000000000000"/>
      <sparseX i="673" alpha="172.36395217294896" sparseCutoff="1.0000000000000000"/>
      <sparseX i="674" alpha="52.999645013421592" sparseCutoff="1.0000000000000000"/>
      <sparseX i="675" alpha="-142.60738223687471" sparseCutoff="1.0000000000000000"/>
      <sparseX i="676" alpha="213.45091048926889" sparseCutoff="1.0000000000000000"/>
      <sparseX i="677" alpha="427.36483311930522" sparseCutoff="1.0000000000000000"/>
      <sparseX i="678" alpha="-45.134316552184352" sparseCutoff="1.0000000000000000"/>
      <sparseX i="679" alpha="130.12500287718296" sparseCutoff="1.0000000000000000"/>
      <sparseX i="680" alpha="74.962197886587546" sparseCutoff="1.0000000000000000"/>
      <sparseX i="681" alpha="182.52641089959494" sparseCutoff="1.0000000000000000"/>
      <sparseX i="682" alpha="442.63486007902770" sparseCutoff="1.0000000000000000"/>
      <sparseX i="683" alpha="85.036851508224430" sparseCutoff="1.0000000000000000"/>
      <sparseX i="684" alpha="-21.382808711671377" sparseCutoff="1.0000000000000000"/>
      <sparseX i="685" alpha="-75.500893100129716" sparseCutoff="1.0000000000000000"/>
      <sparseX i="686" alpha="-275.52176697203510" sparseCutoff="1.0000000000000000"/>
      <sparseX i="687" alpha="157.97922398956990" sparseCutoff="1.0000000000000000"/>
      <sparseX i="688" alpha="-142.97174158550450" sparseCutoff="1.0000000000000000"/>
      <sparseX i="689" alpha="6.3607879323693908" sparseCutoff="1.0000000000000000"/>
      <sparseX i="690" alpha="-33.936132896684526" sparseCutoff="1.0000000000000000"/>
      <sparseX i="691" alpha="141.85229445321798" sparseCutoff="1.0000000000000000"/>
      <sparseX i="692" alpha="-70.625104006310323" sparseCutoff="1.0000000000000000"/>
      <sparseX i="693" alpha="208.14910806716460" sparseCutoff="1.0000000000000000"/>
      <sparseX i="694" alpha="-161.63586892785077" sparseCutoff="1.0000000000000000"/>
      <sparseX i="695" alpha="-37.102541611115690" sparseCutoff="1.0000000000000000"/>
      <sparseX i="696" alpha="-227.66200352744721" sparseCutoff="1.0000000000000000"/>
      <sparseX i="697" alpha="260.03049878991419" sparseCutoff="1.0000000000000000"/>
      <sparseX i="698" alpha="28.102318892010764" sparseCutoff="1.0000000000000000"/>
      <sparseX i="699" alpha="840.44031716875713" sparseCutoff="1.0000000000000000"/>
      <sparseX i="700" alpha="304.89550698685929" sparseCutoff="1.0000000000000000"/>
      <sparseX i="701" alpha="280.37332624745886" sparseCutoff="1.0000000000000000"/>
      <sparseX i="702" alpha="26.383837677224243" sparseCutoff="1.0000000000000000"/>
      <sparseX i="703" alpha="-67.279550294492537" sparseCutoff="1.0000000000000000"/>
      <sparseX i="704" alpha="-205.25468495151603" sparseCutoff="1.0000000000000000"/>
      <sparseX i="705" alpha="-67.278192883989732" sparseCutoff="1.0000000000000000"/>
      <sparseX i="706" alpha="779.62652468641704" sparseCutoff="1.0000000000000000"/>
      <sparseX i="707" alpha="-2672.7677323227240" sparseCutoff="1.0000000000000000"/>
      <sparseX i="708" alpha="1777.8282227448681" sparseCutoff="1.0000000000000000"/>
      <sparseX i="709" alpha="19046.756417258875" sparseCutoff="1.0000000000000000"/>
      <sparseX i="710" alpha="-69.725675092206529" sparseCutoff="1.0000000000000000"/>
      <sparseX i="711" alpha="1757.2890533972748" sparseCutoff="1.0000000000000000"/>
      <sparseX i="712" alpha="-206.43884544903977" sparseCutoff="1.0000000000000000"/>
      <sparseX i="713" alpha="-1582.7219646399772" sparseCutoff="1.0000000000000000"/>
      <sparseX i="714" alpha="-1156.8179721613969" sparseCutoff="1.0000000000000000"/>
      <sparseX i="715" alpha="1201.0700384179668" sparseCutoff="1.0000000000000000"/>
      <sparseX i="716" alpha="19.772247255615358" sparseCutoff="1.0000000000000000"/>
      <sparseX i="717" alpha="333.45736787474584" sparseCutoff="1.0000000000000000"/>
      <sparseX i="718" alpha="-93.659916985588723" sparseCutoff="1.0000000000000000"/>
      <sparseX i="719" alpha="-383.34290924254617" sparseCutoff="1.0000000000000000"/>
      <sparseX i="720" alpha="165.02461606003149" sparseCutoff="1.0000000000000000"/>
      <sparseX i="721" alpha="135.25184423516316" sparseCutoff="1.0000000000000000"/>
      <sparseX i="722" alpha="-12836.825841104303" sparseCutoff="1.0000000000000000"/>
      <sparseX i="723" alpha="540.62451145827197" sparseCutoff="1.0000000000000000"/>
      <sparseX i="724" alpha="-374.00357559313386" sparseCutoff="1.0000000000000000"/>
      <sparseX i="725" alpha="212.07206571103546" sparseCutoff="1.0000000000000000"/>
      <sparseX i="726" alpha="2286.4782653410648" sparseCutoff="1.0000000000000000"/>
      <sparseX i="727" alpha="-935.88647083928333" sparseCutoff="1.0000000000000000"/>
      <sparseX i="728" alpha="224.66125801411076" sparseCutoff="1.0000000000000000"/>
      <sparseX i="729" alpha="-1337.7892811770198" sparseCutoff="1.0000000000000000"/>
      <sparseX i="730" alpha="197.18861552072806" sparseCutoff="1.0000000000000000"/>
      <sparseX i="731" alpha="162.03163314271853" sparseCutoff="1.0000000000000000"/>
      <sparseX i="732" alpha="360.48901334918747" sparseCutoff="1.0000000000000000"/>
      <sparseX i="733" alpha="400.59629450719996" sparseCutoff="1.0000000000000000"/>
      <sparseX i="734" alpha="44.174159761766866" sparseCutoff="1.0000000000000000"/>
      <sparseX i="735" alpha="81.238795360619946" sparseCutoff="1.0000000000000000"/>
      <sparseX i="736" alpha="-184.75808260010297" sparseCutoff="1.0000000000000000"/>
      <sparseX i="737" alpha="7.3105868791279383" sparseCutoff="1.0000000000000000"/>
      <sparseX i="738" alpha="1.4122390865381642" sparseCutoff="1.0000000000000000"/>
      <sparseX i="739" alpha="-171.24195631824918" sparseCutoff="1.0000000000000000"/>
      <sparseX i="740" alpha="-60.480054335864367" sparseCutoff="1.0000000000000000"/>
      <sparseX i="741" alpha="-336.82009210007061" sparseCutoff="1.0000000000000000"/>
      <sparseX i="742" alpha="730.13592066083766" sparseCutoff="1.0000000000000000"/>
      <sparseX i="743" alpha="406.02563817441819" sparseCutoff="1.0000000000000000"/>
      <sparseX i="744" alpha="-142.08938311351696" sparseCutoff="1.0000000000000000"/>
      <sparseX i="745" alpha="-344.01530056405647" sparseCutoff="1.0000000000000000"/>
      <sparseX i="746" alpha="301.74478459616563" sparseCutoff="1.0000000000000000"/>
      <sparseX i="747" alpha="964.24283200153934" sparseCutoff="1.0000000000000000"/>
      <sparseX i="748" alpha="-1005.6724642077866" sparseCutoff="1.0000000000000000"/>
      <sparseX i="749" alpha="-62.668691222725471" sparseCutoff="1.0000000000000000"/>
      <sparseX i="750" alpha="1.3028836380887980" sparseCutoff="1.0000000000000000"/>
      <sparseX i="751" alpha="11.409517332849912" sparseCutoff="1.0000000000000000"/>
      <sparseX i="752" alpha="73.314608086222734" sparseCutoff="1.0000000000000000"/>
      <sparseX i="753" alpha="-218.62283865660169" sparseCutoff="1.0000000000000000"/>
      <sparseX i="754" alpha="7538.2430884792948" sparseCutoff="1.0000000000000000"/>
      <sparseX i="755" alpha="-86.418071953076051" sparseCutoff="1.0000000000000000"/>
      <sparseX i="756" alpha="-59.301149393900182" sparseCutoff="1.0000000000000000"/>
      <sparseX i="757" alpha="-83.922634120893861" sparseCutoff="1.0000000000000000"/>
      <sparseX i="758" alpha="167.00124859872443" sparseCutoff="1.0000000000000000"/>
      <sparseX i="759" alpha="-864.72625482783451" sparseCutoff="1.0000000000000000"/>
      <sparseX i="760" alpha="1094.1844080147066" sparseCutoff="1.0000000000000000"/>
      <sparseX i="761" alpha="-134.62868954926884" sparseCutoff="1.0000000000000000"/>
      <sparseX i="762" alpha="110.53431007758924" sparseCutoff="1.0000000000000000"/>
      <sparseX i="763" alpha="1.2969020252475538" sparseCutoff="1.0000000000000000"/>
      <sparseX i="764" alpha="8007.5109173785704" sparseCutoff="1.0000000000000000"/>
      <sparseX i="765" alpha="-7991.9707021679933" sparseCutoff="1.0000000000000000"/>
      <sparseX i="766" alpha="96.451297917597145" sparseCutoff="1.0000000000000000"/>
      <sparseX i="767" alpha="147.35933595433414" sparseCutoff="1.0000000000000000"/>
      <sparseX i="768" alpha="163.18382098497173" sparseCutoff="1.0000000000000000"/>
      <sparseX i="769" alpha="67.067860836389983" sparseCutoff="1.0000000000000000"/>
      <sparseX i="770" alpha="14134.225664233974" sparseCutoff="1.0000000000000000"/>
      <sparseX i="771" alpha="286.61700517138996" sparseCutoff="1.0000000000000000"/>
      <sparseX i="772" alpha="-163.93182662221250" sparseCutoff="1.0000000000000000"/>
      <sparseX i="773" alpha="-9.6564821132468648" sparseCutoff="1.0000000000000000"/>
      <sparseX i="774" alpha="84.178170809328861" sparseCutoff="1.0000000000000000"/>
      <sparseX i="775" alpha="915.73227085544420" sparseCutoff="1.0000000000000000"/>
      <sparseX i="776" alpha="-39.599926441119088" sparseCutoff="1.0000000000000000"/>
      <sparseX i="777" alpha="-16.751010810304454" sparseCutoff="1.0000000000000000"/>
      <sparseX i="778" alpha="-328.49604867759120" sparseCutoff="1.0000000000000000"/>
      <sparseX i="779" alpha="60.213385218694214" sparseCutoff="1.0000000000000000"/>
      <sparseX i="780" alpha="-84.591190996408230" sparseCutoff="1.0000000000000000"/>
      <sparseX i="781" alpha="16.299151970587271" sparseCutoff="1.0000000000000000"/>
      <sparseX i="782" alpha="1.6180778811691656" sparseCutoff="1.0000000000000000"/>
      <sparseX i="783" alpha="-150.69771471217791" sparseCutoff="1.0000000000000000"/>
      <sparseX i="784" alpha="-278.94821914586453" sparseCutoff="1.0000000000000000"/>
      <sparseX i="785" alpha="-47.314823454234961" sparseCutoff="1.0000000000000000"/>
      <sparseX i="786" alpha="-7456.4183313473595" sparseCutoff="1.0000000000000000"/>
      <sparseX i="787" alpha="-10.210915298668294" sparseCutoff="1.0000000000000000"/>
      <sparseX i="788" alpha="166.13464804374982" sparseCutoff="1.0000000000000000"/>
      <sparseX i="789" alpha="-9869.6921294223321" sparseCutoff="1.0000000000000000"/>
      <sparseX i="790" alpha="-9924.7409494603216" sparseCutoff="1.0000000000000000"/>
      <sparseX i="791" alpha="-877.03215805384536" sparseCutoff="1.0000000000000000"/>
      <sparseX i="792" alpha="662.03061828428395" sparseCutoff="1.0000000000000000"/>
      <sparseX i="793" alpha="54.565912473657590" sparseCutoff="1.0000000000000000"/>
      <sparseX i="794" alpha="-8.4115917742644939" sparseCutoff="1.0000000000000000"/>
      <sparseX i="795" alpha="-283.65992722588254" sparseCutoff="1.0000000000000000"/>
      <sparseX i="796" alpha="-6183.1712454686012" sparseCutoff="1.0000000000000000"/>
      <sparseX i="797" alpha="-509.58793643478703" sparseCutoff="1.0000000000000000"/>
      <sparseX i="798" alpha="57.879900964923429" sparseCutoff="1.0000000000000000"/>
      <sparseX i="799" alpha="24.916261138826886" sparseCutoff="1.0000000000000000"/>
      <sparseX i="800" alpha="772.96973016799507" sparseCutoff="1.0000000000000000"/>
      <sparseX i="801" alpha="-1397.3197754160508" sparseCutoff="1.0000000000000000"/>
      <sparseX i="802" alpha="928.46208056569378" sparseCutoff="1.0000000000000000"/>
      <sparseX i="803" alpha="2298.7462764767783" sparseCutoff="1.0000000000000000"/>
      <sparseX i="804" alpha="-2629.1710431693864" sparseCutoff="1.0000000000000000"/>
      <sparseX i="805" alpha="-379.52699795591764" sparseCutoff="1.0000000000000000"/>
      <sparseX i="806" alpha="392.91494132257043" sparseCutoff="1.0000000000000000"/>
      <sparseX i="807" alpha="147.60701482963256" sparseCutoff="1.0000000000000000"/>
      <sparseX i="808" alpha="-289.12186367414643" sparseCutoff="1.0000000000000000"/>
      <sparseX i="809" alpha="369.94940171059159" sparseCutoff="1.0000000000000000"/>
      <sparseX i="810" alpha="876.64978211909738" sparseCutoff="1.0000000000000000"/>
      <sparseX i="811" alpha="120.22699021847617" sparseCutoff="1.0000000000000000"/>
      <sparseX i="812" alpha="-1633.5546789490522" sparseCutoff="1.0000000000000000"/>
      <sparseX i="813" alpha="1627.1164966612255" sparseCutoff="1.0000000000000000"/>
      <sparseX i="814" alpha="-257.22513960053203" sparseCutoff="1.0000000000000000"/>
      <sparseX i="815" alpha="-469.32438148063846" sparseCutoff="1.0000000000000000"/>
      <sparseX i="816" alpha="5900.3685353822339" sparseCutoff="1.0000000000000000"/>
      <sparseX i="817" alpha="-302.52191974405838" sparseCutoff="1.0000000000000000"/>
      <sparseX i="818" alpha="-562.15397015673307" sparseCutoff="1.0000000000000000"/>
      <sparseX i="819" alpha="69.219691970941824" sparseCutoff="1.0000000000000000"/>
      <sparseX i="820" alpha="-95.094119858043413" sparseCutoff="1.0000000000000000"/>
      <sparseX i="821" alpha="29127.298931722504" sparseCutoff="1.0000000000000000"/>
      <sparseX i="822" alpha="-28983.635869429458" sparseCutoff="1.0000000000000000"/>
      <sparseX i="823" alpha="390.54619089803697" sparseCutoff="1.0000000000000000"/>
      <sparseX i="824" alpha="21.348496859094865" sparseCutoff="1.0000000000000000"/>
      <sparseX i="825" alpha="11.139658581581045" sparseCutoff="1.0000000000000000"/>
      <sparseX i="826" alpha="-51.579575095541706" sparseCutoff="1.0000000000000000"/>
      <sparseX i="827" alpha="-109.92222642157120" sparseCutoff="1.0000000000000000"/>
      <sparseX i="828" alpha="-29.808312045970094" sparseCutoff="1.0000000000000000"/>
      <sparseX i="829" alpha="-251.02975470805370" sparseCutoff="1.0000000000000000"/>
      <sparseX i="830" alpha="-300.78817446775435" sparseCutoff="1.0000000000000000"/>
      <sparseX i="831" alpha="-297.50972241639255" sparseCutoff="1.0000000000000000"/>
      <sparseX i="832" alpha="114.28976036670305" sparseCutoff="1.0000000000000000"/>
      <sparseX i="833" alpha="122.08375305812028" sparseCutoff="1.0000000000000000"/>
      <sparseX i="834" alpha="15984.330753622909" sparseCutoff="1.0000000000000000"/>
      <sparseX i="835" alpha="420.45466231878288" sparseCutoff="1.0000000000000000"/>
      <sparseX i="836" alpha="707.80894159771049" sparseCutoff="1.0000000000000000"/>
      <sparseX i="837" alpha="25.312619769533008" sparseCutoff="1.0000000000000000"/>
      <sparseX i="838" alpha="25.283699266613080" sparseCutoff="1.0000000000000000"/>
      <sparseX i="839" alpha="-162.28975508803182" sparseCutoff="1.0000000000000000"/>
      <sparseX i="840" alpha="288.74207375835164" sparseCutoff="1.0000000000000000"/>
      <sparseX i="841" alpha="627.44677197851001" sparseCutoff="1.0000000000000000"/>
      <sparseX i="842" alpha="1085.2971663176186" sparseCutoff="1.0000000000000000"/>
      <sparseX i="843" alpha="-89.915524314390296" sparseCutoff="1.0000000000000000"/>
      <sparseX i="844" alpha="-28.150045391236148" sparseCutoff="1.0000000000000000"/>
      <sparseX i="845" alpha="32.321241834863173" sparseCutoff="1.0000000000000000"/>
      <sparseX i="846" alpha="612.95622306854716" sparseCutoff="1.0000000000000000"/>
      <sparseX i="847" alpha="-111.77809375415444" sparseCutoff="1.0000000000000000"/>
      <sparseX i="848" alpha="440.21402717610954" sparseCutoff="1.0000000000000000"/>
      <sparseX i="849" alpha="334.28292152671668" sparseCutoff="1.0000000000000000"/>
      <sparseX i="850" alpha="2.1835214775119058" sparseCutoff="1.0000000000000000"/>
      <sparseX i="851" alpha="-26.081395791542391" sparseCutoff="1.0000000000000000"/>
      <sparseX i="852" alpha="46.858073286205908" sparseCutoff="1.0000000000000000"/>
      <sparseX i="853" alpha="-63.181784734658493" sparseCutoff="1.0000000000000000"/>
      <sparseX i="854" alpha="-287.25132924222027" sparseCutoff="1.0000000000000000"/>
      <sparseX i="855" alpha="224.89258306256437" sparseCutoff="1.0000000000000000"/>
      <sparseX i="856" alpha="-11.577708649564121" sparseCutoff="1.0000000000000000"/>
      <sparseX i="857" alpha="1785.4914856507598" sparseCutoff="1.0000000000000000"/>
      <sparseX i="858" alpha="1573.5478660102685" sparseCutoff="1.0000000000000000"/>
      <sparseX i="859" alpha="74.992954285512695" sparseCutoff="1.0000000000000000"/>
      <sparseX i="860" alpha="-3.4474442188464645" sparseCutoff="1.0000000000000000"/>
      <sparseX i="861" alpha="-233.79100920335611" sparseCutoff="1.0000000000000000"/>
      <sparseX i="862" alpha="-23.543515292679540" sparseCutoff="1.0000000000000000"/>
      <sparseX i="863" alpha="98.490950274886359" sparseCutoff="1.0000000000000000"/>
      <sparseX i="864" alpha="1455.8633663715268" sparseCutoff="1.0000000000000000"/>
      <sparseX i="865" alpha="3410.1374376768626" sparseCutoff="1.0000000000000000"/>
      <sparseX i="866" alpha="-373.13097339361377" sparseCutoff="1.0000000000000000"/>
      <sparseX i="867" alpha="-15.791639391254611" sparseCutoff="1.0000000000000000"/>
      <sparseX i="868" alpha="8.6972985055896519" sparseCutoff="1.0000000000000000"/>
      <sparseX i="869" alpha="211.06181213440684" sparseCutoff="1.0000000000000000"/>
      <sparseX i="870" alpha="900.22496661873186" sparseCutoff="1.0000000000000000"/>
      <sparseX i="871" alpha="858.85666095519173" sparseCutoff="1.0000000000000000"/>
      <sparseX i="872" alpha="-38.109499879776862" sparseCutoff="1.0000000000000000"/>
      <sparseX i="873" alpha="26.447632038930212" sparseCutoff="1.0000000000000000"/>
      <sparseX i="874" alpha="791.30026394836261" sparseCutoff="1.0000000000000000"/>
      <sparseX i="875" alpha="-399.57787529074221" sparseCutoff="1.0000000000000000"/>
      <sparseX i="876" alpha="6785.2609369874690" sparseCutoff="1.0000000000000000"/>
      <sparseX i="877" alpha="1615.0846154663793" sparseCutoff="1.0000000000000000"/>
      <sparseX i="878" alpha="193.03272647870017" sparseCutoff="1.0000000000000000"/>
      <sparseX i="879" alpha="525.39014952672221" sparseCutoff="1.0000000000000000"/>
      <sparseX i="880" alpha="15323.256133522669" sparseCutoff="1.0000000000000000"/>
      <sparseX i="881" alpha="-104.72528515717983" sparseCutoff="1.0000000000000000"/>
      <sparseX i="882" alpha="133.78422558201336" sparseCutoff="1.0000000000000000"/>
      <sparseX i="883" alpha="203.07365439157314" sparseCutoff="1.0000000000000000"/>
      <sparseX i="884" alpha="-3519.4879608655915" sparseCutoff="1.0000000000000000"/>
      <sparseX i="885" alpha="-685.72644871866896" sparseCutoff="1.0000000000000000"/>
      <sparseX i="886" alpha="-269.25995844710832" sparseCutoff="1.0000000000000000"/>
      <sparseX i="887" alpha="68.086483408615649" sparseCutoff="1.0000000000000000"/>
      <sparseX i="888" alpha="297.10602477581426" sparseCutoff="1.0000000000000000"/>
      <sparseX i="889" alpha="5243.5241877643994" sparseCutoff="1.0000000000000000"/>
      <sparseX i="890" alpha="-328.11312222881952" sparseCutoff="1.0000000000000000"/>
      <sparseX i="891" alpha="-1120.7489454616050" sparseCutoff="1.0000000000000000"/>
      <sparseX i="892" alpha="263.64930046398388" sparseCutoff="1.0000000000000000"/>
      <sparseX i="893" alpha="431.11127321315581" sparseCutoff="1.0000000000000000"/>
      <sparseX i="894" alpha="-1897.8853752964783" sparseCutoff="1.0000000000000000"/>
      <sparseX i="895" alpha="138.79628237316663" sparseCutoff="1.0000000000000000"/>
      <sparseX i="896" alpha="-25165.796296364217" sparseCutoff="1.0000000000000000"/>
      <sparseX i="897" alpha="-162.87183699292723" sparseCutoff="1.0000000000000000"/>
      <sparseX i="898" alpha="383.64283333627270" sparseCutoff="1.0000000000000000"/>
      <sparseX i="899" alpha="149.51994535750376" sparseCutoff="1.0000000000000000"/>
      <sparseX i="900" alpha="137.96617856583268" sparseCutoff="1.0000000000000000"/>
      <sparseX i="901" alpha="84.454596957289795" sparseCutoff="1.0000000000000000"/>
      <sparseX i="902" alpha="604.84133117615602" sparseCutoff="1.0000000000000000"/>
      <sparseX i="903" alpha="794.59685018532218" sparseCutoff="1.0000000000000000"/>
      <sparseX i="904" alpha="1246.2419697237165" sparseCutoff="1.0000000000000000"/>
      <sparseX i="905" alpha="452.74612076200765" sparseCutoff="1.0000000000000000"/>
      <sparseX i="906" alpha="-1033.1250771397599" sparseCutoff="1.0000000000000000"/>
      <sparseX i="907" alpha="-329.86714205823336" sparseCutoff="1.0000000000000000"/>
      <sparseX i="908" alpha="-780.73397538277652" sparseCutoff="1.0000000000000000"/>
      <sparseX i="909" alpha="955.71767022072572" sparseCutoff="1.0000000000000000"/>
      <sparseX i="910" alpha="-966.05291217705758" sparseCutoff="1.0000000000000000"/>
      <sparseX i="911" alpha="-547.46291418516921" sparseCutoff="1.0000000000000000"/>
      <sparseX i="912" alpha="-187.30571637584430" sparseCutoff="1.0000000000000000"/>
      <sparseX i="913" alpha="302.80894422563284" sparseCutoff="1.0000000000000000"/>
      <sparseX i="914" alpha="-36167.240505743386" sparseCutoff="1.0000000000000000"/>
      <sparseX i="915" alpha="50395.278077783660" sparseCutoff="1.0000000000000000"/>
      <sparseX i="916" alpha="-43402.464237125656" sparseCutoff="1.0000000000000000"/>
      <sparseX i="917" alpha="-568.21360368662818" sparseCutoff="1.0000000000000000"/>
      <sparseX i="918" alpha="1055.0260314817874" sparseCutoff="1.0000000000000000"/>
      <sparseX i="919" alpha="1818.7140283847602" sparseCutoff="1.0000000000000000"/>
      <sparseX i="920" alpha="-2.1000835992018176" sparseCutoff="1.0000000000000000"/>
      <sparseX i="921" alpha="-585.05926903846307" sparseCutoff="1.0000000000000000"/>
      <sparseX i="922" alpha="-1317.5921933595430" sparseCutoff="1.0000000000000000"/>
      <sparseX i="923" alpha="-668.87652256083163" sparseCutoff="1.0000000000000000"/>
      <sparseX i="924" alpha="513.01677586347648" sparseCutoff="1.0000000000000000"/>
      <sparseX i="925" alpha="520.72643833700170" sparseCutoff="1.0000000000000000"/>
      <sparseX i="926" alpha="612.85904678696420" sparseCutoff="1.0000000000000000"/>
      <sparseX i="927" alpha="-153.09017796851165" sparseCutoff="1.0000000000000000"/>
      <sparseX i="928" alpha="2500.0229348048720" sparseCutoff="1.0000000000000000"/>
      <sparseX i="929" alpha="-199.41273016901471" sparseCutoff="1.0000000000000000"/>
      <sparseX i="930" alpha="854.94692605408602" sparseCutoff="1.0000000000000000"/>
      <sparseX i="931" alpha="-320.95401457729008" sparseCutoff="1.0000000000000000"/>
      <sparseX i="932" alpha="329.64571839146731" sparseCutoff="1.0000000000000000"/>
      <sparseX i="933" alpha="-13.908639507300055" sparseCutoff="1.0000000000000000"/>
      <sparseX i="934" alpha="-187.10116649796308" sparseCutoff="1.0000000000000000"/>
      <sparseX i="935" alpha="370.48999851221100" sparseCutoff="1.0000000000000000"/>
      <sparseX i="936" alpha="-1005.1983687880021" sparseCutoff="1.0000000000000000"/>
      <sparseX i="937" alpha="-1167.2426003797073" sparseCutoff="1.0000000000000000"/>
      <sparseX i="938" alpha="-74.278434211535611" sparseCutoff="1.0000000000000000"/>
      <sparseX i="939" alpha="-177.45358446160756" sparseCutoff="1.0000000000000000"/>
      <sparseX i="940" alpha="23209.621062422822" sparseCutoff="1.0000000000000000"/>
      <sparseX i="941" alpha="-24715.380197285987" sparseCutoff="1.0000000000000000"/>
      <sparseX i="942" alpha="-431.94115062159597" sparseCutoff="1.0000000000000000"/>
      <sparseX i="943" alpha="-1248.2122851525603" sparseCutoff="1.0000000000000000"/>
      <sparseX i="944" alpha="18544.001898474249" sparseCutoff="1.0000000000000000"/>
