<GAP_2026_2_23_0_12_22_29_151>
<Potential label="GAP_2026_2_23_0_12_22_29_151" init_args="IP GAP label=GAP_2026_2_23_0_12_22_29_151"/>
<GAP_params label="GAP_2026_2_23_0_12_22_29_151" gap_version="1686220958">
  <GAP_data do_core="F">
    <e0 Z="1" value=".00000000000000000E+000"/>
    <e0 Z="2" value=".00000000000000000E+000"/>
    <e0 Z="3" value=".00000000000000000E+000"/>
    <e0 Z="4" value=".00000000000000000E+000"/>
    <e0 Z="5" value=".00000000000000000E+000"/>
    <e0 Z="6" value=".00000000000000000E+000"/>
    <e0 Z="7" value=".00000000000000000E+000"/>
    <e0 Z="8" value=".00000000000000000E+000"/>
    <e0 Z="9" value=".00000000000000000E+000"/>
    <e0 Z="10" value=".00000000000000000E+000"/>
    <e0 Z="11" value=".00000000000000000E+000"/>
    <e0 Z="12" value=".00000000000000000E+000"/>
    <e0 Z="13" value=".00000000000000000E+000"/>
    <e0 Z="14" value=".00000000000000000E+000"/>
    <e0 Z="15" value=".00000000000000000E+000"/>
    <e0 Z="16" value=".00000000000000000E+000"/>
    <e0 Z="17" value=".00000000000000000E+000"/>
    <e0 Z="18" value=".00000000000000000E+000"/>
    <e0 Z="19" value=".00000000000000000E+000"/>
    <e0 Z="20" value=".00000000000000000E+000"/>
    <e0 Z="21" value=".00000000000000000E+000"/>
    <e0 Z="22" value=".00000000000000000E+000"/>
    <e0 Z="23" value=".00000000000000000E+000"/>
    <e0 Z="24" value=".00000000000000000E+000"/>
    <e0 Z="25" value=".00000000000000000E+000"/>
    <e0 Z="26" value=".00000000000000000E+000"/>
    <e0 Z="27" value=".00000000000000000E+000"/>
    <e0 Z="28" value=".00000000000000000E+000"/>
    <e0 Z="29" value=".00000000000000000E+000"/>
    <e0 Z="30" value=".00000000000000000E+000"/>
    <e0 Z="31" value=".00000000000000000E+000"/>
    <e0 Z="32" value=".00000000000000000E+000"/>
    <e0 Z="33" value=".00000000000000000E+000"/>
    <e0 Z="34" value=".00000000000000000E+000"/>
    <e0 Z="35" value=".00000000000000000E+000"/>
    <e0 Z="36" value=".00000000000000000E+000"/>
    <e0 Z="37" value=".00000000000000000E+000"/>
    <e0 Z="38" value=".00000000000000000E+000"/>
    <e0 Z="39" value=".00000000000000000E+000"/>
    <e0 Z="40" value=".00000000000000000E+000"/>
    <e0 Z="41" value=".00000000000000000E+000"/>
    <e0 Z="42" value=".00000000000000000E+000"/>
    <e0 Z="43" value=".00000000000000000E+000"/>
    <e0 Z="44" value=".00000000000000000E+000"/>
    <e0 Z="45" value=".00000000000000000E+000"/>
    <e0 Z="46" value=".00000000000000000E+000"/>
    <e0 Z="47" value=".00000000000000000E+000"/>
    <e0 Z="48" value=".00000000000000000E+000"/>
    <e0 Z="49" value=".00000000000000000E+000"/>
    <e0 Z="50" value=".00000000000000000E+000"/>
    <e0 Z="51" value=".00000000000000000E+000"/>
    <e0 Z="52" value=".00000000000000000E+000"/>
    <e0 Z="53" value=".00000000000000000E+000"/>
    <e0 Z="54" value=".00000000000000000E+000"/>
    <e0 Z="55" value=".00000000000000000E+000"/>
    <e0 Z="56" value=".00000000000000000E+000"/>
    <e0 Z="57" value=".00000000000000000E+000"/>
    <e0 Z="58" value=".00000000000000000E+000"/>
    <e0 Z="59" value=".00000000000000000E+000"/>
    <e0 Z="60" value=".00000000000000000E+000"/>
    <e0 Z="61" value=".00000000000000000E+000"/>
    <e0 Z="62" value=".00000000000000000E+000"/>
    <e0 Z="63" value=".00000000000000000E+000"/>
    <e0 Z="64" value=".00000000000000000E+000"/>
    <e0 Z="65" value=".00000000000000000E+000"/>
    <e0 Z="66" value=".00000000000000000E+000"/>
    <e0 Z="67" value=".00000000000000000E+000"/>
    <e0 Z="68" value=".00000000000000000E+000"/>
    <e0 Z="69" value=".00000000000000000E+000"/>
    <e0 Z="70" value=".00000000000000000E+000"/>
    <e0 Z="71" value=".00000000000000000E+000"/>
    <e0 Z="72" value=".00000000000000000E+000"/>
    <e0 Z="73" value=".00000000000000000E+000"/>
    <e0 Z="74" value=".00000000000000000E+000"/>
    <e0 Z="75" value=".00000000000000000E+000"/>
    <e0 Z="76" value=".00000000000000000E+000"/>
    <e0 Z="77" value=".00000000000000000E+000"/>
    <e0 Z="78" value=".00000000000000000E+000"/>
    <e0 Z="79" value=".00000000000000000E+000"/>
    <e0 Z="80" value=".00000000000000000E+000"/>
    <e0 Z="81" value=".00000000000000000E+000"/>
    <e0 Z="82" value=".00000000000000000E+000"/>
    <e0 Z="83" value="-695.12685956999997"/>
    <e0 Z="84" value=".00000000000000000E+000"/>
    <e0 Z="85" value=".00000000000000000E+000"/>
    <e0 Z="86" value=".00000000000000000E+000"/>
    <e0 Z="87" value=".00000000000000000E+000"/>
    <e0 Z="88" value=".00000000000000000E+000"/>
    <e0 Z="89" value=".00000000000000000E+000"/>
    <e0 Z="90" value=".00000000000000000E+000"/>
    <e0 Z="91" value=".00000000000000000E+000"/>
    <e0 Z="92" value=".00000000000000000E+000"/>
    <e0 Z="93" value=".00000000000000000E+000"/>
    <e0 Z="94" value=".00000000000000000E+000"/>
    <e0 Z="95" value=".00000000000000000E+000"/>
    <e0 Z="96" value=".00000000000000000E+000"/>
    <e0 Z="97" value=".00000000000000000E+000"/>
    <e0 Z="98" value=".00000000000000000E+000"/>
    <e0 Z="99" value=".00000000000000000E+000"/>
    <e0 Z="100" value=".00000000000000000E+000"/>
    <e0 Z="101" value=".00000000000000000E+000"/>
    <e0 Z="102" value=".00000000000000000E+000"/>
    <e0 Z="103" value=".00000000000000000E+000"/>
    <e0 Z="104" value=".00000000000000000E+000"/>
    <e0 Z="105" value=".00000000000000000E+000"/>
    <e0 Z="106" value=".00000000000000000E+000"/>
    <e0 Z="107" value=".00000000000000000E+000"/>
    <e0 Z="108" value=".00000000000000000E+000"/>
    <e0 Z="109" value=".00000000000000000E+000"/>
    <e0 Z="110" value=".00000000000000000E+000"/>
    <e0 Z="111" value=".00000000000000000E+000"/>
    <e0 Z="112" value=".00000000000000000E+000"/>
    <e0 Z="113" value=".00000000000000000E+000"/>
    <e0 Z="114" value=".00000000000000000E+000"/>
    <e0 Z="115" value=".00000000000000000E+000"/>
    <e0 Z="116" value=".00000000000000000E+000"/>
    <e0 Z="117" value=".00000000000000000E+000"/>
    <e0 Z="118" value=".00000000000000000E+000"/>
  </GAP_data>
  <gpSparse label="GAP_2026_2_23_0_12_22_29_151" n_coordinate="3" fitted="T">
    <gpCoordinates label="GAP_2026_2_23_0_12_22_29_1511" dimensions="1" signal_variance="2.0000000000000000" signal_mean=".00000000000000000E+000" sparsified="T" n_permutations="2" covariance_type="1" n_sparseX="15" sparseX_filename="GAP.xml.sparseX.GAP_2026_2_23_0_12_22_29_1511" sparseX_md5sum="93680781a61cc1b70391e7429569dc91">
      <theta>  0.50000000000000000E+000 </theta>
      <descriptor>distance_Nb order=2 cutoff=5.0 n_sparse=15 covariance_type=ard_se delta=2.0 theta_uniform=0.5 sparse_method=uniform compact_clusters=T Z={83 83 }</descriptor>
      <permutation i="1">1  </permutation>
      <permutation i="2">1  </permutation>
      <sparseX i="1" alpha="-80766510.793051839" sparseCutoff="1.0000000000000000"/>
      <sparseX i="2" alpha="12131867.585288387" sparseCutoff=".45585656072317976"/>
      <sparseX i="3" alpha="-693752756.47673202" sparseCutoff="1.0000000000000000"/>
      <sparseX i="4" alpha="-3835260.1060814937" sparseCutoff="1.0000000000000000"/>
      <sparseX i="5" alpha="-65885583.557833828" sparseCutoff=".99570798482189549"/>
      <sparseX i="6" alpha="52678673.039056726" sparseCutoff="1.0000000000000000"/>
      <sparseX i="7" alpha="-309940663.63400626" sparseCutoff="1.0000000000000000"/>
      <sparseX i="8" alpha="-156502052.63063955" sparseCutoff="1.0000000000000000"/>
      <sparseX i="9" alpha="63881157.720655948" sparseCutoff="1.0000000000000000"/>
      <sparseX i="10" alpha="-168364339.82541138" sparseCutoff="1.0000000000000000"/>
      <sparseX i="11" alpha="83547548.459924236" sparseCutoff="1.0000000000000000"/>
      <sparseX i="12" alpha="117742546.67296009" sparseCutoff="1.0000000000000000"/>
      <sparseX i="13" alpha="-16366155.530720193" sparseCutoff=".69470655011975690E-001"/>
      <sparseX i="14" alpha="761902490.60542142" sparseCutoff="1.0000000000000000"/>
      <sparseX i="15" alpha="394609160.85331064" sparseCutoff="1.0000000000000000"/>
    </gpCoordinates>
    <gpCoordinates label="GAP_2026_2_23_0_12_22_29_1512" dimensions="3" signal_variance="2.0000000000000000" signal_mean=".00000000000000000E+000" sparsified="T" n_permutations="6" covariance_type="1" n_sparseX="100" sparseX_filename="GAP.xml.sparseX.GAP_2026_2_23_0_12_22_29_1512" sparseX_md5sum="831b0bc74b027902cc18a47590020d54">
      <theta>  0.10000000000000000E+001  0.10000000000000000E+001  0.10000000000000000E+001 </theta>
      <descriptor> distance_Nb order=3 cutoff=3.25 n_sparse=100 covariance_type=ard_se delta=2.0 theta_uniform=1.0 sparse_method=uniform compact_clusters=T Z={83 83 83 }</descriptor>
      <permutation i="1">1 2 3  </permutation>
      <permutation i="2">2 1 3  </permutation>
      <permutation i="3">1 3 2  </permutation>
      <permutation i="4">3 1 2  </permutation>
      <permutation i="5">2 3 1  </permutation>
      <permutation i="6">3 2 1  </permutation>
      <sparseX i="1" alpha="74297393.574884191" sparseCutoff="1.0000000000000000"/>
      <sparseX i="2" alpha="-192057173.78894168" sparseCutoff="1.0000000000000000"/>
      <sparseX i="3" alpha="35084577.212075405" sparseCutoff=".58965604465638977E-001"/>
      <sparseX i="4" alpha="-11366358.306545138" sparseCutoff=".58965604465638977E-001"/>
      <sparseX i="5" alpha="-192770800.74460682" sparseCutoff="1.0000000000000000"/>
      <sparseX i="6" alpha="-250645900.10577714" sparseCutoff="1.0000000000000000"/>
      <sparseX i="7" alpha="4382673.7032440389" sparseCutoff=".58965604465638977E-001"/>
      <sparseX i="8" alpha="-166996530.94703189" sparseCutoff="1.0000000000000000"/>
      <sparseX i="9" alpha="449979987.94560182" sparseCutoff=".99951504797528501"/>
      <sparseX i="10" alpha="80112881.313559785" sparseCutoff=".87523617514957719"/>
      <sparseX i="11" alpha="-1160237539.1767325" sparseCutoff=".34769425099981832E-002"/>
      <sparseX i="12" alpha="-41620775.588882953" sparseCutoff=".58965604465638977E-001"/>
      <sparseX i="13" alpha="302961478.48011208" sparseCutoff=".58965604465638977E-001"/>
      <sparseX i="14" alpha="-210986746.08082339" sparseCutoff=".87481172759433456"/>
      <sparseX i="15" alpha="248655346.16090560" sparseCutoff=".99951504797528501"/>
      <sparseX i="16" alpha="25068435.063196644" sparseCutoff="1.0000000000000000"/>
      <sparseX i="17" alpha="190831157.15582204" sparseCutoff=".99951504797528501"/>
      <sparseX i="18" alpha="4378998.7743141623" sparseCutoff=".58965604465638977E-001"/>
      <sparseX i="19" alpha="-11369220.553768534" sparseCutoff=".58965604465638977E-001"/>
      <sparseX i="20" alpha="-555510982.30983448" sparseCutoff=".51608830117888686E-001"/>
      <sparseX i="21" alpha="-166907851.76441571" sparseCutoff=".99951504797528501"/>
      <sparseX i="22" alpha="-564954177.20653605" sparseCutoff=".99951504797528501"/>
      <sparseX i="23" alpha="-319586079.58024371" sparseCutoff=".58965604465638977E-001"/>
      <sparseX i="24" alpha="25065834.869326059" sparseCutoff="1.0000000000000000"/>
      <sparseX i="25" alpha="68491416.219128415" sparseCutoff=".58937008976364821E-001"/>
      <sparseX i="26" alpha="-414049728.19325602" sparseCutoff=".58965604465638977E-001"/>
      <sparseX i="27" alpha="-319586076.37849951" sparseCutoff=".58965604465638977E-001"/>
      <sparseX i="28" alpha="229402341.14494595" sparseCutoff=".87523617514957719"/>
      <sparseX i="29" alpha="80136167.805635974" sparseCutoff=".87523617514957719"/>
      <sparseX i="30" alpha="127014830.86813553" sparseCutoff=".87481172759433456"/>
      <sparseX i="31" alpha="315072179.44529986" sparseCutoff=".65031757496381570E-001"/>
      <sparseX i="32" alpha="11862790.714720903" sparseCutoff=".76603836229046141"/>
      <sparseX i="33" alpha="-481828439.59888703" sparseCutoff=".56918146694387849E-001"/>
      <sparseX i="34" alpha="54257493.606720649" sparseCutoff=".65000220213912926E-001"/>
      <sparseX i="35" alpha="-52807183.198069133" sparseCutoff=".65031757496381570E-001"/>
      <sparseX i="36" alpha="342079051.72525549" sparseCutoff=".11184661519166739E-001"/>
      <sparseX i="37" alpha="348193951.78875053" sparseCutoff=".11184661239540072E-001"/>
      <sparseX i="38" alpha="60728470.703919366" sparseCutoff=".46227391991032204E-003"/>
      <sparseX i="39" alpha="-350686070.78208137" sparseCutoff=".21500562860966521E-001"/>
      <sparseX i="40" alpha="-129813625.07317640" sparseCutoff=".21500562860966521E-001"/>
      <sparseX i="41" alpha="20276326.220568687" sparseCutoff=".18235714308836345E-001"/>
      <sparseX i="42" alpha="233105139.72509882" sparseCutoff=".27061135851275714"/>
      <sparseX i="43" alpha="280343751.55253351" sparseCutoff=".11184654661663573E-001"/>
      <sparseX i="44" alpha="417234422.86558181" sparseCutoff=".52020319614385913"/>
      <sparseX i="45" alpha="-361745550.72580802" sparseCutoff=".52020319614385913"/>
      <sparseX i="46" alpha="-27911802.103377342" sparseCutoff=".44121062917124637"/>
      <sparseX i="47" alpha="-482223181.00513482" sparseCutoff=".52020319614385913"/>
      <sparseX i="48" alpha="-339857944.78309864" sparseCutoff=".52020319614385913"/>
      <sparseX i="49" alpha="342079297.08518535" sparseCutoff=".11184654382037076E-001"/>
      <sparseX i="50" alpha="-110546430.11762732" sparseCutoff=".44121061814058099"/>
      <sparseX i="51" alpha="-105572755.79186016" sparseCutoff=".52020318313830805"/>
      <sparseX i="52" alpha="817153661.11573350" sparseCutoff=".52020318313830805"/>
      <sparseX i="53" alpha="-2634152.5589096327" sparseCutoff=".37888325326454050E-002"/>
      <sparseX i="54" alpha="467010709.19189525" sparseCutoff=".18235703128214705E-001"/>
      <sparseX i="55" alpha="-945484.92004051525" sparseCutoff=".15659646986516758E-003"/>
      <sparseX i="56" alpha="112320926.40788558" sparseCutoff="1.0000000000000000"/>
      <sparseX i="57" alpha="935001707.01719415" sparseCutoff=".84815055432537589"/>
      <sparseX i="58" alpha="-58895133.648587205" sparseCutoff="1.0000000000000000"/>
      <sparseX i="59" alpha="-43750083.113709413" sparseCutoff=".72833705280078154E-002"/>
      <sparseX i="60" alpha="33414403.360569526" sparseCutoff="1.0000000000000000"/>
      <sparseX i="61" alpha="-60186581.286208183" sparseCutoff=".84815055432537589"/>
      <sparseX i="62" alpha="-106759091.72930789" sparseCutoff=".84815055432537589"/>
      <sparseX i="63" alpha="125521319.44322890" sparseCutoff=".84815055432537589"/>
      <sparseX i="64" alpha="59743057.832056321" sparseCutoff=".61773947506869346E-002"/>
      <sparseX i="65" alpha="347954557.48197466" sparseCutoff=".11182286330340930E-001"/>
      <sparseX i="66" alpha="280362864.74379778" sparseCutoff=".11184299553713658E-001"/>
      <sparseX i="67" alpha="-59959504.643137410" sparseCutoff=".84814439962241228"/>
      <sparseX i="68" alpha="33668136.877513491" sparseCutoff="1.0000000000000000"/>
      <sparseX i="69" alpha="-252731215.79379901" sparseCutoff=".51881016314289996"/>
      <sparseX i="70" alpha="-357560346.78955245" sparseCutoff=".21957051618828716E-001"/>
      <sparseX i="71" alpha="-348382078.90435535" sparseCutoff=".51881016314289996"/>
      <sparseX i="72" alpha="-381929389.14073849" sparseCutoff=".51881014387994207"/>
      <sparseX i="73" alpha="-2782276.2503165179" sparseCutoff=".37786305651258934E-002"/>
      <sparseX i="74" alpha="134392707.26625696" sparseCutoff=".51881016314289996"/>
      <sparseX i="75" alpha="-479953819.49652117" sparseCutoff=".51881014387994207"/>
      <sparseX i="76" alpha="-92477576.031975701" sparseCutoff=".44002593433684067"/>
      <sparseX i="77" alpha="-38674590.647122592" sparseCutoff=".44002591799907081"/>
      <sparseX i="78" alpha="20529236.129996695" sparseCutoff=".18622750362729798E-001"/>
      <sparseX i="79" alpha="-112721002.68149494" sparseCutoff="1.0000000000000000"/>
      <sparseX i="80" alpha="-605097618.80881214" sparseCutoff="1.0000000000000000"/>
      <sparseX i="81" alpha="257405682.43866047" sparseCutoff="1.0000000000000000"/>
      <sparseX i="82" alpha="178246118.41984853" sparseCutoff=".27854449138232352E-002"/>
      <sparseX i="83" alpha="-7513537.1345322113" sparseCutoff=".61357848259688763"/>
      <sparseX i="84" alpha="-5288183.2756684907" sparseCutoff=".61373920514860066E-003"/>
      <sparseX i="85" alpha="260528981.23589805" sparseCutoff=".12463953739954145E-001"/>
      <sparseX i="86" alpha="-801317744.31297207" sparseCutoff=".61357848259688763"/>
      <sparseX i="87" alpha="-745556318.66163075" sparseCutoff=".30866408024057496"/>
      <sparseX i="88" alpha="-63726679.568950959" sparseCutoff=".30865082355521145"/>
      <sparseX i="89" alpha="-148777523.64000314" sparseCutoff=".97211926602634546"/>
      <sparseX i="90" alpha="185755184.86019576" sparseCutoff=".69275675053838337"/>
      <sparseX i="91" alpha="1441565155.4253435" sparseCutoff=".97211926602634546"/>
      <sparseX i="92" alpha="134920139.33992422" sparseCutoff=".71262526600270970"/>
      <sparseX i="93" alpha="191300739.82347414" sparseCutoff="1.0000000000000000"/>
      <sparseX i="94" alpha="175049891.45874310" sparseCutoff=".65277503091823086"/>
      <sparseX i="95" alpha="-241817591.81322733" sparseCutoff=".71262526600270970"/>
      <sparseX i="96" alpha="-735400900.12081444" sparseCutoff=".43541753589273591E-001"/>
      <sparseX i="97" alpha="11197238.168759238" sparseCutoff=".22343459767880647"/>
      <sparseX i="98" alpha="-232646006.78359473" sparseCutoff=".95947230908657211"/>
      <sparseX i="99" alpha="532275806.08752060" sparseCutoff=".24074706390784478"/>
      <sparseX i="100" alpha="-52672356.372756071" sparseCutoff=".55546679358353490"/>
    </gpCoordinates>
    <gpCoordinates label="GAP_2026_2_23_0_12_22_29_1513" dimensions="859" signal_variance="1.0000000000000000" signal_mean=".00000000000000000E+000" sparsified="T" n_permutations="1" covariance_type="2" zeta="4.0000000000000000" n_sparseX="2000" sparseX_filename="GAP.xml.sparseX.GAP_2026_2_23_0_12_22_29_1513" sparseX_md5sum="edacf5aaa7796e08831163319b03f76e">
      <descriptor> soap l_max=10 n_max=12 atom_sigma=0.5 cutoff=5.0 radial_scaling=0.0 cutoff_transition_width=1.0 central_weight=1.0 n_sparse=2000 delta=1.0 covariance_type=dot_product zeta=4 sparse_method=cur_points n_species=1 Z=83 species_Z={83 }</descriptor>
      <permutation i="1">1  </permutation>
      <sparseX i="1" alpha="94777.605473135176" sparseCutoff="1.0000000000000000"/>
      <sparseX i="2" alpha="14782166.318402916" sparseCutoff="1.0000000000000000"/>
      <sparseX i="3" alpha="-1423954.1459360397" sparseCutoff="1.0000000000000000"/>
      <sparseX i="4" alpha="35648561.738753490" sparseCutoff="1.0000000000000000"/>
      <sparseX i="5" alpha="-11389450.295505237" sparseCutoff="1.0000000000000000"/>
      <sparseX i="6" alpha="25316775.207379933" sparseCutoff="1.0000000000000000"/>
      <sparseX i="7" alpha="-52360110.540861309" sparseCutoff="1.0000000000000000"/>
      <sparseX i="8" alpha="-519069.63442342391" sparseCutoff="1.0000000000000000"/>
      <sparseX i="9" alpha="1277173.1076139535" sparseCutoff="1.0000000000000000"/>
      <sparseX i="10" alpha="-28170488.125823315" sparseCutoff="1.0000000000000000"/>
      <sparseX i="11" alpha="12932599.042402249" sparseCutoff="1.0000000000000000"/>
      <sparseX i="12" alpha="-9903006.0516046640" sparseCutoff="1.0000000000000000"/>
      <sparseX i="13" alpha="7527682.8456040397" sparseCutoff="1.0000000000000000"/>
      <sparseX i="14" alpha="7287685.6712053949" sparseCutoff="1.0000000000000000"/>
      <sparseX i="15" alpha="2456163.0590197165" sparseCutoff="1.0000000000000000"/>
      <sparseX i="16" alpha="128729.18573210560" sparseCutoff="1.0000000000000000"/>
      <sparseX i="17" alpha="466093.71325353603" sparseCutoff="1.0000000000000000"/>
      <sparseX i="18" alpha="4937457.8779896190" sparseCutoff="1.0000000000000000"/>
      <sparseX i="19" alpha="353632.95160037401" sparseCutoff="1.0000000000000000"/>
      <sparseX i="20" alpha="-16837527.968589712" sparseCutoff="1.0000000000000000"/>
      <sparseX i="21" alpha="16885698.602913670" sparseCutoff="1.0000000000000000"/>
      <sparseX i="22" alpha="18915945.501567442" sparseCutoff="1.0000000000000000"/>
      <sparseX i="23" alpha="-10984830.675946064" sparseCutoff="1.0000000000000000"/>
      <sparseX i="24" alpha="-6448513.0514969034" sparseCutoff="1.0000000000000000"/>
      <sparseX i="25" alpha="6353646.2667022115" sparseCutoff="1.0000000000000000"/>
      <sparseX i="26" alpha="-117802260.49099794" sparseCutoff="1.0000000000000000"/>
      <sparseX i="27" alpha="117566894.23915592" sparseCutoff="1.0000000000000000"/>
      <sparseX i="28" alpha="-758809.21787755762" sparseCutoff="1.0000000000000000"/>
      <sparseX i="29" alpha="-3647435.1951243058" sparseCutoff="1.0000000000000000"/>
      <sparseX i="30" alpha="60213725.759501837" sparseCutoff="1.0000000000000000"/>
      <sparseX i="31" alpha="-60773854.206210822" sparseCutoff="1.0000000000000000"/>
      <sparseX i="32" alpha="56548449.564517535" sparseCutoff="1.0000000000000000"/>
      <sparseX i="33" alpha="22061152.342110477" sparseCutoff="1.0000000000000000"/>
      <sparseX i="34" alpha="-80980532.130826175" sparseCutoff="1.0000000000000000"/>
      <sparseX i="35" alpha="141233458.48140985" sparseCutoff="1.0000000000000000"/>
      <sparseX i="36" alpha="-153348955.23975477" sparseCutoff="1.0000000000000000"/>
      <sparseX i="37" alpha="14829952.898508286" sparseCutoff="1.0000000000000000"/>
      <sparseX i="38" alpha="-18616113.503972925" sparseCutoff="1.0000000000000000"/>
      <sparseX i="39" alpha="11199193.506906457" sparseCutoff="1.0000000000000000"/>
      <sparseX i="40" alpha="-92926893.933813736" sparseCutoff="1.0000000000000000"/>
      <sparseX i="41" alpha="69287112.679124519" sparseCutoff="1.0000000000000000"/>
      <sparseX i="42" alpha="25870210.694828019" sparseCutoff="1.0000000000000000"/>
      <sparseX i="43" alpha="-3667982.9620553688" sparseCutoff="1.0000000000000000"/>
      <sparseX i="44" alpha="164392727.76684746" sparseCutoff="1.0000000000000000"/>
      <sparseX i="45" alpha="-152441158.19901314" sparseCutoff="1.0000000000000000"/>
      <sparseX i="46" alpha="-2589363.6955926879" sparseCutoff="1.0000000000000000"/>
      <sparseX i="47" alpha="3165634.2855479429" sparseCutoff="1.0000000000000000"/>
      <sparseX i="48" alpha="-132472.52189137583" sparseCutoff="1.0000000000000000"/>
      <sparseX i="49" alpha="5935381.9671925036" sparseCutoff="1.0000000000000000"/>
      <sparseX i="50" alpha="-9985014.8708130084" sparseCutoff="1.0000000000000000"/>
      <sparseX i="51" alpha="4695912.2679425599" sparseCutoff="1.0000000000000000"/>
      <sparseX i="52" alpha="-8038339.0856398270" sparseCutoff="1.0000000000000000"/>
      <sparseX i="53" alpha="6728477.8986607194" sparseCutoff="1.0000000000000000"/>
      <sparseX i="54" alpha="-6407033.2688115602" sparseCutoff="1.0000000000000000"/>
      <sparseX i="55" alpha="-1617739.5991005681" sparseCutoff="1.0000000000000000"/>
      <sparseX i="56" alpha="17127699.393242665" sparseCutoff="1.0000000000000000"/>
      <sparseX i="57" alpha="-41349869.874465272" sparseCutoff="1.0000000000000000"/>
      <sparseX i="58" alpha="17186122.567036584" sparseCutoff="1.0000000000000000"/>
      <sparseX i="59" alpha="-124700595.98966435" sparseCutoff="1.0000000000000000"/>
      <sparseX i="60" alpha="-55611075.181095779" sparseCutoff="1.0000000000000000"/>
      <sparseX i="61" alpha="183194466.50559604" sparseCutoff="1.0000000000000000"/>
      <sparseX i="62" alpha="-7010872.5037233131" sparseCutoff="1.0000000000000000"/>
      <sparseX i="63" alpha="-2036707.4673714854" sparseCutoff="1.0000000000000000"/>
      <sparseX i="64" alpha="1671008.6029496435" sparseCutoff="1.0000000000000000"/>
      <sparseX i="65" alpha="7648876.6588879246" sparseCutoff="1.0000000000000000"/>
      <sparseX i="66" alpha="15470229.062786208" sparseCutoff="1.0000000000000000"/>
      <sparseX i="67" alpha="-1950586.0362701479" sparseCutoff="1.0000000000000000"/>
      <sparseX i="68" alpha="-1746503.8192860503" sparseCutoff="1.0000000000000000"/>
      <sparseX i="69" alpha="2436903.8554445389" sparseCutoff="1.0000000000000000"/>
      <sparseX i="70" alpha="-4268476.9328308422" sparseCutoff="1.0000000000000000"/>
      <sparseX i="71" alpha="-10158923.580508839" sparseCutoff="1.0000000000000000"/>
      <sparseX i="72" alpha="-841834.62367334124" sparseCutoff="1.0000000000000000"/>
      <sparseX i="73" alpha="-6297835.6075550057" sparseCutoff="1.0000000000000000"/>
      <sparseX i="74" alpha="254936.85116275839" sparseCutoff="1.0000000000000000"/>
      <sparseX i="75" alpha="12247346.510090984" sparseCutoff="1.0000000000000000"/>
      <sparseX i="76" alpha="-15037331.477077708" sparseCutoff="1.0000000000000000"/>
      <sparseX i="77" alpha="8854837.6199227069" sparseCutoff="1.0000000000000000"/>
      <sparseX i="78" alpha="11148544.468313534" sparseCutoff="1.0000000000000000"/>
      <sparseX i="79" alpha="-18994965.189386848" sparseCutoff="1.0000000000000000"/>
      <sparseX i="80" alpha="5840416.0848988527" sparseCutoff="1.0000000000000000"/>
      <sparseX i="81" alpha="1214161.2686470535" sparseCutoff="1.0000000000000000"/>
      <sparseX i="82" alpha="-1778923.1533579256" sparseCutoff="1.0000000000000000"/>
      <sparseX i="83" alpha="-334454.27926658519" sparseCutoff="1.0000000000000000"/>
      <sparseX i="84" alpha="-16935575.600521434" sparseCutoff="1.0000000000000000"/>
      <sparseX i="85" alpha="15410722.648621140" sparseCutoff="1.0000000000000000"/>
      <sparseX i="86" alpha="-1911235.8498924701" sparseCutoff="1.0000000000000000"/>
      <sparseX i="87" alpha="4325485.3734919513" sparseCutoff="1.0000000000000000"/>
      <sparseX i="88" alpha="-12832078.417849740" sparseCutoff="1.0000000000000000"/>
      <sparseX i="89" alpha="77915087.864556029" sparseCutoff="1.0000000000000000"/>
      <sparseX i="90" alpha="-75705781.157174975" sparseCutoff="1.0000000000000000"/>
      <sparseX i="91" alpha="733544.21727469657" sparseCutoff="1.0000000000000000"/>
      <sparseX i="92" alpha="-1653747.9502504107" sparseCutoff="1.0000000000000000"/>
      <sparseX i="93" alpha="4614477.0592570826" sparseCutoff="1.0000000000000000"/>
      <sparseX i="94" alpha="-14711125.998019729" sparseCutoff="1.0000000000000000"/>
      <sparseX i="95" alpha="-193814.27564480188" sparseCutoff="1.0000000000000000"/>
      <sparseX i="96" alpha="8667168.0159151405" sparseCutoff="1.0000000000000000"/>
      <sparseX i="97" alpha="29542022.377219815" sparseCutoff="1.0000000000000000"/>
      <sparseX i="98" alpha="-14080304.477749988" sparseCutoff="1.0000000000000000"/>
      <sparseX i="99" alpha="6862394.3374486668" sparseCutoff="1.0000000000000000"/>
      <sparseX i="100" alpha="25691762.688116394" sparseCutoff="1.0000000000000000"/>
      <sparseX i="101" alpha="1684168.1757176991" sparseCutoff="1.0000000000000000"/>
      <sparseX i="102" alpha="11815859.295135282" sparseCutoff="1.0000000000000000"/>
      <sparseX i="103" alpha="-48044461.824827299" sparseCutoff="1.0000000000000000"/>
      <sparseX i="104" alpha="-14148959.941935789" sparseCutoff="1.0000000000000000"/>
      <sparseX i="105" alpha="-14605459.205360530" sparseCutoff="1.0000000000000000"/>
      <sparseX i="106" alpha="-3260718.7315583541" sparseCutoff="1.0000000000000000"/>
      <sparseX i="107" alpha="-2754460.8703181851" sparseCutoff="1.0000000000000000"/>
      <sparseX i="108" alpha="1108393.2733234353" sparseCutoff="1.0000000000000000"/>
      <sparseX i="109" alpha="3482446.2854463127" sparseCutoff="1.0000000000000000"/>
      <sparseX i="110" alpha="-16273965.409919301" sparseCutoff="1.0000000000000000"/>
      <sparseX i="111" alpha="36323578.634219266" sparseCutoff="1.0000000000000000"/>
      <sparseX i="112" alpha="21709675.843352146" sparseCutoff="1.0000000000000000"/>
      <sparseX i="113" alpha="-16161783.130483216" sparseCutoff="1.0000000000000000"/>
      <sparseX i="114" alpha="-5433609.7092653560" sparseCutoff="1.0000000000000000"/>
      <sparseX i="115" alpha="-12512639.708626401" sparseCutoff="1.0000000000000000"/>
      <sparseX i="116" alpha="11656046.410680503" sparseCutoff="1.0000000000000000"/>
      <sparseX i="117" alpha="35371114.304961815" sparseCutoff="1.0000000000000000"/>
      <sparseX i="118" alpha="-19483164.378383432" sparseCutoff="1.0000000000000000"/>
      <sparseX i="119" alpha="-25430070.772885770" sparseCutoff="1.0000000000000000"/>
      <sparseX i="120" alpha="-19796256.721361931" sparseCutoff="1.0000000000000000"/>
      <sparseX i="121" alpha="-43996345.971359141" sparseCutoff="1.0000000000000000"/>
      <sparseX i="122" alpha="40396667.388331600" sparseCutoff="1.0000000000000000"/>
      <sparseX i="123" alpha="16171706.294216629" sparseCutoff="1.0000000000000000"/>
      <sparseX i="124" alpha="2164119.0317395087" sparseCutoff="1.0000000000000000"/>
      <sparseX i="125" alpha="30890931.260298755" sparseCutoff="1.0000000000000000"/>
      <sparseX i="126" alpha="-13435958.232555348" sparseCutoff="1.0000000000000000"/>
      <sparseX i="127" alpha="3431797.8935682070" sparseCutoff="1.0000000000000000"/>
      <sparseX i="128" alpha="-8059396.8141492289" sparseCutoff="1.0000000000000000"/>
      <sparseX i="129" alpha="8990282.9207274839" sparseCutoff="1.0000000000000000"/>
      <sparseX i="130" alpha="-25182943.376696911" sparseCutoff="1.0000000000000000"/>
      <sparseX i="131" alpha="-55833691.018505365" sparseCutoff="1.0000000000000000"/>
      <sparseX i="132" alpha="59715118.263517529" sparseCutoff="1.0000000000000000"/>
      <sparseX i="133" alpha="19845290.502730478" sparseCutoff="1.0000000000000000"/>
      <sparseX i="134" alpha="83702205.453643292" sparseCutoff="1.0000000000000000"/>
      <sparseX i="135" alpha="-61413834.400409706" sparseCutoff="1.0000000000000000"/>
      <sparseX i="136" alpha="-14077491.140865056" sparseCutoff="1.0000000000000000"/>
      <sparseX i="137" alpha="-398258.55276256334" sparseCutoff="1.0000000000000000"/>
      <sparseX i="138" alpha="-2023078.2270229247" sparseCutoff="1.0000000000000000"/>
      <sparseX i="139" alpha="11781816.441029966" sparseCutoff="1.0000000000000000"/>
      <sparseX i="140" alpha="-12218644.786394320" sparseCutoff="1.0000000000000000"/>
      <sparseX i="141" alpha="-511587.70842803753" sparseCutoff="1.0000000000000000"/>
      <sparseX i="142" alpha="-687486.39672723855" sparseCutoff="1.0000000000000000"/>
      <sparseX i="143" alpha="-894694.67442462104" sparseCutoff="1.0000000000000000"/>
      <sparseX i="144" alpha="-794114.47911577160" sparseCutoff="1.0000000000000000"/>
      <sparseX i="145" alpha="3222852.4749711668" sparseCutoff="1.0000000000000000"/>
      <sparseX i="146" alpha="3056983.9937931900" sparseCutoff="1.0000000000000000"/>
      <sparseX i="147" alpha="-1982585.6768215548" sparseCutoff="1.0000000000000000"/>
      <sparseX i="148" alpha="19893740.149052203" sparseCutoff="1.0000000000000000"/>
      <sparseX i="149" alpha="-11405352.953494739" sparseCutoff="1.0000000000000000"/>
      <sparseX i="150" alpha="-12244824.139483292" sparseCutoff="1.0000000000000000"/>
      <sparseX i="151" alpha="-7062326.1933989534" sparseCutoff="1.0000000000000000"/>
      <sparseX i="152" alpha="5917502.4008264476" sparseCutoff="1.0000000000000000"/>
      <sparseX i="153" alpha="-8857131.4162296876" sparseCutoff="1.0000000000000000"/>
      <sparseX i="154" alpha="6683675.1556988722" sparseCutoff="1.0000000000000000"/>
      <sparseX i="155" alpha="22366445.496632870" sparseCutoff="1.0000000000000000"/>
      <sparseX i="156" alpha="-6278605.8212533230" sparseCutoff="1.0000000000000000"/>
      <sparseX i="157" alpha="5160860.6998848403" sparseCutoff="1.0000000000000000"/>
      <sparseX i="158" alpha="-4383980.1056672484" sparseCutoff="1.0000000000000000"/>
      <sparseX i="159" alpha="-1641770.6963209761" sparseCutoff="1.0000000000000000"/>
      <sparseX i="160" alpha="4390743.0479033180" sparseCutoff="1.0000000000000000"/>
      <sparseX i="161" alpha="2223080.3992458358" sparseCutoff="1.0000000000000000"/>
      <sparseX i="162" alpha="-16453317.254640816" sparseCutoff="1.0000000000000000"/>
      <sparseX i="163" alpha="31269840.447455533" sparseCutoff="1.0000000000000000"/>
      <sparseX i="164" alpha="-34383874.850327939" sparseCutoff="1.0000000000000000"/>
      <sparseX i="165" alpha="84840100.088248610" sparseCutoff="1.0000000000000000"/>
      <sparseX i="166" alpha="-77549980.622675493" sparseCutoff="1.0000000000000000"/>
      <sparseX i="167" alpha="-6427343.2445430271" sparseCutoff="1.0000000000000000"/>
      <sparseX i="168" alpha="6165994.8857847890" sparseCutoff="1.0000000000000000"/>
      <sparseX i="169" alpha="17244887.350590717" sparseCutoff="1.0000000000000000"/>
      <sparseX i="170" alpha="-102189721.32569022" sparseCutoff="1.0000000000000000"/>
      <sparseX i="171" alpha="83753455.797649100" sparseCutoff="1.0000000000000000"/>
      <sparseX i="172" alpha="754468.73762889951" sparseCutoff="1.0000000000000000"/>
      <sparseX i="173" alpha="-12554388.043791240" sparseCutoff="1.0000000000000000"/>
      <sparseX i="174" alpha="-75554182.479975715" sparseCutoff="1.0000000000000000"/>
      <sparseX i="175" alpha="75170521.920963541" sparseCutoff="1.0000000000000000"/>
      <sparseX i="176" alpha="-51942759.703063779" sparseCutoff="1.0000000000000000"/>
      <sparseX i="177" alpha="46895507.343729123" sparseCutoff="1.0000000000000000"/>
      <sparseX i="178" alpha="49791795.058969557" sparseCutoff="1.0000000000000000"/>
      <sparseX i="179" alpha="31005261.962478656" sparseCutoff="1.0000000000000000"/>
      <sparseX i="180" alpha="-74674635.433951929" sparseCutoff="1.0000000000000000"/>
      <sparseX i="181" alpha="-7946.1593229922291" sparseCutoff="1.0000000000000000"/>
      <sparseX i="182" alpha="-14920142.346329233" sparseCutoff="1.0000000000000000"/>
      <sparseX i="183" alpha="16546154.596269263" sparseCutoff="1.0000000000000000"/>
      <sparseX i="184" alpha="-22178251.360842098" sparseCutoff="1.0000000000000000"/>
      <sparseX i="185" alpha="7334510.1866928134" sparseCutoff="1.0000000000000000"/>
      <sparseX i="186" alpha="19298354.336428922" sparseCutoff="1.0000000000000000"/>
      <sparseX i="187" alpha="-17037338.426367562" sparseCutoff="1.0000000000000000"/>
      <sparseX i="188" alpha="6482905.5630218396" sparseCutoff="1.0000000000000000"/>
      <sparseX i="189" alpha="-888698.71923972119" sparseCutoff="1.0000000000000000"/>
      <sparseX i="190" alpha="26048968.923982307" sparseCutoff="1.0000000000000000"/>
      <sparseX i="191" alpha="-32991489.987167578" sparseCutoff="1.0000000000000000"/>
      <sparseX i="192" alpha="-6785060.2892964771" sparseCutoff="1.0000000000000000"/>
      <sparseX i="193" alpha="6682128.5548269218" sparseCutoff="1.0000000000000000"/>
      <sparseX i="194" alpha="-16193141.480447367" sparseCutoff="1.0000000000000000"/>
      <sparseX i="195" alpha="17233337.146455288" sparseCutoff="1.0000000000000000"/>
      <sparseX i="196" alpha="13862238.292712927" sparseCutoff="1.0000000000000000"/>
      <sparseX i="197" alpha="136646.51973011746" sparseCutoff="1.0000000000000000"/>
      <sparseX i="198" alpha="34727681.904108316" sparseCutoff="1.0000000000000000"/>
      <sparseX i="199" alpha="-12708516.911825644" sparseCutoff="1.0000000000000000"/>
      <sparseX i="200" alpha="-20632179.771866202" sparseCutoff="1.0000000000000000"/>
      <sparseX i="201" alpha="10260304.702608952" sparseCutoff="1.0000000000000000"/>
      <sparseX i="202" alpha="336823.58626224863" sparseCutoff="1.0000000000000000"/>
      <sparseX i="203" alpha="-38185290.300338678" sparseCutoff="1.0000000000000000"/>
      <sparseX i="204" alpha="41109947.138879873" sparseCutoff="1.0000000000000000"/>
      <sparseX i="205" alpha="-4767995.0265993997" sparseCutoff="1.0000000000000000"/>
      <sparseX i="206" alpha="1457061.2854485230" sparseCutoff="1.0000000000000000"/>
      <sparseX i="207" alpha="5110507.7386423359" sparseCutoff="1.0000000000000000"/>
      <sparseX i="208" alpha="3700607.4960938022" sparseCutoff="1.0000000000000000"/>
      <sparseX i="209" alpha="-837408.71319029701" sparseCutoff="1.0000000000000000"/>
      <sparseX i="210" alpha="1507549.2139008229" sparseCutoff="1.0000000000000000"/>
      <sparseX i="211" alpha="5982529.2994530126" sparseCutoff="1.0000000000000000"/>
      <sparseX i="212" alpha="-30395117.145280920" sparseCutoff="1.0000000000000000"/>
      <sparseX i="213" alpha="35333772.852856480" sparseCutoff="1.0000000000000000"/>
      <sparseX i="214" alpha="9123192.2549244724" sparseCutoff="1.0000000000000000"/>
      <sparseX i="215" alpha="-11995520.173405688" sparseCutoff="1.0000000000000000"/>
      <sparseX i="216" alpha="-6715316.2633265639" sparseCutoff="1.0000000000000000"/>
      <sparseX i="217" alpha="3518886.6052129110" sparseCutoff="1.0000000000000000"/>
      <sparseX i="218" alpha="-36914309.257057302" sparseCutoff="1.0000000000000000"/>
      <sparseX i="219" alpha="46222786.622467496" sparseCutoff="1.0000000000000000"/>
      <sparseX i="220" alpha="-9039360.5561483428" sparseCutoff="1.0000000000000000"/>
      <sparseX i="221" alpha="3314969.4556240435" sparseCutoff="1.0000000000000000"/>
      <sparseX i="222" alpha="-222885.29961750508" sparseCutoff="1.0000000000000000"/>
      <sparseX i="223" alpha="-6732431.0296878666" sparseCutoff="1.0000000000000000"/>
      <sparseX i="224" alpha="7833940.3545892499" sparseCutoff="1.0000000000000000"/>
      <sparseX i="225" alpha="1238690.6623614412" sparseCutoff="1.0000000000000000"/>
      <sparseX i="226" alpha="10692149.524244383" sparseCutoff="1.0000000000000000"/>
      <sparseX i="227" alpha="-20192816.639497861" sparseCutoff="1.0000000000000000"/>
      <sparseX i="228" alpha="-7150332.2256241404" sparseCutoff="1.0000000000000000"/>
      <sparseX i="229" alpha="19035589.718392432" sparseCutoff="1.0000000000000000"/>
      <sparseX i="230" alpha="-805036.76266105485" sparseCutoff="1.0000000000000000"/>
      <sparseX i="231" alpha="-832766.70612386137" sparseCutoff="1.0000000000000000"/>
      <sparseX i="232" alpha="-766131.35838448815" sparseCutoff="1.0000000000000000"/>
      <sparseX i="233" alpha="3571258.8999427184" sparseCutoff="1.0000000000000000"/>
      <sparseX i="234" alpha="-3006486.7342384686" sparseCutoff="1.0000000000000000"/>
      <sparseX i="235" alpha="4958840.5781811485" sparseCutoff="1.0000000000000000"/>
      <sparseX i="236" alpha="-952278.52578123007" sparseCutoff="1.0000000000000000"/>
      <sparseX i="237" alpha="-11430891.760366468" sparseCutoff="1.0000000000000000"/>
      <sparseX i="238" alpha="1998149.2303384081" sparseCutoff="1.0000000000000000"/>
      <sparseX i="239" alpha="3735740.7832668810" sparseCutoff="1.0000000000000000"/>
      <sparseX i="240" alpha="-493188.31022147415" sparseCutoff="1.0000000000000000"/>
      <sparseX i="241" alpha="5768846.5401908606" sparseCutoff="1.0000000000000000"/>
      <sparseX i="242" alpha="10893107.877178425" sparseCutoff="1.0000000000000000"/>
      <sparseX i="243" alpha="-1387374.4980041357" sparseCutoff="1.0000000000000000"/>
      <sparseX i="244" alpha="15957208.072805699" sparseCutoff="1.0000000000000000"/>
      <sparseX i="245" alpha="13070862.926935494" sparseCutoff="1.0000000000000000"/>
      <sparseX i="246" alpha="-314796.66618212214" sparseCutoff="1.0000000000000000"/>
      <sparseX i="247" alpha="347916.71005974890" sparseCutoff="1.0000000000000000"/>
      <sparseX i="248" alpha="-5685814.4641494593" sparseCutoff="1.0000000000000000"/>
      <sparseX i="249" alpha="3356107.8136171298" sparseCutoff="1.0000000000000000"/>
      <sparseX i="250" alpha="3596793.4617582513" sparseCutoff="1.0000000000000000"/>
      <sparseX i="251" alpha="7767862.1602521818" sparseCutoff="1.0000000000000000"/>
      <sparseX i="252" alpha="1128910.6017115961" sparseCutoff="1.0000000000000000"/>
      <sparseX i="253" alpha="-1692927.5668450997" sparseCutoff="1.0000000000000000"/>
      <sparseX i="254" alpha="-2386394.1421418977" sparseCutoff="1.0000000000000000"/>
      <sparseX i="255" alpha="-4639633.8693981953" sparseCutoff="1.0000000000000000"/>
      <sparseX i="256" alpha="2564517.3109452799" sparseCutoff="1.0000000000000000"/>
      <sparseX i="257" alpha="-28715582.209812734" sparseCutoff="1.0000000000000000"/>
      <sparseX i="258" alpha="-5844023.1942726318" sparseCutoff="1.0000000000000000"/>
      <sparseX i="259" alpha="-3953464.9524607328" sparseCutoff="1.0000000000000000"/>
      <sparseX i="260" alpha="3838619.2545916084" sparseCutoff="1.0000000000000000"/>
      <sparseX i="261" alpha="-3853714.8756220811" sparseCutoff="1.0000000000000000"/>
      <sparseX i="262" alpha="3734816.2455682592" sparseCutoff="1.0000000000000000"/>
      <sparseX i="263" alpha="16720439.164761163" sparseCutoff="1.0000000000000000"/>
      <sparseX i="264" alpha="-6022947.8836879181" sparseCutoff="1.0000000000000000"/>
      <sparseX i="265" alpha="-17824357.767497342" sparseCutoff="1.0000000000000000"/>
      <sparseX i="266" alpha="31618187.589346647" sparseCutoff="1.0000000000000000"/>
      <sparseX i="267" alpha="-17056378.278137773" sparseCutoff="1.0000000000000000"/>
      <sparseX i="268" alpha="19153869.175732903" sparseCutoff="1.0000000000000000"/>
      <sparseX i="269" alpha="-2922321.3577254894" sparseCutoff="1.0000000000000000"/>
      <sparseX i="270" alpha="1283782.3121745328" sparseCutoff="1.0000000000000000"/>
      <sparseX i="271" alpha="-328721.92005421116" sparseCutoff="1.0000000000000000"/>
      <sparseX i="272" alpha="-7287296.1530833757" sparseCutoff="1.0000000000000000"/>
      <sparseX i="273" alpha="43600269.403960936" sparseCutoff="1.0000000000000000"/>
      <sparseX i="274" alpha="-53339551.636958152" sparseCutoff="1.0000000000000000"/>
      <sparseX i="275" alpha="6498818.1007688623" sparseCutoff="1.0000000000000000"/>
      <sparseX i="276" alpha="-22183105.030454364" sparseCutoff="1.0000000000000000"/>
      <sparseX i="277" alpha="-57400019.428473487" sparseCutoff="1.0000000000000000"/>
      <sparseX i="278" alpha="75308789.554087326" sparseCutoff="1.0000000000000000"/>
      <sparseX i="279" alpha="108109259.11315426" sparseCutoff="1.0000000000000000"/>
      <sparseX i="280" alpha="-110710007.60889791" sparseCutoff="1.0000000000000000"/>
      <sparseX i="281" alpha="6940140.9652111111" sparseCutoff="1.0000000000000000"/>
      <sparseX i="282" alpha="2016828.5778150836" sparseCutoff="1.0000000000000000"/>
      <sparseX i="283" alpha="-4691095.5728252549" sparseCutoff="1.0000000000000000"/>
      <sparseX i="284" alpha="2190668.2256712331" sparseCutoff="1.0000000000000000"/>
      <sparseX i="285" alpha="-7877716.6763344174" sparseCutoff="1.0000000000000000"/>
      <sparseX i="286" alpha="-136653463.88318866" sparseCutoff="1.0000000000000000"/>
      <sparseX i="287" alpha="72395098.813681632" sparseCutoff="1.0000000000000000"/>
      <sparseX i="288" alpha="53986521.379500084" sparseCutoff="1.0000000000000000"/>
      <sparseX i="289" alpha="-25734307.564882319" sparseCutoff="1.0000000000000000"/>
      <sparseX i="290" alpha="-16787797.264080446" sparseCutoff="1.0000000000000000"/>
      <sparseX i="291" alpha="48053924.244414046" sparseCutoff="1.0000000000000000"/>
      <sparseX i="292" alpha="3124257.2101271302" sparseCutoff="1.0000000000000000"/>
      <sparseX i="293" alpha="-1522358.1125639773" sparseCutoff="1.0000000000000000"/>
      <sparseX i="294" alpha="-21323203.108092904" sparseCutoff="1.0000000000000000"/>
      <sparseX i="295" alpha="29841824.364527173" sparseCutoff="1.0000000000000000"/>
      <sparseX i="296" alpha="15965677.089183651" sparseCutoff="1.0000000000000000"/>
      <sparseX i="297" alpha="46274124.828004107" sparseCutoff="1.0000000000000000"/>
      <sparseX i="298" alpha="-71252337.439498350" sparseCutoff="1.0000000000000000"/>
      <sparseX i="299" alpha="-6267745.5826732945" sparseCutoff="1.0000000000000000"/>
      <sparseX i="300" alpha="62613619.217129059" sparseCutoff="1.0000000000000000"/>
      <sparseX i="301" alpha="-64119286.705021262" sparseCutoff="1.0000000000000000"/>
      <sparseX i="302" alpha="17831431.414322600" sparseCutoff="1.0000000000000000"/>
      <sparseX i="303" alpha="10327506.518480195" sparseCutoff="1.0000000000000000"/>
      <sparseX i="304" alpha="-17643891.375868514" sparseCutoff="1.0000000000000000"/>
      <sparseX i="305" alpha="5040270.9772529341" sparseCutoff="1.0000000000000000"/>
      <sparseX i="306" alpha="-9268130.0246716384" sparseCutoff="1.0000000000000000"/>
      <sparseX i="307" alpha="-2586453.1612613709" sparseCutoff="1.0000000000000000"/>
      <sparseX i="308" alpha="-1930330.2729671064" sparseCutoff="1.0000000000000000"/>
      <sparseX i="309" alpha="-4271409.7421654211" sparseCutoff="1.0000000000000000"/>
      <sparseX i="310" alpha="2729930.1390210125" sparseCutoff="1.0000000000000000"/>
      <sparseX i="311" alpha="543663.92351372284" sparseCutoff="1.0000000000000000"/>
      <sparseX i="312" alpha="-9936354.8154617362" sparseCutoff="1.0000000000000000"/>
      <sparseX i="313" alpha="11805422.960034374" sparseCutoff="1.0000000000000000"/>
      <sparseX i="314" alpha="24254731.594106652" sparseCutoff="1.0000000000000000"/>
      <sparseX i="315" alpha="-21943133.033954695" sparseCutoff="1.0000000000000000"/>
      <sparseX i="316" alpha="-27055347.441968828" sparseCutoff="1.0000000000000000"/>
      <sparseX i="317" alpha="27273345.208876375" sparseCutoff="1.0000000000000000"/>
      <sparseX i="318" alpha="-20593832.401445325" sparseCutoff="1.0000000000000000"/>
      <sparseX i="319" alpha="12690077.184278106" sparseCutoff="1.0000000000000000"/>
      <sparseX i="320" alpha="-17208586.140856091" sparseCutoff="1.0000000000000000"/>
      <sparseX i="321" alpha="35847490.880659960" sparseCutoff="1.0000000000000000"/>
      <sparseX i="322" alpha="-6827904.3661764925" sparseCutoff="1.0000000000000000"/>
      <sparseX i="323" alpha="-522085.48415867443" sparseCutoff="1.0000000000000000"/>
      <sparseX i="324" alpha="-610515.19621488580" sparseCutoff="1.0000000000000000"/>
      <sparseX i="325" alpha="-54961036.554300144" sparseCutoff="1.0000000000000000"/>
      <sparseX i="326" alpha="61620646.907497309" sparseCutoff="1.0000000000000000"/>
      <sparseX i="327" alpha="50368041.617693983" sparseCutoff="1.0000000000000000"/>
      <sparseX i="328" alpha="-30351699.276138790" sparseCutoff="1.0000000000000000"/>
      <sparseX i="329" alpha="-22825140.606096629" sparseCutoff="1.0000000000000000"/>
      <sparseX i="330" alpha="-139457936.69839731" sparseCutoff="1.0000000000000000"/>
      <sparseX i="331" alpha="91488858.681999087" sparseCutoff="1.0000000000000000"/>
      <sparseX i="332" alpha="43760830.522791937" sparseCutoff="1.0000000000000000"/>
      <sparseX i="333" alpha="-1652007.9003448118" sparseCutoff="1.0000000000000000"/>
      <sparseX i="334" alpha="28753699.403356936" sparseCutoff="1.0000000000000000"/>
      <sparseX i="335" alpha="-19925135.967479557" sparseCutoff="1.0000000000000000"/>
      <sparseX i="336" alpha="4431584.8852883345" sparseCutoff="1.0000000000000000"/>
      <sparseX i="337" alpha="-8272346.5205429224" sparseCutoff="1.0000000000000000"/>
      <sparseX i="338" alpha="10952553.310808433" sparseCutoff="1.0000000000000000"/>
      <sparseX i="339" alpha="-10692672.913382582" sparseCutoff="1.0000000000000000"/>
      <sparseX i="340" alpha="10694881.121674743" sparseCutoff="1.0000000000000000"/>
      <sparseX i="341" alpha="-20180685.516323220" sparseCutoff="1.0000000000000000"/>
      <sparseX i="342" alpha="-54274567.838357955" sparseCutoff="1.0000000000000000"/>
      <sparseX i="343" alpha="60566152.030700959" sparseCutoff="1.0000000000000000"/>
      <sparseX i="344" alpha="12494965.621341432" sparseCutoff="1.0000000000000000"/>
      <sparseX i="345" alpha="-12491810.234132053" sparseCutoff="1.0000000000000000"/>
      <sparseX i="346" alpha="4949249.8865862880" sparseCutoff="1.0000000000000000"/>
      <sparseX i="347" alpha="-8802243.4999549799" sparseCutoff="1.0000000000000000"/>
      <sparseX i="348" alpha="-21218172.825022291" sparseCutoff="1.0000000000000000"/>
      <sparseX i="349" alpha="24386070.493435171" sparseCutoff="1.0000000000000000"/>
      <sparseX i="350" alpha="-1193942.9797796272" sparseCutoff="1.0000000000000000"/>
      <sparseX i="351" alpha="-5773631.1108893305" sparseCutoff="1.0000000000000000"/>
      <sparseX i="352" alpha="6372575.8274827851" sparseCutoff="1.0000000000000000"/>
      <sparseX i="353" alpha="829292.42031107459" sparseCutoff="1.0000000000000000"/>
      <sparseX i="354" alpha="-1336241.4437140762" sparseCutoff="1.0000000000000000"/>
      <sparseX i="355" alpha="-14522988.767354466" sparseCutoff="1.0000000000000000"/>
      <sparseX i="356" alpha="-1902827.9292997913" sparseCutoff="1.0000000000000000"/>
      <sparseX i="357" alpha="6527904.2313825171" sparseCutoff="1.0000000000000000"/>
      <sparseX i="358" alpha="-22112573.340643033" sparseCutoff="1.0000000000000000"/>
      <sparseX i="359" alpha="-11902357.700270928" sparseCutoff="1.0000000000000000"/>
      <sparseX i="360" alpha="428575.17103905987" sparseCutoff="1.0000000000000000"/>
      <sparseX i="361" alpha="4015883.0947754853" sparseCutoff="1.0000000000000000"/>
      <sparseX i="362" alpha="2132943.6858684039" sparseCutoff="1.0000000000000000"/>
      <sparseX i="363" alpha="-14014118.995275196" sparseCutoff="1.0000000000000000"/>
      <sparseX i="364" alpha="-6882902.2412102455" sparseCutoff="1.0000000000000000"/>
      <sparseX i="365" alpha="-3055426.7815496041" sparseCutoff="1.0000000000000000"/>
      <sparseX i="366" alpha="7362779.1565436618" sparseCutoff="1.0000000000000000"/>
      <sparseX i="367" alpha="88642.452460637331" sparseCutoff="1.0000000000000000"/>
      <sparseX i="368" alpha="-5853244.8465641383" sparseCutoff="1.0000000000000000"/>
      <sparseX i="369" alpha="-6900408.1085656146" sparseCutoff="1.0000000000000000"/>
      <sparseX i="370" alpha="6251998.1545104440" sparseCutoff="1.0000000000000000"/>
      <sparseX i="371" alpha="-1540563.0488200628" sparseCutoff="1.0000000000000000"/>
      <sparseX i="372" alpha="-5411957.9435079135" sparseCutoff="1.0000000000000000"/>
      <sparseX i="373" alpha="-8598854.1621786952" sparseCutoff="1.0000000000000000"/>
      <sparseX i="374" alpha="16571892.321277466" sparseCutoff="1.0000000000000000"/>
      <sparseX i="375" alpha="-532816.42896506353" sparseCutoff="1.0000000000000000"/>
      <sparseX i="376" alpha="-19243002.473635066" sparseCutoff="1.0000000000000000"/>
      <sparseX i="377" alpha="28874197.652245272" sparseCutoff="1.0000000000000000"/>
      <sparseX i="378" alpha="29974077.940892909" sparseCutoff="1.0000000000000000"/>
      <sparseX i="379" alpha="-36775056.318380795" sparseCutoff="1.0000000000000000"/>
      <sparseX i="380" alpha="-2960960.0080823279" sparseCutoff="1.0000000000000000"/>
      <sparseX i="381" alpha="2588816.1543550002" sparseCutoff="1.0000000000000000"/>
      <sparseX i="382" alpha="1086869.5210104624" sparseCutoff="1.0000000000000000"/>
      <sparseX i="383" alpha="481727.62933691510" sparseCutoff="1.0000000000000000"/>
      <sparseX i="384" alpha="3460869.9349008501" sparseCutoff="1.0000000000000000"/>
      <sparseX i="385" alpha="-7249267.7036114205" sparseCutoff="1.0000000000000000"/>
      <sparseX i="386" alpha="7186584.1531145070" sparseCutoff="1.0000000000000000"/>
      <sparseX i="387" alpha="-10884638.885121265" sparseCutoff="1.0000000000000000"/>
      <sparseX i="388" alpha="-9061747.6617584694" sparseCutoff="1.0000000000000000"/>
      <sparseX i="389" alpha="3348908.3647624729" sparseCutoff="1.0000000000000000"/>
      <sparseX i="390" alpha="7231836.4137472743" sparseCutoff="1.0000000000000000"/>
      <sparseX i="391" alpha="7251254.5113035534" sparseCutoff="1.0000000000000000"/>
      <sparseX i="392" alpha="4723841.3691994986" sparseCutoff="1.0000000000000000"/>
      <sparseX i="393" alpha="-4994089.6284385156" sparseCutoff="1.0000000000000000"/>
      <sparseX i="394" alpha="-4841982.9859909033" sparseCutoff="1.0000000000000000"/>
      <sparseX i="395" alpha="6148817.6641670754" sparseCutoff="1.0000000000000000"/>
      <sparseX i="396" alpha="-7028845.0417741146" sparseCutoff="1.0000000000000000"/>
      <sparseX i="397" alpha="-4974387.4485208625" sparseCutoff="1.0000000000000000"/>
      <sparseX i="398" alpha="-637099.77087418607" sparseCutoff="1.0000000000000000"/>
      <sparseX i="399" alpha="-5440172.4794656681" sparseCutoff="1.0000000000000000"/>
      <sparseX i="400" alpha="2147369.3159317309" sparseCutoff="1.0000000000000000"/>
      <sparseX i="401" alpha="3380870.1532985386" sparseCutoff="1.0000000000000000"/>
      <sparseX i="402" alpha="-4053775.4238627641" sparseCutoff="1.0000000000000000"/>
      <sparseX i="403" alpha="-142983.67708778888" sparseCutoff="1.0000000000000000"/>
      <sparseX i="404" alpha="5879551.0037411954" sparseCutoff="1.0000000000000000"/>
      <sparseX i="405" alpha="-8738105.5920122992" sparseCutoff="1.0000000000000000"/>
      <sparseX i="406" alpha="19436820.814490158" sparseCutoff="1.0000000000000000"/>
      <sparseX i="407" alpha="-29651772.312018830" sparseCutoff="1.0000000000000000"/>
      <sparseX i="408" alpha="794174.85972989327" sparseCutoff="1.0000000000000000"/>
      <sparseX i="409" alpha="-10383368.798662607" sparseCutoff="1.0000000000000000"/>
      <sparseX i="410" alpha="5855832.6964100311" sparseCutoff="1.0000000000000000"/>
      <sparseX i="411" alpha="6554593.5416466305" sparseCutoff="1.0000000000000000"/>
      <sparseX i="412" alpha="-11084956.937061992" sparseCutoff="1.0000000000000000"/>
      <sparseX i="413" alpha="15339639.791511517" sparseCutoff="1.0000000000000000"/>
      <sparseX i="414" alpha="14970685.785539411" sparseCutoff="1.0000000000000000"/>
      <sparseX i="415" alpha="-118411038.81427771" sparseCutoff="1.0000000000000000"/>
      <sparseX i="416" alpha="76156030.845953524" sparseCutoff="1.0000000000000000"/>
      <sparseX i="417" alpha="-3119376.7635616451" sparseCutoff="1.0000000000000000"/>
      <sparseX i="418" alpha="42519434.246687546" sparseCutoff="1.0000000000000000"/>
      <sparseX i="419" alpha="-28208582.994466148" sparseCutoff="1.0000000000000000"/>
      <sparseX i="420" alpha="16304140.235645432" sparseCutoff="1.0000000000000000"/>
      <sparseX i="421" alpha="16005357.341947030" sparseCutoff="1.0000000000000000"/>
      <sparseX i="422" alpha="-9736031.9977270346" sparseCutoff="1.0000000000000000"/>
      <sparseX i="423" alpha="17851088.365407825" sparseCutoff="1.0000000000000000"/>
      <sparseX i="424" alpha="-10933457.733859945" sparseCutoff="1.0000000000000000"/>
      <sparseX i="425" alpha="-15584105.023863416" sparseCutoff="1.0000000000000000"/>
      <sparseX i="426" alpha="15457358.762693500" sparseCutoff="1.0000000000000000"/>
      <sparseX i="427" alpha="11549148.313185720" sparseCutoff="1.0000000000000000"/>
      <sparseX i="428" alpha="25753499.538012002" sparseCutoff="1.0000000000000000"/>
      <sparseX i="429" alpha="-15087684.766591012" sparseCutoff="1.0000000000000000"/>
      <sparseX i="430" alpha="-37295598.504466780" sparseCutoff="1.0000000000000000"/>
      <sparseX i="431" alpha="1793964.0430227292" sparseCutoff="1.0000000000000000"/>
      <sparseX i="432" alpha="1332379.7325291832" sparseCutoff="1.0000000000000000"/>
      <sparseX i="433" alpha="-1958564.9954616877" sparseCutoff="1.0000000000000000"/>
      <sparseX i="434" alpha="3514069.7064013239" sparseCutoff="1.0000000000000000"/>
      <sparseX i="435" alpha="-1425399.8391856512" sparseCutoff="1.0000000000000000"/>
      <sparseX i="436" alpha="581255.36199874862" sparseCutoff="1.0000000000000000"/>
      <sparseX i="437" alpha="752367.01318626595" sparseCutoff="1.0000000000000000"/>
      <sparseX i="438" alpha="1199483.8041738614" sparseCutoff="1.0000000000000000"/>
      <sparseX i="439" alpha="3524154.4268125426" sparseCutoff="1.0000000000000000"/>
      <sparseX i="440" alpha="-2801794.3723598542" sparseCutoff="1.0000000000000000"/>
      <sparseX i="441" alpha="-916471.34551598830" sparseCutoff="1.0000000000000000"/>
      <sparseX i="442" alpha="-6144248.0977971302" sparseCutoff="1.0000000000000000"/>
      <sparseX i="443" alpha="699863.90330450446" sparseCutoff="1.0000000000000000"/>
      <sparseX i="444" alpha="6180096.1870710850" sparseCutoff="1.0000000000000000"/>
      <sparseX i="445" alpha="-59710960.772352763" sparseCutoff="1.0000000000000000"/>
      <sparseX i="446" alpha="49478559.697438762" sparseCutoff="1.0000000000000000"/>
      <sparseX i="447" alpha="16293108.337702710" sparseCutoff="1.0000000000000000"/>
      <sparseX i="448" alpha="13447061.188104095" sparseCutoff="1.0000000000000000"/>
      <sparseX i="449" alpha="6127730.8040161459" sparseCutoff="1.0000000000000000"/>
      <sparseX i="450" alpha="2612517.0462101875" sparseCutoff="1.0000000000000000"/>
      <sparseX i="451" alpha="-3708597.7627479597" sparseCutoff="1.0000000000000000"/>
      <sparseX i="452" alpha="-2089100.6091081442" sparseCutoff="1.0000000000000000"/>
      <sparseX i="453" alpha="-1799852.9046081323" sparseCutoff="1.0000000000000000"/>
      <sparseX i="454" alpha="-2248680.8243700499" sparseCutoff="1.0000000000000000"/>
      <sparseX i="455" alpha="-1525498.7146909286" sparseCutoff="1.0000000000000000"/>
      <sparseX i="456" alpha="-1326329.9896317401" sparseCutoff="1.0000000000000000"/>
      <sparseX i="457" alpha="-780267.56497636251" sparseCutoff="1.0000000000000000"/>
      <sparseX i="458" alpha="2861033.6022470933" sparseCutoff="1.0000000000000000"/>
      <sparseX i="459" alpha="-975052.60234042932" sparseCutoff="1.0000000000000000"/>
      <sparseX i="460" alpha="-207139.07907852464" sparseCutoff="1.0000000000000000"/>
      <sparseX i="461" alpha="2596822.5828257552" sparseCutoff="1.0000000000000000"/>
      <sparseX i="462" alpha="98566.630723890979" sparseCutoff="1.0000000000000000"/>
      <sparseX i="463" alpha="-575815.64909492061" sparseCutoff="1.0000000000000000"/>
      <sparseX i="464" alpha="-7120383.7316224640" sparseCutoff="1.0000000000000000"/>
      <sparseX i="465" alpha="-4510675.5738739287" sparseCutoff="1.0000000000000000"/>
      <sparseX i="466" alpha="22550583.762987860" sparseCutoff="1.0000000000000000"/>
      <sparseX i="467" alpha="-23675034.424370602" sparseCutoff="1.0000000000000000"/>
      <sparseX i="468" alpha="25318984.851371769" sparseCutoff="1.0000000000000000"/>
      <sparseX i="469" alpha="46228613.840703376" sparseCutoff="1.0000000000000000"/>
      <sparseX i="470" alpha="-74242897.675417304" sparseCutoff="1.0000000000000000"/>
      <sparseX i="471" alpha="-33702079.243269630" sparseCutoff="1.0000000000000000"/>
      <sparseX i="472" alpha="-19075551.893025953" sparseCutoff="1.0000000000000000"/>
      <sparseX i="473" alpha="48196561.711056776" sparseCutoff="1.0000000000000000"/>
      <sparseX i="474" alpha="1634793.1483325104" sparseCutoff="1.0000000000000000"/>
      <sparseX i="475" alpha="-2806820.6743767383" sparseCutoff="1.0000000000000000"/>
      <sparseX i="476" alpha="34126067.264410734" sparseCutoff="1.0000000000000000"/>
      <sparseX i="477" alpha="7033117.3100142172" sparseCutoff="1.0000000000000000"/>
      <sparseX i="478" alpha="-18088334.345784467" sparseCutoff="1.0000000000000000"/>
      <sparseX i="479" alpha="6410088.0095201209" sparseCutoff="1.0000000000000000"/>
      <sparseX i="480" alpha="10400188.844477272" sparseCutoff="1.0000000000000000"/>
      <sparseX i="481" alpha="1848669.5609157637" sparseCutoff="1.0000000000000000"/>
      <sparseX i="482" alpha="-2574157.9467515666" sparseCutoff="1.0000000000000000"/>
      <sparseX i="483" alpha="-3104791.5830438077" sparseCutoff="1.0000000000000000"/>
      <sparseX i="484" alpha="-1895511.6530685993" sparseCutoff="1.0000000000000000"/>
      <sparseX i="485" alpha="1039774.7118987782" sparseCutoff="1.0000000000000000"/>
      <sparseX i="486" alpha="-8369498.2895238576" sparseCutoff="1.0000000000000000"/>
      <sparseX i="487" alpha="4729745.6962439166" sparseCutoff="1.0000000000000000"/>
      <sparseX i="488" alpha="-11478327.991107816" sparseCutoff="1.0000000000000000"/>
      <sparseX i="489" alpha="11358859.229060935" sparseCutoff="1.0000000000000000"/>
      <sparseX i="490" alpha="-26811953.968906000" sparseCutoff="1.0000000000000000"/>
      <sparseX i="491" alpha="11761031.183613990" sparseCutoff="1.0000000000000000"/>
      <sparseX i="492" alpha="-27446646.530242942" sparseCutoff="1.0000000000000000"/>
      <sparseX i="493" alpha="8550117.0494171493" sparseCutoff="1.0000000000000000"/>
      <sparseX i="494" alpha="13938495.446154863" sparseCutoff="1.0000000000000000"/>
      <sparseX i="495" alpha="-14715465.104330126" sparseCutoff="1.0000000000000000"/>
      <sparseX i="496" alpha="4440863.3007593006" sparseCutoff="1.0000000000000000"/>
      <sparseX i="497" alpha="-8921979.7005515508" sparseCutoff="1.0000000000000000"/>
      <sparseX i="498" alpha="2931084.6268654731" sparseCutoff="1.0000000000000000"/>
      <sparseX i="499" alpha="39374835.785922781" sparseCutoff="1.0000000000000000"/>
      <sparseX i="500" alpha="-34082888.795443460" sparseCutoff="1.0000000000000000"/>
      <sparseX i="501" alpha="-10401724.243620088" sparseCutoff="1.0000000000000000"/>
      <sparseX i="502" alpha="91248269.510899708" sparseCutoff="1.0000000000000000"/>
      <sparseX i="503" alpha="-90245380.729685709" sparseCutoff="1.0000000000000000"/>
      <sparseX i="504" alpha="11948951.149859387" sparseCutoff="1.0000000000000000"/>
      <sparseX i="505" alpha="-12837235.860091498" sparseCutoff="1.0000000000000000"/>
      <sparseX i="506" alpha="10782630.306564407" sparseCutoff="1.0000000000000000"/>
      <sparseX i="507" alpha="-15031609.217195379" sparseCutoff="1.0000000000000000"/>
      <sparseX i="508" alpha="-4943433.7868393734" sparseCutoff="1.0000000000000000"/>
      <sparseX i="509" alpha="9559502.9301629346" sparseCutoff="1.0000000000000000"/>
      <sparseX i="510" alpha="21647260.164337836" sparseCutoff="1.0000000000000000"/>
      <sparseX i="511" alpha="-23233805.945093203" sparseCutoff="1.0000000000000000"/>
      <sparseX i="512" alpha="23753073.608204026" sparseCutoff="1.0000000000000000"/>
      <sparseX i="513" alpha="-7324380.8444893453" sparseCutoff="1.0000000000000000"/>
      <sparseX i="514" alpha="7108898.6098770835" sparseCutoff="1.0000000000000000"/>
      <sparseX i="515" alpha="-18037638.319970828" sparseCutoff="1.0000000000000000"/>
      <sparseX i="516" alpha="-21790791.039233189" sparseCutoff="1.0000000000000000"/>
      <sparseX i="517" alpha="18546344.239778034" sparseCutoff="1.0000000000000000"/>
      <sparseX i="518" alpha="-1906109.0821753971" sparseCutoff="1.0000000000000000"/>
      <sparseX i="519" alpha="2830626.9805987841" sparseCutoff="1.0000000000000000"/>
      <sparseX i="520" alpha="22709067.942049500" sparseCutoff="1.0000000000000000"/>
      <sparseX i="521" alpha="-25124684.345112532" sparseCutoff="1.0000000000000000"/>
      <sparseX i="522" alpha="7792144.7478917167" sparseCutoff="1.0000000000000000"/>
      <sparseX i="523" alpha="-5678501.8634197693" sparseCutoff="1.0000000000000000"/>
      <sparseX i="524" alpha="5719044.5019833334" sparseCutoff="1.0000000000000000"/>
      <sparseX i="525" alpha="-5387721.8627103195" sparseCutoff="1.0000000000000000"/>
      <sparseX i="526" alpha="-2346965.5834266380" sparseCutoff="1.0000000000000000"/>
      <sparseX i="527" alpha="312134.13311397634" sparseCutoff="1.0000000000000000"/>
      <sparseX i="528" alpha="3619870.4703684961" sparseCutoff="1.0000000000000000"/>
      <sparseX i="529" alpha="-2151807.2210804285" sparseCutoff="1.0000000000000000"/>
      <sparseX i="530" alpha="-4465265.0085301986" sparseCutoff="1.0000000000000000"/>
      <sparseX i="531" alpha="-847509.97798848944" sparseCutoff="1.0000000000000000"/>
      <sparseX i="532" alpha="902228.72178019164" sparseCutoff="1.0000000000000000"/>
      <sparseX i="533" alpha="2321477.2346975571" sparseCutoff="1.0000000000000000"/>
      <sparseX i="534" alpha="-3628472.9313427750" sparseCutoff="1.0000000000000000"/>
      <sparseX i="535" alpha="-2763884.0833406830" sparseCutoff="1.0000000000000000"/>
      <sparseX i="536" alpha="33989316.114462920" sparseCutoff="1.0000000000000000"/>
      <sparseX i="537" alpha="7234573.7040114282" sparseCutoff="1.0000000000000000"/>
      <sparseX i="538" alpha="-40571710.521763831" sparseCutoff="1.0000000000000000"/>
      <sparseX i="539" alpha="-86143642.334965736" sparseCutoff="1.0000000000000000"/>
      <sparseX i="540" alpha="85823026.380625844" sparseCutoff="1.0000000000000000"/>
      <sparseX i="541" alpha="-19838617.037475962" sparseCutoff="1.0000000000000000"/>
      <sparseX i="542" alpha="16756860.240093125" sparseCutoff="1.0000000000000000"/>
      <sparseX i="543" alpha="116442264.79960355" sparseCutoff="1.0000000000000000"/>
      <sparseX i="544" alpha="4027519.4756843192" sparseCutoff="1.0000000000000000"/>
      <sparseX i="545" alpha="-120626442.50883387" sparseCutoff="1.0000000000000000"/>
      <sparseX i="546" alpha="527713.29352215002" sparseCutoff="1.0000000000000000"/>
      <sparseX i="547" alpha="-5630196.7649612278" sparseCutoff="1.0000000000000000"/>
      <sparseX i="548" alpha="-9742514.0931894034" sparseCutoff="1.0000000000000000"/>
      <sparseX i="549" alpha="-2462743.3423773502" sparseCutoff="1.0000000000000000"/>
      <sparseX i="550" alpha="1181346.4961139932" sparseCutoff="1.0000000000000000"/>
      <sparseX i="551" alpha="-1976665.1930282342" sparseCutoff="1.0000000000000000"/>
      <sparseX i="552" alpha="373180.70884728973" sparseCutoff="1.0000000000000000"/>
      <sparseX i="553" alpha="36573.984422504771" sparseCutoff="1.0000000000000000"/>
      <sparseX i="554" alpha="3391614.2767171087" sparseCutoff="1.0000000000000000"/>
      <sparseX i="555" alpha="-4196199.9108485170" sparseCutoff="1.0000000000000000"/>
      <sparseX i="556" alpha="-22855051.598978713" sparseCutoff="1.0000000000000000"/>
      <sparseX i="557" alpha="2428108.2143340879" sparseCutoff="1.0000000000000000"/>
      <sparseX i="558" alpha="9972168.8025522251" sparseCutoff="1.0000000000000000"/>
      <sparseX i="559" alpha="-14573766.279265465" sparseCutoff="1.0000000000000000"/>
      <sparseX i="560" alpha="11094043.546441201" sparseCutoff="1.0000000000000000"/>
      <sparseX i="561" alpha="3347549.7759232894" sparseCutoff="1.0000000000000000"/>
      <sparseX i="562" alpha="624534.75127271912" sparseCutoff="1.0000000000000000"/>
      <sparseX i="563" alpha="1327757.4775726399" sparseCutoff="1.0000000000000000"/>
      <sparseX i="564" alpha="-11846849.166673269" sparseCutoff="1.0000000000000000"/>
      <sparseX i="565" alpha="10632173.468749741" sparseCutoff="1.0000000000000000"/>
      <sparseX i="566" alpha="12125858.099234633" sparseCutoff="1.0000000000000000"/>
      <sparseX i="567" alpha="-38517235.904230818" sparseCutoff="1.0000000000000000"/>
      <sparseX i="568" alpha="26364082.169496100" sparseCutoff="1.0000000000000000"/>
      <sparseX i="569" alpha="1719354.7675245940" sparseCutoff="1.0000000000000000"/>
      <sparseX i="570" alpha="3076625.2444157344" sparseCutoff="1.0000000000000000"/>
      <sparseX i="571" alpha="27735456.604844492" sparseCutoff="1.0000000000000000"/>
      <sparseX i="572" alpha="24285208.072664946" sparseCutoff="1.0000000000000000"/>
      <sparseX i="573" alpha="-24300164.238076776" sparseCutoff="1.0000000000000000"/>
      <sparseX i="574" alpha="-27888601.061327748" sparseCutoff="1.0000000000000000"/>
      <sparseX i="575" alpha="-19592539.354846295" sparseCutoff="1.0000000000000000"/>
      <sparseX i="576" alpha="-18140029.553954270" sparseCutoff="1.0000000000000000"/>
      <sparseX i="577" alpha="26327722.299774453" sparseCutoff="1.0000000000000000"/>
      <sparseX i="578" alpha="5129283.7136742165" sparseCutoff="1.0000000000000000"/>
      <sparseX i="579" alpha="-3055197.2414566074" sparseCutoff="1.0000000000000000"/>
      <sparseX i="580" alpha="1731602.4199751127" sparseCutoff="1.0000000000000000"/>
      <sparseX i="581" alpha="5272950.0017140824" sparseCutoff="1.0000000000000000"/>
      <sparseX i="582" alpha="-1662267.7893267379" sparseCutoff="1.0000000000000000"/>
      <sparseX i="583" alpha="12369466.098605322" sparseCutoff="1.0000000000000000"/>
      <sparseX i="584" alpha="-7579169.1582424371" sparseCutoff="1.0000000000000000"/>
      <sparseX i="585" alpha="-33320016.922793381" sparseCutoff="1.0000000000000000"/>
      <sparseX i="586" alpha="29389478.982533474" sparseCutoff="1.0000000000000000"/>
      <sparseX i="587" alpha="-310309.12993275234" sparseCutoff="1.0000000000000000"/>
      <sparseX i="588" alpha="3074829.4811989493" sparseCutoff="1.0000000000000000"/>
      <sparseX i="589" alpha="4365626.7340941420" sparseCutoff="1.0000000000000000"/>
      <sparseX i="590" alpha="7885306.3030582638" sparseCutoff="1.0000000000000000"/>
      <sparseX i="591" alpha="15965647.321258785" sparseCutoff="1.0000000000000000"/>
      <sparseX i="592" alpha="-3113254.2002592110" sparseCutoff="1.0000000000000000"/>
      <sparseX i="593" alpha="-50169658.625353649" sparseCutoff="1.0000000000000000"/>
      <sparseX i="594" alpha="56017877.035678104" sparseCutoff="1.0000000000000000"/>
      <sparseX i="595" alpha="-9501102.7270958126" sparseCutoff="1.0000000000000000"/>
      <sparseX i="596" alpha="20975640.554722544" sparseCutoff="1.0000000000000000"/>
      <sparseX i="597" alpha="-12514391.043201515" sparseCutoff="1.0000000000000000"/>
      <sparseX i="598" alpha="13212076.859886656" sparseCutoff="1.0000000000000000"/>
      <sparseX i="599" alpha="2020911.1073046105" sparseCutoff="1.0000000000000000"/>
      <sparseX i="600" alpha="13158782.351331905" sparseCutoff="1.0000000000000000"/>
      <sparseX i="601" alpha="-10311093.310060481" sparseCutoff="1.0000000000000000"/>
      <sparseX i="602" alpha="-17433671.516953237" sparseCutoff="1.0000000000000000"/>
      <sparseX i="603" alpha="18749828.258553121" sparseCutoff="1.0000000000000000"/>
      <sparseX i="604" alpha="-60334924.295991369" sparseCutoff="1.0000000000000000"/>
      <sparseX i="605" alpha="85144260.446293712" sparseCutoff="1.0000000000000000"/>
      <sparseX i="606" alpha="-1261024.6594121496" sparseCutoff="1.0000000000000000"/>
      <sparseX i="607" alpha="-11381203.460696517" sparseCutoff="1.0000000000000000"/>
      <sparseX i="608" alpha="7710959.6076911688" sparseCutoff="1.0000000000000000"/>
      <sparseX i="609" alpha="-5931516.5981872352" sparseCutoff="1.0000000000000000"/>
      <sparseX i="610" alpha="3008297.5580188297" sparseCutoff="1.0000000000000000"/>
      <sparseX i="611" alpha="-1838284.8215857446" sparseCutoff="1.0000000000000000"/>
      <sparseX i="612" alpha="-533316.22472075396" sparseCutoff="1.0000000000000000"/>
      <sparseX i="613" alpha="-6063443.2159231734" sparseCutoff="1.0000000000000000"/>
      <sparseX i="614" alpha="5220596.5298404740" sparseCutoff="1.0000000000000000"/>
      <sparseX i="615" alpha="-252893.08002457654" sparseCutoff="1.0000000000000000"/>
      <sparseX i="616" alpha="-1908153.5465868225" sparseCutoff="1.0000000000000000"/>
      <sparseX i="617" alpha="3083303.0843347376" sparseCutoff="1.0000000000000000"/>
      <sparseX i="618" alpha="3031461.2810543575" sparseCutoff="1.0000000000000000"/>
      <sparseX i="619" alpha="1708186.1310715294" sparseCutoff="1.0000000000000000"/>
      <sparseX i="620" alpha="2147489.8224852188" sparseCutoff="1.0000000000000000"/>
      <sparseX i="621" alpha="-6757353.5521778855" sparseCutoff="1.0000000000000000"/>
      <sparseX i="622" alpha="2661287.2879896970" sparseCutoff="1.0000000000000000"/>
      <sparseX i="623" alpha="3499251.3069436187" sparseCutoff="1.0000000000000000"/>
      <sparseX i="624" alpha="-3710510.4643914183" sparseCutoff="1.0000000000000000"/>
      <sparseX i="625" alpha="2098970.9594881549" sparseCutoff="1.0000000000000000"/>
      <sparseX i="626" alpha="2980351.5095406063" sparseCutoff="1.0000000000000000"/>
      <sparseX i="627" alpha="68765721.292301536" sparseCutoff="1.0000000000000000"/>
      <sparseX i="628" alpha="-55912701.306755118" sparseCutoff="1.0000000000000000"/>
      <sparseX i="629" alpha="7439379.4424874922" sparseCutoff="1.0000000000000000"/>
      <sparseX i="630" alpha="-15098966.900530042" sparseCutoff="1.0000000000000000"/>
      <sparseX i="631" alpha="-2307159.2779308623" sparseCutoff="1.0000000000000000"/>
      <sparseX i="632" alpha="2240539.8472355739" sparseCutoff="1.0000000000000000"/>
      <sparseX i="633" alpha="-4465683.5963997236" sparseCutoff="1.0000000000000000"/>
      <sparseX i="634" alpha="-47237596.165681489" sparseCutoff="1.0000000000000000"/>
      <sparseX i="635" alpha="45538049.318632990" sparseCutoff="1.0000000000000000"/>
      <sparseX i="636" alpha="-835705264.94285631" sparseCutoff="1.0000000000000000"/>
      <sparseX i="637" alpha="835980332.98530376" sparseCutoff="1.0000000000000000"/>
      <sparseX i="638" alpha="-182564.52804848630" sparseCutoff="1.0000000000000000"/>
      <sparseX i="639" alpha="56466016.879552163" sparseCutoff="1.0000000000000000"/>
      <sparseX i="640" alpha="-54782712.446152262" sparseCutoff="1.0000000000000000"/>
      <sparseX i="641" alpha="-3654785.8436821424" sparseCutoff="1.0000000000000000"/>
      <sparseX i="642" alpha="15508403.241443997" sparseCutoff="1.0000000000000000"/>
      <sparseX i="643" alpha="879449.31200048013" sparseCutoff="1.0000000000000000"/>
      <sparseX i="644" alpha="979759.83849927096" sparseCutoff="1.0000000000000000"/>
      <sparseX i="645" alpha="2374701.0238631885" sparseCutoff="1.0000000000000000"/>
      <sparseX i="646" alpha="-10367208.997582769" sparseCutoff="1.0000000000000000"/>
      <sparseX i="647" alpha="-5184237.0629875334" sparseCutoff="1.0000000000000000"/>
      <sparseX i="648" alpha="-2201554.2010599328" sparseCutoff="1.0000000000000000"/>
      <sparseX i="649" alpha="-118604.84927381006" sparseCutoff="1.0000000000000000"/>
      <sparseX i="650" alpha="-2362972.4303071271" sparseCutoff="1.0000000000000000"/>
      <sparseX i="651" alpha="-4614702.6418282101" sparseCutoff="1.0000000000000000"/>
      <sparseX i="652" alpha="-3249221.0960042276" sparseCutoff="1.0000000000000000"/>
      <sparseX i="653" alpha="30902374.760545645" sparseCutoff="1.0000000000000000"/>
      <sparseX i="654" alpha="-28491242.386034720" sparseCutoff="1.0000000000000000"/>
      <sparseX i="655" alpha="24721154.592673317" sparseCutoff="1.0000000000000000"/>
      <sparseX i="656" alpha="-23031994.575847540" sparseCutoff="1.0000000000000000"/>
      <sparseX i="657" alpha="599007.30192650587" sparseCutoff="1.0000000000000000"/>
      <sparseX i="658" alpha="41156.407385045517" sparseCutoff="1.0000000000000000"/>
      <sparseX i="659" alpha="-583543291.14804912" sparseCutoff="1.0000000000000000"/>
      <sparseX i="660" alpha="558823269.33740437" sparseCutoff="1.0000000000000000"/>
      <sparseX i="661" alpha="6927493.3321299879" sparseCutoff="1.0000000000000000"/>
      <sparseX i="662" alpha="-2188448.2526899627" sparseCutoff="1.0000000000000000"/>
      <sparseX i="663" alpha="3472390.6196981128" sparseCutoff="1.0000000000000000"/>
      <sparseX i="664" alpha="1869038.9966851613" sparseCutoff="1.0000000000000000"/>
      <sparseX i="665" alpha="244373175.13440183" sparseCutoff="1.0000000000000000"/>
      <sparseX i="666" alpha="-11298858.478587640" sparseCutoff="1.0000000000000000"/>
      <sparseX i="667" alpha="874011.35243488604" sparseCutoff="1.0000000000000000"/>
      <sparseX i="668" alpha="4223300.7617237074" sparseCutoff="1.0000000000000000"/>
      <sparseX i="669" alpha="-1667305.6940524431" sparseCutoff="1.0000000000000000"/>
      <sparseX i="670" alpha="-895518.00739209505" sparseCutoff="1.0000000000000000"/>
      <sparseX i="671" alpha="660607.21062084113" sparseCutoff="1.0000000000000000"/>
      <sparseX i="672" alpha="2277184.7388081360" sparseCutoff="1.0000000000000000"/>
      <sparseX i="673" alpha="25920686.830279198" sparseCutoff="1.0000000000000000"/>
      <sparseX i="674" alpha="-19733334.244057164" sparseCutoff="1.0000000000000000"/>
      <sparseX i="675" alpha="7441702.5824722247" sparseCutoff="1.0000000000000000"/>
      <sparseX i="676" alpha="5258024.9952497454" sparseCutoff="1.0000000000000000"/>
      <sparseX i="677" alpha="589717.79853683431" sparseCutoff="1.0000000000000000"/>
      <sparseX i="678" alpha="-955690.88998420862" sparseCutoff="1.0000000000000000"/>
      <sparseX i="679" alpha="-34455064.412336387" sparseCutoff="1.0000000000000000"/>
      <sparseX i="680" alpha="-1544083.8907141543" sparseCutoff="1.0000000000000000"/>
      <sparseX i="681" alpha="65424478.205126539" sparseCutoff="1.0000000000000000"/>
      <sparseX i="682" alpha="-29341406.403415591" sparseCutoff="1.0000000000000000"/>
      <sparseX i="683" alpha="-124275.03970787607" sparseCutoff="1.0000000000000000"/>
      <sparseX i="684" alpha="-937680519.21313250" sparseCutoff="1.0000000000000000"/>
      <sparseX i="685" alpha="468422640.56229651" sparseCutoff="1.0000000000000000"/>
      <sparseX i="686" alpha="468142100.40686089" sparseCutoff="1.0000000000000000"/>
      <sparseX i="687" alpha="-19010850.340246033" sparseCutoff="1.0000000000000000"/>
      <sparseX i="688" alpha="-506856140.56571615" sparseCutoff="1.0000000000000000"/>
      <sparseX i="689" alpha="272431010.35302758" sparseCutoff="1.0000000000000000"/>
      <sparseX i="690" alpha="233107613.45303464" sparseCutoff="1.0000000000000000"/>
      <sparseX i="691" alpha="6527208.4136787029" sparseCutoff="1.0000000000000000"/>
      <sparseX i="692" alpha="1830051.4476805637" sparseCutoff="1.0000000000000000"/>
      <sparseX i="693" alpha="5617007.1021555075" sparseCutoff="1.0000000000000000"/>
      <sparseX i="694" alpha="-1232272.1316462788" sparseCutoff="1.0000000000000000"/>
      <sparseX i="695" alpha="-245509384.87723306" sparseCutoff="1.0000000000000000"/>
      <sparseX i="696" alpha="-12634139.802445993" sparseCutoff="1.0000000000000000"/>
      <sparseX i="697" alpha="870088.70113333163" sparseCutoff="1.0000000000000000"/>
      <sparseX i="698" alpha="-27892047.034202639" sparseCutoff="1.0000000000000000"/>
      <sparseX i="699" alpha="20309461.342104118" sparseCutoff="1.0000000000000000"/>
      <sparseX i="700" alpha="-3794523.4240506971" sparseCutoff="1.0000000000000000"/>
      <sparseX i="701" alpha="1957244.8962648290" sparseCutoff="1.0000000000000000"/>
      <sparseX i="702" alpha="435913.67515848513" sparseCutoff="1.0000000000000000"/>
      <sparseX i="703" alpha="363331.73168331763" sparseCutoff="1.0000000000000000"/>
      <sparseX i="704" alpha="-3368587.3850467103" sparseCutoff="1.0000000000000000"/>
      <sparseX i="705" alpha="15842835.780350309" sparseCutoff="1.0000000000000000"/>
      <sparseX i="706" alpha="46854667.367394000" sparseCutoff="1.0000000000000000"/>
      <sparseX i="707" alpha="-51778534.501045890" sparseCutoff="1.0000000000000000"/>
      <sparseX i="708" alpha="-8411430.1805278584" sparseCutoff="1.0000000000000000"/>
      <sparseX i="709" alpha="-1286103.6007360800" sparseCutoff="1.0000000000000000"/>
      <sparseX i="710" alpha="-4122319.6110322662" sparseCutoff="1.0000000000000000"/>
      <sparseX i="711" alpha="159371.58486425344" sparseCutoff="1.0000000000000000"/>
      <sparseX i="712" alpha="-3090931.7781194528" sparseCutoff="1.0000000000000000"/>
      <sparseX i="713" alpha="-23508645.284750111" sparseCutoff="1.0000000000000000"/>
      <sparseX i="714" alpha="-19326800.593393177" sparseCutoff="1.0000000000000000"/>
      <sparseX i="715" alpha="46902703.121808097" sparseCutoff="1.0000000000000000"/>
      <sparseX i="716" alpha="1569756.2288959515" sparseCutoff="1.0000000000000000"/>
      <sparseX i="717" alpha="1742048.3309047916" sparseCutoff="1.0000000000000000"/>
      <sparseX i="718" alpha="-16060380.529400250" sparseCutoff="1.0000000000000000"/>
      <sparseX i="719" alpha="4177582.6315723285" sparseCutoff="1.0000000000000000"/>
      <sparseX i="720" alpha="5867806.9972813539" sparseCutoff="1.0000000000000000"/>
      <sparseX i="721" alpha="-736535.32517930353" sparseCutoff="1.0000000000000000"/>
      <sparseX i="722" alpha="-13233996.673010949" sparseCutoff="1.0000000000000000"/>
      <sparseX i="723" alpha="-1774952.5498359420" sparseCutoff="1.0000000000000000"/>
      <sparseX i="724" alpha="-1410619.3889991371" sparseCutoff="1.0000000000000000"/>
      <sparseX i="725" alpha="-12473532.005313588" sparseCutoff="1.0000000000000000"/>
      <sparseX i="726" alpha="24223448.409630533" sparseCutoff="1.0000000000000000"/>
      <sparseX i="727" alpha="-1658240.4931913575" sparseCutoff="1.0000000000000000"/>
      <sparseX i="728" alpha="-11417431.907790450" sparseCutoff="1.0000000000000000"/>
      <sparseX i="729" alpha="-269063194.68043488" sparseCutoff="1.0000000000000000"/>
      <sparseX i="730" alpha="-99814.995212971175" sparseCutoff="1.0000000000000000"/>
      <sparseX i="731" alpha="23621507.128471646" sparseCutoff="1.0000000000000000"/>
      <sparseX i="732" alpha="-5600230.4278638000" sparseCutoff="1.0000000000000000"/>
      <sparseX i="733" alpha="-736600.59366523242" sparseCutoff="1.0000000000000000"/>
      <sparseX i="734" alpha="-16165842.875697268" sparseCutoff="1.0000000000000000"/>
      <sparseX i="735" alpha="1977452.5052916934" sparseCutoff="1.0000000000000000"/>
      <sparseX i="736" alpha="-54831233.430111989" sparseCutoff="1.0000000000000000"/>
      <sparseX i="737" alpha="-15694543.274543660" sparseCutoff="1.0000000000000000"/>
      <sparseX i="738" alpha="-3284253.3463696907" sparseCutoff="1.0000000000000000"/>
      <sparseX i="739" alpha="20159223.504525732" sparseCutoff="1.0000000000000000"/>
      <sparseX i="740" alpha="-2351806.5065216557" sparseCutoff="1.0000000000000000"/>
      <sparseX i="741" alpha="-21263524.953550767" sparseCutoff="1.0000000000000000"/>
      <sparseX i="742" alpha="19420397.947269063" sparseCutoff="1.0000000000000000"/>
      <sparseX i="743" alpha="-3502894.9052598309" sparseCutoff="1.0000000000000000"/>
      <sparseX i="744" alpha="-13565911.466024805" sparseCutoff="1.0000000000000000"/>
      <sparseX i="745" alpha="17974031.828638908" sparseCutoff="1.0000000000000000"/>
      <sparseX i="746" alpha="22785124.481190532" sparseCutoff="1.0000000000000000"/>
      <sparseX i="747" alpha="-15194287.539038990" sparseCutoff="1.0000000000000000"/>
      <sparseX i="748" alpha="29348337.835431915" sparseCutoff="1.0000000000000000"/>
      <sparseX i="749" alpha="-22539332.319601599" sparseCutoff="1.0000000000000000"/>
      <sparseX i="750" alpha="99875156.837814733" sparseCutoff="1.0000000000000000"/>
      <sparseX i="751" alpha="-22255495.782068867" sparseCutoff="1.0000000000000000"/>
      <sparseX i="752" alpha="1033732.2901065672" sparseCutoff="1.0000000000000000"/>
      <sparseX i="753" alpha="18258339.572527900" sparseCutoff="1.0000000000000000"/>
      <sparseX i="754" alpha="-4965997.0811850512" sparseCutoff="1.0000000000000000"/>
      <sparseX i="755" alpha="-15532593.626304379" sparseCutoff="1.0000000000000000"/>
      <sparseX i="756" alpha="-43010309.059870064" sparseCutoff="1.0000000000000000"/>
      <sparseX i="757" alpha="34955058.994205467" sparseCutoff="1.0000000000000000"/>
      <sparseX i="758" alpha="16880580.007475998" sparseCutoff="1.0000000000000000"/>
      <sparseX i="759" alpha="-3667648.6157269711" sparseCutoff="1.0000000000000000"/>
      <sparseX i="760" alpha="-4766372.2652283413" sparseCutoff="1.0000000000000000"/>
      <sparseX i="761" alpha="-3171035.8202845408" sparseCutoff="1.0000000000000000"/>
      <sparseX i="762" alpha="-104160348.80522902" sparseCutoff="1.0000000000000000"/>
      <sparseX i="763" alpha="-5110569.6479575969" sparseCutoff="1.0000000000000000"/>
      <sparseX i="764" alpha="6432183.0770254964" sparseCutoff="1.0000000000000000"/>
      <sparseX i="765" alpha="-29750738.869284797" sparseCutoff="1.0000000000000000"/>
      <sparseX i="766" alpha="5026720.4827558398" sparseCutoff="1.0000000000000000"/>
      <sparseX i="767" alpha="-3391322.3488681032" sparseCutoff="1.0000000000000000"/>
      <sparseX i="768" alpha="11051214.683012830" sparseCutoff="1.0000000000000000"/>
      <sparseX i="769" alpha="-11528214.030533727" sparseCutoff="1.0000000000000000"/>
      <sparseX i="770" alpha="-234693.41753801270" sparseCutoff="1.0000000000000000"/>
      <sparseX i="771" alpha="35824804.893787414" sparseCutoff="1.0000000000000000"/>
      <sparseX i="772" alpha="9956828.5106746443" sparseCutoff="1.0000000000000000"/>
      <sparseX i="773" alpha="6928995.7322273431" sparseCutoff="1.0000000000000000"/>
      <sparseX i="774" alpha="-2000995.3506495468" sparseCutoff="1.0000000000000000"/>
      <sparseX i="775" alpha="-9525771.6473694853" sparseCutoff="1.0000000000000000"/>
      <sparseX i="776" alpha="16962015.976428770" sparseCutoff="1.0000000000000000"/>
      <sparseX i="777" alpha="4087412.2805596530" sparseCutoff="1.0000000000000000"/>
      <sparseX i="778" alpha="-2037069.8840406309" sparseCutoff="1.0000000000000000"/>
      <sparseX i="779" alpha="-7764570.1487514731" sparseCutoff="1.0000000000000000"/>
      <sparseX i="780" alpha="-1962332.8838612856" sparseCutoff="1.0000000000000000"/>
      <sparseX i="781" alpha="-3288633.2390757096" sparseCutoff="1.0000000000000000"/>
      <sparseX i="782" alpha="4495910.8958293945" sparseCutoff="1.0000000000000000"/>
      <sparseX i="783" alpha="-1070380.1255965666" sparseCutoff="1.0000000000000000"/>
      <sparseX i="784" alpha="-32654605.814273842" sparseCutoff="1.0000000000000000"/>
      <sparseX i="785" alpha="-7940743.4517000876" sparseCutoff="1.0000000000000000"/>
      <sparseX i="786" alpha="8358163.7898666430" sparseCutoff="1.0000000000000000"/>
      <sparseX i="787" alpha="115929638.34192638" sparseCutoff="1.0000000000000000"/>
      <sparseX i="788" alpha="-4278912.2675829036" sparseCutoff="1.0000000000000000"/>
      <sparseX i="789" alpha="-16699368.556657694" sparseCutoff="1.0000000000000000"/>
      <sparseX i="790" alpha="-8906966.5719457325" sparseCutoff="1.0000000000000000"/>
      <sparseX i="791" alpha="70172263.742870644" sparseCutoff="1.0000000000000000"/>
      <sparseX i="792" alpha="-1543845.8557765998" sparseCutoff="1.0000000000000000"/>
      <sparseX i="793" alpha="2997450.3149017934" sparseCutoff="1.0000000000000000"/>
      <sparseX i="794" alpha="-2691966.4554083496" sparseCutoff="1.0000000000000000"/>
      <sparseX i="795" alpha="-3211714.2750929883" sparseCutoff="1.0000000000000000"/>
      <sparseX i="796" alpha="7047752.2804116886" sparseCutoff="1.0000000000000000"/>
      <sparseX i="797" alpha="4802963.5370787373" sparseCutoff="1.0000000000000000"/>
      <sparseX i="798" alpha="2142741.2470425665" sparseCutoff="1.0000000000000000"/>
      <sparseX i="799" alpha="-7656341.3456955710" sparseCutoff="1.0000000000000000"/>
      <sparseX i="800" alpha="674199.89180255332" sparseCutoff="1.0000000000000000"/>
      <sparseX i="801" alpha="4343711.2874223785" sparseCutoff="1.0000000000000000"/>
      <sparseX i="802" alpha="-3034076.0282745836" sparseCutoff="1.0000000000000000"/>
      <sparseX i="803" alpha="-37400903.609184280" sparseCutoff="1.0000000000000000"/>
      <sparseX i="804" alpha="-57496383.025067024" sparseCutoff="1.0000000000000000"/>
      <sparseX i="805" alpha="-38290673.341594070" sparseCutoff="1.0000000000000000"/>
      <sparseX i="806" alpha="-14442541.376247432" sparseCutoff="1.0000000000000000"/>
      <sparseX i="807" alpha="7428264.6221074499" sparseCutoff="1.0000000000000000"/>
      <sparseX i="808" alpha="-17380474.807053566" sparseCutoff="1.0000000000000000"/>
      <sparseX i="809" alpha="-1319488.8016417273" sparseCutoff="1.0000000000000000"/>
      <sparseX i="810" alpha="11398850.725836745" sparseCutoff="1.0000000000000000"/>
      <sparseX i="811" alpha="-1640225.1451989338" sparseCutoff="1.0000000000000000"/>
      <sparseX i="812" alpha="2464432.9211776946" sparseCutoff="1.0000000000000000"/>
      <sparseX i="813" alpha="-4957241.8003411116" sparseCutoff="1.0000000000000000"/>
      <sparseX i="814" alpha="5018854.7138936240" sparseCutoff="1.0000000000000000"/>
      <sparseX i="815" alpha="-15441415.003103837" sparseCutoff="1.0000000000000000"/>
      <sparseX i="816" alpha="1388624.9058467217" sparseCutoff="1.0000000000000000"/>
      <sparseX i="817" alpha="46135217.336251616" sparseCutoff="1.0000000000000000"/>
      <sparseX i="818" alpha="-46518812.058361135" sparseCutoff="1.0000000000000000"/>
      <sparseX i="819" alpha="-731836.18559122691" sparseCutoff="1.0000000000000000"/>
      <sparseX i="820" alpha="2728106.2740754131" sparseCutoff="1.0000000000000000"/>
      <sparseX i="821" alpha="-4294371.7948078532" sparseCutoff="1.0000000000000000"/>
      <sparseX i="822" alpha="769733.18706918799" sparseCutoff="1.0000000000000000"/>
      <sparseX i="823" alpha="2242941.0108676669" sparseCutoff="1.0000000000000000"/>
      <sparseX i="824" alpha="2767855.7188729150" sparseCutoff="1.0000000000000000"/>
      <sparseX i="825" alpha="-148131003.62705842" sparseCutoff="1.0000000000000000"/>
      <sparseX i="826" alpha="233395379.10919371" sparseCutoff="1.0000000000000000"/>
      <sparseX i="827" alpha="-282248698.44940114" sparseCutoff="1.0000000000000000"/>
      <sparseX i="828" alpha="4670338.3761767810" sparseCutoff="1.0000000000000000"/>
      <sparseX i="829" alpha="-20243841.425731841" sparseCutoff="1.0000000000000000"/>
      <sparseX i="830" alpha="15882197.758131407" sparseCutoff="1.0000000000000000"/>
      <sparseX i="831" alpha="-16166324.127229316" sparseCutoff="1.0000000000000000"/>
      <sparseX i="832" alpha="-14348182.480055688" sparseCutoff="1.0000000000000000"/>
      <sparseX i="833" alpha="8821657.5656375196" sparseCutoff="1.0000000000000000"/>
      <sparseX i="834" alpha="-415778899.07742405" sparseCutoff="1.0000000000000000"/>
      <sparseX i="835" alpha="419692785.49634790" sparseCutoff="1.0000000000000000"/>
      <sparseX i="836" alpha="2923295.0444230004" sparseCutoff="1.0000000000000000"/>
      <sparseX i="837" alpha="-4102304.5803285637" sparseCutoff="1.0000000000000000"/>
      <sparseX i="838" alpha="1314715.6652248017" sparseCutoff="1.0000000000000000"/>
      <sparseX i="839" alpha="-3681468.9207916535" sparseCutoff="1.0000000000000000"/>
      <sparseX i="840" alpha="-10644599.614622757" sparseCutoff="1.0000000000000000"/>
      <sparseX i="841" alpha="52133255.540383548" sparseCutoff="1.0000000000000000"/>
      <sparseX i="842" alpha="547674.74465750065" sparseCutoff="1.0000000000000000"/>
      <sparseX i="843" alpha="7939489.1697287271" sparseCutoff="1.0000000000000000"/>
      <sparseX i="844" alpha="15601700.089810057" sparseCutoff="1.0000000000000000"/>
      <sparseX i="845" alpha="-11075981.690749219" sparseCutoff="1.0000000000000000"/>
      <sparseX i="846" alpha="4741395.1470030304" sparseCutoff="1.0000000000000000"/>
      <sparseX i="847" alpha="-1992707.4519634305" sparseCutoff="1.0000000000000000"/>
      <sparseX i="848" alpha="-5213078.5805189386" sparseCutoff="1.0000000000000000"/>
      <sparseX i="849" alpha="-49360256.623279378" sparseCutoff="1.0000000000000000"/>
      <sparseX i="850" alpha="1429185.2618840055" sparseCutoff="1.0000000000000000"/>
      <sparseX i="851" alpha="17909838.201981612" sparseCutoff="1.0000000000000000"/>
      <sparseX i="852" alpha="219950594.25573319" sparseCutoff="1.0000000000000000"/>
      <sparseX i="853" alpha="2649773.5825197250" sparseCutoff="1.0000000000000000"/>
      <sparseX i="854" alpha="-60364.109028687206" sparseCutoff="1.0000000000000000"/>
      <sparseX i="855" alpha="-3840851.4080413920" sparseCutoff="1.0000000000000000"/>
      <sparseX i="856" alpha="2538698.8625132069" sparseCutoff="1.0000000000000000"/>
      <sparseX i="857" alpha="-4244334.1925184457" sparseCutoff="1.0000000000000000"/>
      <sparseX i="858" alpha="55125947.396515884" sparseCutoff="1.0000000000000000"/>
      <sparseX i="859" alpha="1159724.6685961683" sparseCutoff="1.0000000000000000"/>
      <sparseX i="860" alpha="3244858.1911998964" sparseCutoff="1.0000000000000000"/>
      <sparseX i="861" alpha="31897795.028982036" sparseCutoff="1.0000000000000000"/>
      <sparseX i="862" alpha="2911300156.3210788" sparseCutoff="1.0000000000000000"/>
      <sparseX i="863" alpha="107486736.83034936" sparseCutoff="1.0000000000000000"/>
      <sparseX i="864" alpha="-3897211.3124826085" sparseCutoff="1.0000000000000000"/>
      <sparseX i="865" alpha="6314795.0893734675" sparseCutoff="1.0000000000000000"/>
      <sparseX i="866" alpha="1018978.0321454383" sparseCutoff="1.0000000000000000"/>
      <sparseX i="867" alpha="-3978863.5271823639" sparseCutoff="1.0000000000000000"/>
      <sparseX i="868" alpha="4449600.5646496871" sparseCutoff="1.0000000000000000"/>
      <sparseX i="869" alpha="2197157.4256591434" sparseCutoff="1.0000000000000000"/>
      <sparseX i="870" alpha="13098276.496677807" sparseCutoff="1.0000000000000000"/>
      <sparseX i="871" alpha="-2946414.9485628172" sparseCutoff="1.0000000000000000"/>
      <sparseX i="872" alpha="-1867692.5971841558" sparseCutoff="1.0000000000000000"/>
      <sparseX i="873" alpha="-74244195.794158071" sparseCutoff="1.0000000000000000"/>
      <sparseX i="874" alpha="-4153709.5596032813" sparseCutoff="1.0000000000000000"/>
      <sparseX i="875" alpha="1978963.5460317326" sparseCutoff="1.0000000000000000"/>
      <sparseX i="876" alpha="-41563985.426340587" sparseCutoff="1.0000000000000000"/>
      <sparseX i="877" alpha="46221011.362909846" sparseCutoff="1.0000000000000000"/>
      <sparseX i="878" alpha="-2537064.7849638611" sparseCutoff="1.0000000000000000"/>
      <sparseX i="879" alpha="8503758.1830075588" sparseCutoff="1.0000000000000000"/>
      <sparseX i="880" alpha="-7238625.1037612110" sparseCutoff="1.0000000000000000"/>
      <sparseX i="881" alpha="19711156.155264132" sparseCutoff="1.0000000000000000"/>
      <sparseX i="882" alpha="16829552.817530796" sparseCutoff="1.0000000000000000"/>
      <sparseX i="883" alpha="-780202.38784951705" sparseCutoff="1.0000000000000000"/>
      <sparseX i="884" alpha="16197064.098505745" sparseCutoff="1.0000000000000000"/>
      <sparseX i="885" alpha="1218985246.5069392" sparseCutoff="1.0000000000000000"/>
      <sparseX i="886" alpha="-13899894.383829528" sparseCutoff="1.0000000000000000"/>
      <sparseX i="887" alpha="2286063.4382600738" sparseCutoff="1.0000000000000000"/>
      <sparseX i="888" alpha="24941445.099807948" sparseCutoff="1.0000000000000000"/>
      <sparseX i="889" alpha="-26868896.505627185" sparseCutoff="1.0000000000000000"/>
      <sparseX i="890" alpha="-2225698.4769939403" sparseCutoff="1.0000000000000000"/>
      <sparseX i="891" alpha="-57036701.414984062" sparseCutoff="1.0000000000000000"/>
      <sparseX i="892" alpha="3454975.8926642342" sparseCutoff="1.0000000000000000"/>
      <sparseX i="893" alpha="-1209485.1033549460" sparseCutoff="1.0000000000000000"/>
      <sparseX i="894" alpha="2755402.4028389337" sparseCutoff="1.0000000000000000"/>
      <sparseX i="895" alpha="11209408.244214917" sparseCutoff="1.0000000000000000"/>
      <sparseX i="896" alpha="-6475866.0999532472" sparseCutoff="1.0000000000000000"/>
      <sparseX i="897" alpha="3284419.9186421270" sparseCutoff="1.0000000000000000"/>
      <sparseX i="898" alpha="4387841.3611790324" sparseCutoff="1.0000000000000000"/>
      <sparseX i="899" alpha="15481774.485027714" sparseCutoff="1.0000000000000000"/>
      <sparseX i="900" alpha="-3798358.2997975349" sparseCutoff="1.0000000000000000"/>
      <sparseX i="901" alpha="7094386.1354549509" sparseCutoff="1.0000000000000000"/>
      <sparseX i="902" alpha="-190204994.22378907" sparseCutoff="1.0000000000000000"/>
      <sparseX i="903" alpha="27100983.449474882" sparseCutoff="1.0000000000000000"/>
      <sparseX i="904" alpha="-4127647.8057585363" sparseCutoff="1.0000000000000000"/>
      <sparseX i="905" alpha="-18285211.636167265" sparseCutoff="1.0000000000000000"/>
      <sparseX i="906" alpha="7304998.3560882565" sparseCutoff="1.0000000000000000"/>
      <sparseX i="907" alpha="10190086.242405567" sparseCutoff="1.0000000000000000"/>
      <sparseX i="908" alpha="581910623.03905487" sparseCutoff="1.0000000000000000"/>
      <sparseX i="909" alpha="-621297128.75970721" sparseCutoff="1.0000000000000000"/>
      <sparseX i="910" alpha="33892847.498229265" sparseCutoff="1.0000000000000000"/>
      <sparseX i="911" alpha="2931838.0183441481" sparseCutoff="1.0000000000000000"/>
      <sparseX i="912" alpha="-1820672.2350959587" sparseCutoff="1.0000000000000000"/>
      <sparseX i="913" alpha="-11734586.551573558" sparseCutoff="1.0000000000000000"/>
      <sparseX i="914" alpha="5250402.5335930036" sparseCutoff="1.0000000000000000"/>
      <sparseX i="915" alpha="218722328.23323071" sparseCutoff="1.0000000000000000"/>
      <sparseX i="916" alpha="-40319931.630291089" sparseCutoff="1.0000000000000000"/>
      <sparseX i="917" alpha="-49665979.201225869" sparseCutoff="1.0000000000000000"/>
      <sparseX i="918" alpha="-18505325.324882962" sparseCutoff="1.0000000000000000"/>
      <sparseX i="919" alpha="-29945889.568724178" sparseCutoff="1.0000000000000000"/>
      <sparseX i="920" alpha="405935.20318662818" sparseCutoff="1.0000000000000000"/>
      <sparseX i="921" alpha="-9177372.3331447877" sparseCutoff="1.0000000000000000"/>
      <sparseX i="922" alpha="2516209.7388563692" sparseCutoff="1.0000000000000000"/>
      <sparseX i="923" alpha="-18547047.809306826" sparseCutoff="1.0000000000000000"/>
      <sparseX i="924" alpha="3796327.5163771873" sparseCutoff="1.0000000000000000"/>
      <sparseX i="925" alpha="-3833768.7596673626" sparseCutoff="1.0000000000000000"/>
      <sparseX i="926" alpha="-28181104.284170199" sparseCutoff="1.0000000000000000"/>
      <sparseX i="927" alpha="-747596.26431862393" sparseCutoff="1.0000000000000000"/>
      <sparseX i="928" alpha="3008618946.6850791" sparseCutoff="1.0000000000000000"/>
      <sparseX i="929" alpha="-3067085852.4231911" sparseCutoff="1.0000000000000000"/>
      <sparseX i="930" alpha="22920390.890060794" sparseCutoff="1.0000000000000000"/>
      <sparseX i="931" alpha="-162824761.01130474" sparseCutoff="1.0000000000000000"/>
      <sparseX i="932" alpha="35591540.851468623" sparseCutoff="1.0000000000000000"/>
      <sparseX i="933" alpha="-20694844.620127827" sparseCutoff="1.0000000000000000"/>
      <sparseX i="934" alpha="-3035739.7049633386" sparseCutoff="1.0000000000000000"/>
      <sparseX i="935" alpha="-27510504.378750905" sparseCutoff="1.0000000000000000"/>
      <sparseX i="936" alpha="-14443389.715863153" sparseCutoff="1.0000000000000000"/>
      <sparseX i="937" alpha="3023714.3988257875" sparseCutoff="1.0000000000000000"/>
      <sparseX i="938" alpha="4377196.0853619194" sparseCutoff="1.0000000000000000"/>
      <sparseX i="939" alpha="21250842.569802906" sparseCutoff="1.0000000000000000"/>
      <sparseX i="940" alpha="52868747.969526872" sparseCutoff="1.0000000000000000"/>
      <sparseX i="941" alpha="-7305473.9705912881" sparseCutoff="1.0000000000000000"/>
      <sparseX i="942" alpha="-20165249.046097971" sparseCutoff="1.0000000000000000"/>
      <sparseX i="943" alpha="1642295.9097637618" sparseCutoff="1.0000000000000000"/>
      <sparseX i="944" alpha="-11654117.667959822" sparseCutoff="1.0000000000000000"/>
