<GAP_2026_2_23_0_15_43_7_535>
<Potential label="GAP_2026_2_23_0_15_43_7_535" init_args="IP GAP label=GAP_2026_2_23_0_15_43_7_535"/>
<GAP_params label="GAP_2026_2_23_0_15_43_7_535" gap_version="1686220958">
  <GAP_data do_core="F">
    <e0 Z="1" value=".00000000000000000E+000"/>
    <e0 Z="2" value=".00000000000000000E+000"/>
    <e0 Z="3" value=".00000000000000000E+000"/>
    <e0 Z="4" value=".00000000000000000E+000"/>
    <e0 Z="5" value=".00000000000000000E+000"/>
    <e0 Z="6" value=".00000000000000000E+000"/>
    <e0 Z="7" value=".00000000000000000E+000"/>
    <e0 Z="8" value=".00000000000000000E+000"/>
    <e0 Z="9" value=".00000000000000000E+000"/>
    <e0 Z="10" value=".00000000000000000E+000"/>
    <e0 Z="11" value=".00000000000000000E+000"/>
    <e0 Z="12" value=".00000000000000000E+000"/>
    <e0 Z="13" value=".00000000000000000E+000"/>
    <e0 Z="14" value=".00000000000000000E+000"/>
    <e0 Z="15" value=".00000000000000000E+000"/>
    <e0 Z="16" value=".00000000000000000E+000"/>
    <e0 Z="17" value=".00000000000000000E+000"/>
    <e0 Z="18" value=".00000000000000000E+000"/>
    <e0 Z="19" value=".00000000000000000E+000"/>
    <e0 Z="20" value=".00000000000000000E+000"/>
    <e0 Z="21" value=".00000000000000000E+000"/>
    <e0 Z="22" value=".00000000000000000E+000"/>
    <e0 Z="23" value=".00000000000000000E+000"/>
    <e0 Z="24" value=".00000000000000000E+000"/>
    <e0 Z="25" value=".00000000000000000E+000"/>
    <e0 Z="26" value=".00000000000000000E+000"/>
    <e0 Z="27" value=".00000000000000000E+000"/>
    <e0 Z="28" value=".00000000000000000E+000"/>
    <e0 Z="29" value=".00000000000000000E+000"/>
    <e0 Z="30" value=".00000000000000000E+000"/>
    <e0 Z="31" value=".00000000000000000E+000"/>
    <e0 Z="32" value=".00000000000000000E+000"/>
    <e0 Z="33" value=".00000000000000000E+000"/>
    <e0 Z="34" value=".00000000000000000E+000"/>
    <e0 Z="35" value=".00000000000000000E+000"/>
    <e0 Z="36" value=".00000000000000000E+000"/>
    <e0 Z="37" value=".00000000000000000E+000"/>
    <e0 Z="38" value=".00000000000000000E+000"/>
    <e0 Z="39" value=".00000000000000000E+000"/>
    <e0 Z="40" value=".00000000000000000E+000"/>
    <e0 Z="41" value=".00000000000000000E+000"/>
    <e0 Z="42" value=".00000000000000000E+000"/>
    <e0 Z="43" value=".00000000000000000E+000"/>
    <e0 Z="44" value=".00000000000000000E+000"/>
    <e0 Z="45" value=".00000000000000000E+000"/>
    <e0 Z="46" value=".00000000000000000E+000"/>
    <e0 Z="47" value=".00000000000000000E+000"/>
    <e0 Z="48" value=".00000000000000000E+000"/>
    <e0 Z="49" value=".00000000000000000E+000"/>
    <e0 Z="50" value=".00000000000000000E+000"/>
    <e0 Z="51" value=".00000000000000000E+000"/>
    <e0 Z="52" value=".00000000000000000E+000"/>
    <e0 Z="53" value=".00000000000000000E+000"/>
    <e0 Z="54" value=".00000000000000000E+000"/>
    <e0 Z="55" value=".00000000000000000E+000"/>
    <e0 Z="56" value=".00000000000000000E+000"/>
    <e0 Z="57" value=".00000000000000000E+000"/>
    <e0 Z="58" value=".00000000000000000E+000"/>
    <e0 Z="59" value=".00000000000000000E+000"/>
    <e0 Z="60" value=".00000000000000000E+000"/>
    <e0 Z="61" value=".00000000000000000E+000"/>
    <e0 Z="62" value=".00000000000000000E+000"/>
    <e0 Z="63" value=".00000000000000000E+000"/>
    <e0 Z="64" value=".00000000000000000E+000"/>
    <e0 Z="65" value=".00000000000000000E+000"/>
    <e0 Z="66" value=".00000000000000000E+000"/>
    <e0 Z="67" value=".00000000000000000E+000"/>
    <e0 Z="68" value=".00000000000000000E+000"/>
    <e0 Z="69" value=".00000000000000000E+000"/>
    <e0 Z="70" value=".00000000000000000E+000"/>
    <e0 Z="71" value=".00000000000000000E+000"/>
    <e0 Z="72" value=".00000000000000000E+000"/>
    <e0 Z="73" value=".00000000000000000E+000"/>
    <e0 Z="74" value=".00000000000000000E+000"/>
    <e0 Z="75" value=".00000000000000000E+000"/>
    <e0 Z="76" value=".00000000000000000E+000"/>
    <e0 Z="77" value=".00000000000000000E+000"/>
    <e0 Z="78" value=".00000000000000000E+000"/>
    <e0 Z="79" value=".00000000000000000E+000"/>
    <e0 Z="80" value=".00000000000000000E+000"/>
    <e0 Z="81" value=".00000000000000000E+000"/>
    <e0 Z="82" value=".00000000000000000E+000"/>
    <e0 Z="83" value="-695.12685956999997"/>
    <e0 Z="84" value=".00000000000000000E+000"/>
    <e0 Z="85" value=".00000000000000000E+000"/>
    <e0 Z="86" value=".00000000000000000E+000"/>
    <e0 Z="87" value=".00000000000000000E+000"/>
    <e0 Z="88" value=".00000000000000000E+000"/>
    <e0 Z="89" value=".00000000000000000E+000"/>
    <e0 Z="90" value=".00000000000000000E+000"/>
    <e0 Z="91" value=".00000000000000000E+000"/>
    <e0 Z="92" value=".00000000000000000E+000"/>
    <e0 Z="93" value=".00000000000000000E+000"/>
    <e0 Z="94" value=".00000000000000000E+000"/>
    <e0 Z="95" value=".00000000000000000E+000"/>
    <e0 Z="96" value=".00000000000000000E+000"/>
    <e0 Z="97" value=".00000000000000000E+000"/>
    <e0 Z="98" value=".00000000000000000E+000"/>
    <e0 Z="99" value=".00000000000000000E+000"/>
    <e0 Z="100" value=".00000000000000000E+000"/>
    <e0 Z="101" value=".00000000000000000E+000"/>
    <e0 Z="102" value=".00000000000000000E+000"/>
    <e0 Z="103" value=".00000000000000000E+000"/>
    <e0 Z="104" value=".00000000000000000E+000"/>
    <e0 Z="105" value=".00000000000000000E+000"/>
    <e0 Z="106" value=".00000000000000000E+000"/>
    <e0 Z="107" value=".00000000000000000E+000"/>
    <e0 Z="108" value=".00000000000000000E+000"/>
    <e0 Z="109" value=".00000000000000000E+000"/>
    <e0 Z="110" value=".00000000000000000E+000"/>
    <e0 Z="111" value=".00000000000000000E+000"/>
    <e0 Z="112" value=".00000000000000000E+000"/>
    <e0 Z="113" value=".00000000000000000E+000"/>
    <e0 Z="114" value=".00000000000000000E+000"/>
    <e0 Z="115" value=".00000000000000000E+000"/>
    <e0 Z="116" value=".00000000000000000E+000"/>
    <e0 Z="117" value=".00000000000000000E+000"/>
    <e0 Z="118" value=".00000000000000000E+000"/>
  </GAP_data>
  <gpSparse label="GAP_2026_2_23_0_15_43_7_535" n_coordinate="3" fitted="T">
    <gpCoordinates label="GAP_2026_2_23_0_15_43_7_5351" dimensions="1" signal_variance="2.0000000000000000" signal_mean=".00000000000000000E+000" sparsified="T" n_permutations="2" covariance_type="1" n_sparseX="15" sparseX_filename="GAP.xml.sparseX.GAP_2026_2_23_0_15_43_7_5351" sparseX_md5sum="93680781a61cc1b70391e7429569dc91">
      <theta>  0.50000000000000000E+000 </theta>
      <descriptor>distance_Nb order=2 cutoff=5.0 n_sparse=15 covariance_type=ard_se delta=2.0 theta_uniform=0.5 sparse_method=uniform compact_clusters=T Z={83 83 }</descriptor>
      <permutation i="1">1  </permutation>
      <permutation i="2">1  </permutation>
      <sparseX i="1" alpha="4354.7744513338985" sparseCutoff="1.0000000000000000"/>
      <sparseX i="2" alpha="320.35144143850033" sparseCutoff=".45585656072317976"/>
      <sparseX i="3" alpha="24118.860438380085" sparseCutoff="1.0000000000000000"/>
      <sparseX i="4" alpha="248.28937149654215" sparseCutoff="1.0000000000000000"/>
      <sparseX i="5" alpha="-1269.2393456771349" sparseCutoff=".99570798482189549"/>
      <sparseX i="6" alpha="-2367.0902220131943" sparseCutoff="1.0000000000000000"/>
      <sparseX i="7" alpha="-1252.5557623563045" sparseCutoff="1.0000000000000000"/>
      <sparseX i="8" alpha="934.77551308535453" sparseCutoff="1.0000000000000000"/>
      <sparseX i="9" alpha="-3575.9479933132325" sparseCutoff="1.0000000000000000"/>
      <sparseX i="10" alpha="4366.7442361023041" sparseCutoff="1.0000000000000000"/>
      <sparseX i="11" alpha="1440.8894464205798" sparseCutoff="1.0000000000000000"/>
      <sparseX i="12" alpha="-2066.9917137808939" sparseCutoff="1.0000000000000000"/>
      <sparseX i="13" alpha="-486.60554856949716" sparseCutoff=".69470655011975690E-001"/>
      <sparseX i="14" alpha="-25684.808988648441" sparseCutoff="1.0000000000000000"/>
      <sparseX i="15" alpha="636.01629112900685" sparseCutoff="1.0000000000000000"/>
    </gpCoordinates>
    <gpCoordinates label="GAP_2026_2_23_0_15_43_7_5352" dimensions="3" signal_variance="2.0000000000000000" signal_mean=".00000000000000000E+000" sparsified="T" n_permutations="6" covariance_type="1" n_sparseX="100" sparseX_filename="GAP.xml.sparseX.GAP_2026_2_23_0_15_43_7_5352" sparseX_md5sum="831b0bc74b027902cc18a47590020d54">
      <theta>  0.10000000000000000E+001  0.10000000000000000E+001  0.10000000000000000E+001 </theta>
      <descriptor> distance_Nb order=3 cutoff=3.25 n_sparse=100 covariance_type=ard_se delta=2.0 theta_uniform=1.0 sparse_method=uniform compact_clusters=T Z={83 83 83 }</descriptor>
      <permutation i="1">1 2 3  </permutation>
      <permutation i="2">2 1 3  </permutation>
      <permutation i="3">1 3 2  </permutation>
      <permutation i="4">3 1 2  </permutation>
      <permutation i="5">2 3 1  </permutation>
      <permutation i="6">3 2 1  </permutation>
      <sparseX i="1" alpha="-3493.9384104108622" sparseCutoff="1.0000000000000000"/>
      <sparseX i="2" alpha="3820.3643870255673" sparseCutoff="1.0000000000000000"/>
      <sparseX i="3" alpha="-444.73651577728441" sparseCutoff=".58965604465638977E-001"/>
      <sparseX i="4" alpha="-173.58519282677682" sparseCutoff=".58965604465638977E-001"/>
      <sparseX i="5" alpha="-2944.3817264268573" sparseCutoff="1.0000000000000000"/>
      <sparseX i="6" alpha="3456.8666718269887" sparseCutoff="1.0000000000000000"/>
      <sparseX i="7" alpha="-205.92670602089990" sparseCutoff=".58965604465638977E-001"/>
      <sparseX i="8" alpha="-2145.1117635728851" sparseCutoff="1.0000000000000000"/>
      <sparseX i="9" alpha="-6505.9604458544136" sparseCutoff=".99951504797528501"/>
      <sparseX i="10" alpha="-5732.7478530731305" sparseCutoff=".87523617514957719"/>
      <sparseX i="11" alpha="8380.0780347855634" sparseCutoff=".34769425099981832E-002"/>
      <sparseX i="12" alpha="10698.523373099395" sparseCutoff=".58965604465638977E-001"/>
      <sparseX i="13" alpha="-8249.3800924698407" sparseCutoff=".58965604465638977E-001"/>
      <sparseX i="14" alpha="-6594.1237736209832" sparseCutoff=".87481172759433456"/>
      <sparseX i="15" alpha="865.06462572336306" sparseCutoff=".99951504797528501"/>
      <sparseX i="16" alpha="-858.39057796317820" sparseCutoff="1.0000000000000000"/>
      <sparseX i="17" alpha="-3772.2985681010487" sparseCutoff=".99951504797528501"/>
      <sparseX i="18" alpha="-206.04048902377329" sparseCutoff=".58965604465638977E-001"/>
      <sparseX i="19" alpha="-173.65418673755880" sparseCutoff=".58965604465638977E-001"/>
      <sparseX i="20" alpha="8230.8071532294180" sparseCutoff=".51608830117888686E-001"/>
      <sparseX i="21" alpha="-2145.5539846811489" sparseCutoff=".99951504797528501"/>
      <sparseX i="22" alpha="6365.0509278357331" sparseCutoff=".99951504797528501"/>
      <sparseX i="23" alpha="-7254.3140118639121" sparseCutoff=".58965604465638977E-001"/>
      <sparseX i="24" alpha="-859.72288354667387" sparseCutoff="1.0000000000000000"/>
      <sparseX i="25" alpha="9551.6798072746678" sparseCutoff=".58937008976364821E-001"/>
      <sparseX i="26" alpha="1913.5195916204877" sparseCutoff=".58965604465638977E-001"/>
      <sparseX i="27" alpha="-7254.3380654625817" sparseCutoff=".58965604465638977E-001"/>
      <sparseX i="28" alpha="-2444.8051913034933" sparseCutoff=".87523617514957719"/>
      <sparseX i="29" alpha="-5733.8559374219958" sparseCutoff=".87523617514957719"/>
      <sparseX i="30" alpha="3228.0903396613271" sparseCutoff=".87481172759433456"/>
      <sparseX i="31" alpha="-9198.8669348019193" sparseCutoff=".65031757496381570E-001"/>
      <sparseX i="32" alpha="246.50290086201949" sparseCutoff=".76603836229046141"/>
      <sparseX i="33" alpha="11898.071015388301" sparseCutoff=".56918146694387849E-001"/>
      <sparseX i="34" alpha="1947.1515137092672" sparseCutoff=".65000220213912926E-001"/>
      <sparseX i="35" alpha="11772.521595594657" sparseCutoff=".65031757496381570E-001"/>
      <sparseX i="36" alpha="13728.773577028194" sparseCutoff=".11184661519166739E-001"/>
      <sparseX i="37" alpha="-3188.0497537732335" sparseCutoff=".11184661239540072E-001"/>
      <sparseX i="38" alpha="274.51916176375954" sparseCutoff=".46227391991032204E-003"/>
      <sparseX i="39" alpha="22376.807061255153" sparseCutoff=".21500562860966521E-001"/>
      <sparseX i="40" alpha="1889.4891034952250" sparseCutoff=".21500562860966521E-001"/>
      <sparseX i="41" alpha="32.330444064998851" sparseCutoff=".18235714308836345E-001"/>
      <sparseX i="42" alpha="-3625.7343067014504" sparseCutoff=".27061135851275714"/>
      <sparseX i="43" alpha="4146.2745867926715" sparseCutoff=".11184654661663573E-001"/>
      <sparseX i="44" alpha="-9043.5688477194581" sparseCutoff=".52020319614385913"/>
      <sparseX i="45" alpha="865.48921995069702" sparseCutoff=".52020319614385913"/>
      <sparseX i="46" alpha="2871.3370358531656" sparseCutoff=".44121062917124637"/>
      <sparseX i="47" alpha="9940.7188065459850" sparseCutoff=".52020319614385913"/>
      <sparseX i="48" alpha="3214.4893643108317" sparseCutoff=".52020319614385913"/>
      <sparseX i="49" alpha="13728.766595047242" sparseCutoff=".11184654382037076E-001"/>
      <sparseX i="50" alpha="3023.2084265049843" sparseCutoff=".44121061814058099"/>
      <sparseX i="51" alpha="9327.3270584348320" sparseCutoff=".52020318313830805"/>
      <sparseX i="52" alpha="-1308.8363823469854" sparseCutoff=".52020318313830805"/>
      <sparseX i="53" alpha="6.3116743679063392" sparseCutoff=".37888325326454050E-002"/>
      <sparseX i="54" alpha="-9024.9675215025563" sparseCutoff=".18235703128214705E-001"/>
      <sparseX i="55" alpha="13.762247406832612" sparseCutoff=".15659646986516758E-003"/>
      <sparseX i="56" alpha="-1463.2001469411221" sparseCutoff="1.0000000000000000"/>
      <sparseX i="57" alpha="1490.5068882895980" sparseCutoff=".84815055432537589"/>
      <sparseX i="58" alpha="648.44493297752854" sparseCutoff="1.0000000000000000"/>
      <sparseX i="59" alpha="634.98382270007983" sparseCutoff=".72833705280078154E-002"/>
      <sparseX i="60" alpha="-203.80319807353709" sparseCutoff="1.0000000000000000"/>
      <sparseX i="61" alpha="310.10804384809347" sparseCutoff=".84815055432537589"/>
      <sparseX i="62" alpha="7914.3528123559336" sparseCutoff=".84815055432537589"/>
      <sparseX i="63" alpha="-3637.6677757578682" sparseCutoff=".84815055432537589"/>
      <sparseX i="64" alpha="6511.7584507862884" sparseCutoff=".61773947506869346E-002"/>
      <sparseX i="65" alpha="-3185.7051852522759" sparseCutoff=".11182286330340930E-001"/>
      <sparseX i="66" alpha="4145.5988540576291" sparseCutoff=".11184299553713658E-001"/>
      <sparseX i="67" alpha="318.92840677194675" sparseCutoff=".84814439962241228"/>
      <sparseX i="68" alpha="-207.34987912012681" sparseCutoff="1.0000000000000000"/>
      <sparseX i="69" alpha="8040.2212809622424" sparseCutoff=".51881016314289996"/>
      <sparseX i="70" alpha="22712.095047914790" sparseCutoff=".21957051618828716E-001"/>
      <sparseX i="71" alpha="2922.7917893591939" sparseCutoff=".51881016314289996"/>
      <sparseX i="72" alpha="677.30588003446894" sparseCutoff=".51881014387994207"/>
      <sparseX i="73" alpha="4.9261924645426189" sparseCutoff=".37786305651258934E-002"/>
      <sparseX i="74" alpha="-535.12659681531022" sparseCutoff=".51881016314289996"/>
      <sparseX i="75" alpha="9918.5604824278907" sparseCutoff=".51881014387994207"/>
      <sparseX i="76" alpha="-227.88407749368247" sparseCutoff=".44002593433684067"/>
      <sparseX i="77" alpha="2655.7184723451701" sparseCutoff=".44002591799907081"/>
      <sparseX i="78" alpha="32.700936487015660" sparseCutoff=".18622750362729798E-001"/>
      <sparseX i="79" alpha="7617.1850213767411" sparseCutoff="1.0000000000000000"/>
      <sparseX i="80" alpha="-2107.3465743998258" sparseCutoff="1.0000000000000000"/>
      <sparseX i="81" alpha="1007.4668202427216" sparseCutoff="1.0000000000000000"/>
      <sparseX i="82" alpha="5153.5399861302767" sparseCutoff=".27854449138232352E-002"/>
      <sparseX i="83" alpha="2598.6308146983347" sparseCutoff=".61357848259688763"/>
      <sparseX i="84" alpha="354.78753771525629" sparseCutoff=".61373920514860066E-003"/>
      <sparseX i="85" alpha="8338.1664465989452" sparseCutoff=".12463953739954145E-001"/>
      <sparseX i="86" alpha="4117.6360387343275" sparseCutoff=".61357848259688763"/>
      <sparseX i="87" alpha="-5688.9886420523944" sparseCutoff=".30866408024057496"/>
      <sparseX i="88" alpha="-3574.5508895400985" sparseCutoff=".30865082355521145"/>
      <sparseX i="89" alpha="3052.6261549089450" sparseCutoff=".97211926602634546"/>
      <sparseX i="90" alpha="-3723.6207090056068" sparseCutoff=".69275675053838337"/>
      <sparseX i="91" alpha="-5490.9674667103554" sparseCutoff=".97211926602634546"/>
      <sparseX i="92" alpha="-7217.8018735492815" sparseCutoff=".71262526600270970"/>
      <sparseX i="93" alpha="-1707.2062408616839" sparseCutoff="1.0000000000000000"/>
      <sparseX i="94" alpha="-3508.7454027499489" sparseCutoff=".65277503091823086"/>
      <sparseX i="95" alpha="-3748.3890031972655" sparseCutoff=".71262526600270970"/>
      <sparseX i="96" alpha="-3384.0865070278510" sparseCutoff=".43541753589273591E-001"/>
      <sparseX i="97" alpha="-5360.0300399366242" sparseCutoff=".22343459767880647"/>
      <sparseX i="98" alpha="10954.419581033602" sparseCutoff=".95947230908657211"/>
      <sparseX i="99" alpha="-18270.682477834558" sparseCutoff=".24074706390784478"/>
      <sparseX i="100" alpha="255.28254994746644" sparseCutoff=".55546679358353490"/>
    </gpCoordinates>
    <gpCoordinates label="GAP_2026_2_23_0_15_43_7_5353" dimensions="859" signal_variance="1.0000000000000000" signal_mean=".00000000000000000E+000" sparsified="T" n_permutations="1" covariance_type="2" zeta="4.0000000000000000" n_sparseX="2000" sparseX_filename="GAP.xml.sparseX.GAP_2026_2_23_0_15_43_7_5353" sparseX_md5sum="0e5795948cbae8abf4fe220370fbfb4b">
      <descriptor> soap l_max=10 n_max=12 atom_sigma=0.5 cutoff=5.0 radial_scaling=0.0 cutoff_transition_width=1.0 central_weight=1.0 n_sparse=2000 delta=1.0 covariance_type=dot_product zeta=4 sparse_method=cur_points n_species=1 Z=83 species_Z={83 }</descriptor>
      <permutation i="1">1  </permutation>
      <sparseX i="1" alpha="-1.6509278721899068" sparseCutoff="1.0000000000000000"/>
      <sparseX i="2" alpha="-12.077323382914612" sparseCutoff="1.0000000000000000"/>
      <sparseX i="3" alpha="-75.668983298253139" sparseCutoff="1.0000000000000000"/>
      <sparseX i="4" alpha="1837.8926379980633" sparseCutoff="1.0000000000000000"/>
      <sparseX i="5" alpha="-1769.0433182631889" sparseCutoff="1.0000000000000000"/>
      <sparseX i="6" alpha="2794.6941006848378" sparseCutoff="1.0000000000000000"/>
      <sparseX i="7" alpha="-2802.4415741050775" sparseCutoff="1.0000000000000000"/>
      <sparseX i="8" alpha="76.432643781014647" sparseCutoff="1.0000000000000000"/>
      <sparseX i="9" alpha="64.747565375825857" sparseCutoff="1.0000000000000000"/>
      <sparseX i="10" alpha="-913.29325131257929" sparseCutoff="1.0000000000000000"/>
      <sparseX i="11" alpha="104.97086414404922" sparseCutoff="1.0000000000000000"/>
      <sparseX i="12" alpha="13.510112430331718" sparseCutoff="1.0000000000000000"/>
      <sparseX i="13" alpha="6.7124879030058375" sparseCutoff="1.0000000000000000"/>
      <sparseX i="14" alpha="-502.62333561262199" sparseCutoff="1.0000000000000000"/>
      <sparseX i="15" alpha="-35.897037888966409" sparseCutoff="1.0000000000000000"/>
      <sparseX i="16" alpha="618.28251907089395" sparseCutoff="1.0000000000000000"/>
      <sparseX i="17" alpha="-534.54661980643380" sparseCutoff="1.0000000000000000"/>
      <sparseX i="18" alpha="-262.50667746195899" sparseCutoff="1.0000000000000000"/>
      <sparseX i="19" alpha="207.96550423126848" sparseCutoff="1.0000000000000000"/>
      <sparseX i="20" alpha="-697.60233983939577" sparseCutoff="1.0000000000000000"/>
      <sparseX i="21" alpha="786.33362249823244" sparseCutoff="1.0000000000000000"/>
      <sparseX i="22" alpha="-1157.4530804943445" sparseCutoff="1.0000000000000000"/>
      <sparseX i="23" alpha="996.58318952685511" sparseCutoff="1.0000000000000000"/>
      <sparseX i="24" alpha="4363.8951660291577" sparseCutoff="1.0000000000000000"/>
      <sparseX i="25" alpha="-4187.7848831895963" sparseCutoff="1.0000000000000000"/>
      <sparseX i="26" alpha="-1382.1080504092467" sparseCutoff="1.0000000000000000"/>
      <sparseX i="27" alpha="1421.5324143860478" sparseCutoff="1.0000000000000000"/>
      <sparseX i="28" alpha="2874.7456130072455" sparseCutoff="1.0000000000000000"/>
      <sparseX i="29" alpha="-1538.3639338982853" sparseCutoff="1.0000000000000000"/>
      <sparseX i="30" alpha="-1429.5810246074084" sparseCutoff="1.0000000000000000"/>
      <sparseX i="31" alpha="1999.4910464736406" sparseCutoff="1.0000000000000000"/>
      <sparseX i="32" alpha="-2682.7722043678382" sparseCutoff="1.0000000000000000"/>
      <sparseX i="33" alpha="709.71860742218337" sparseCutoff="1.0000000000000000"/>
      <sparseX i="34" alpha="-1555.7139046087427" sparseCutoff="1.0000000000000000"/>
      <sparseX i="35" alpha="3697.0600589054980" sparseCutoff="1.0000000000000000"/>
      <sparseX i="36" alpha="-2186.6835501849478" sparseCutoff="1.0000000000000000"/>
      <sparseX i="37" alpha="-2489.4723125991713" sparseCutoff="1.0000000000000000"/>
      <sparseX i="38" alpha="221.23899287297277" sparseCutoff="1.0000000000000000"/>
      <sparseX i="39" alpha="2169.1096289466473" sparseCutoff="1.0000000000000000"/>
      <sparseX i="40" alpha="-2206.8190048938181" sparseCutoff="1.0000000000000000"/>
      <sparseX i="41" alpha="2032.5175779897111" sparseCutoff="1.0000000000000000"/>
      <sparseX i="42" alpha="170.02785681929686" sparseCutoff="1.0000000000000000"/>
      <sparseX i="43" alpha="-4311.8561984218150" sparseCutoff="1.0000000000000000"/>
      <sparseX i="44" alpha="5175.9547482174276" sparseCutoff="1.0000000000000000"/>
      <sparseX i="45" alpha="-799.11328723694726" sparseCutoff="1.0000000000000000"/>
      <sparseX i="46" alpha="-27.159277822467871" sparseCutoff="1.0000000000000000"/>
      <sparseX i="47" alpha="85.947610809769103" sparseCutoff="1.0000000000000000"/>
      <sparseX i="48" alpha="56.270934237655680" sparseCutoff="1.0000000000000000"/>
      <sparseX i="49" alpha="40.236450979177633" sparseCutoff="1.0000000000000000"/>
      <sparseX i="50" alpha="-.11577036631698846" sparseCutoff="1.0000000000000000"/>
      <sparseX i="51" alpha="125.35751737282483" sparseCutoff="1.0000000000000000"/>
      <sparseX i="52" alpha="-241.82087256781759" sparseCutoff="1.0000000000000000"/>
      <sparseX i="53" alpha="76.732251443429831" sparseCutoff="1.0000000000000000"/>
      <sparseX i="54" alpha="-390.58124687869213" sparseCutoff="1.0000000000000000"/>
      <sparseX i="55" alpha="-1470.1583406507589" sparseCutoff="1.0000000000000000"/>
      <sparseX i="56" alpha="-439.52138795436730" sparseCutoff="1.0000000000000000"/>
      <sparseX i="57" alpha="2249.6139986594226" sparseCutoff="1.0000000000000000"/>
      <sparseX i="58" alpha="-358.69694611036294" sparseCutoff="1.0000000000000000"/>
      <sparseX i="59" alpha="783.81015817498019" sparseCutoff="1.0000000000000000"/>
      <sparseX i="60" alpha="-248.39309573832614" sparseCutoff="1.0000000000000000"/>
      <sparseX i="61" alpha="-720.65584015266904" sparseCutoff="1.0000000000000000"/>
      <sparseX i="62" alpha="999.78457412061607" sparseCutoff="1.0000000000000000"/>
      <sparseX i="63" alpha="-135.55021249745917" sparseCutoff="1.0000000000000000"/>
      <sparseX i="64" alpha="-3673.9073881088843" sparseCutoff="1.0000000000000000"/>
      <sparseX i="65" alpha="-3147.2316934469513" sparseCutoff="1.0000000000000000"/>
      <sparseX i="66" alpha="6772.0031023878428" sparseCutoff="1.0000000000000000"/>
      <sparseX i="67" alpha="-62.298339398492779" sparseCutoff="1.0000000000000000"/>
      <sparseX i="68" alpha="-153.78724606888198" sparseCutoff="1.0000000000000000"/>
      <sparseX i="69" alpha="304.91743212929703" sparseCutoff="1.0000000000000000"/>
      <sparseX i="70" alpha="-196.89392356129093" sparseCutoff="1.0000000000000000"/>
      <sparseX i="71" alpha="-314.36506914739596" sparseCutoff="1.0000000000000000"/>
      <sparseX i="72" alpha="132.17490324384457" sparseCutoff="1.0000000000000000"/>
      <sparseX i="73" alpha="-231.22795884320598" sparseCutoff="1.0000000000000000"/>
      <sparseX i="74" alpha="249.07407724885391" sparseCutoff="1.0000000000000000"/>
      <sparseX i="75" alpha="-108.47616600531792" sparseCutoff="1.0000000000000000"/>
      <sparseX i="76" alpha="210.08964665217337" sparseCutoff="1.0000000000000000"/>
      <sparseX i="77" alpha="-398.29230807133797" sparseCutoff="1.0000000000000000"/>
      <sparseX i="78" alpha="93.900793584748200" sparseCutoff="1.0000000000000000"/>
      <sparseX i="79" alpha="-278.33311168373234" sparseCutoff="1.0000000000000000"/>
      <sparseX i="80" alpha="10.863613725360439" sparseCutoff="1.0000000000000000"/>
      <sparseX i="81" alpha="-374.46593566382376" sparseCutoff="1.0000000000000000"/>
      <sparseX i="82" alpha="69.712921556394093" sparseCutoff="1.0000000000000000"/>
      <sparseX i="83" alpha="-88.938033607363153" sparseCutoff="1.0000000000000000"/>
      <sparseX i="84" alpha="19.826085256934928" sparseCutoff="1.0000000000000000"/>
      <sparseX i="85" alpha="180.34408695586174" sparseCutoff="1.0000000000000000"/>
      <sparseX i="86" alpha="-791.40064448434623" sparseCutoff="1.0000000000000000"/>
      <sparseX i="87" alpha="-440.47619430622780" sparseCutoff="1.0000000000000000"/>
      <sparseX i="88" alpha="576.94668937842255" sparseCutoff="1.0000000000000000"/>
      <sparseX i="89" alpha="3002.4355819846332" sparseCutoff="1.0000000000000000"/>
      <sparseX i="90" alpha="-2899.7318116543802" sparseCutoff="1.0000000000000000"/>
      <sparseX i="91" alpha="687.55939179269774" sparseCutoff="1.0000000000000000"/>
      <sparseX i="92" alpha="-628.90481872735052" sparseCutoff="1.0000000000000000"/>
      <sparseX i="93" alpha="-7.9630654993076506" sparseCutoff="1.0000000000000000"/>
      <sparseX i="94" alpha="250.64694293531022" sparseCutoff="1.0000000000000000"/>
      <sparseX i="95" alpha="15.266627465516573" sparseCutoff="1.0000000000000000"/>
      <sparseX i="96" alpha="-143.37392994422291" sparseCutoff="1.0000000000000000"/>
      <sparseX i="97" alpha="-85.163370022162766" sparseCutoff="1.0000000000000000"/>
      <sparseX i="98" alpha="-66.167037350276473" sparseCutoff="1.0000000000000000"/>
      <sparseX i="99" alpha="155.48330660332275" sparseCutoff="1.0000000000000000"/>
      <sparseX i="100" alpha="-15.021433601242343" sparseCutoff="1.0000000000000000"/>
      <sparseX i="101" alpha="255.51252999822182" sparseCutoff="1.0000000000000000"/>
      <sparseX i="102" alpha="-492.07843537663314" sparseCutoff="1.0000000000000000"/>
      <sparseX i="103" alpha="805.41780491524639" sparseCutoff="1.0000000000000000"/>
      <sparseX i="104" alpha="240.12821967499590" sparseCutoff="1.0000000000000000"/>
      <sparseX i="105" alpha="-430.94922487746828" sparseCutoff="1.0000000000000000"/>
      <sparseX i="106" alpha="123.20576748586437" sparseCutoff="1.0000000000000000"/>
      <sparseX i="107" alpha="130.02491169469639" sparseCutoff="1.0000000000000000"/>
      <sparseX i="108" alpha="-18.029505026528518" sparseCutoff="1.0000000000000000"/>
      <sparseX i="109" alpha="-38.555945900531150" sparseCutoff="1.0000000000000000"/>
      <sparseX i="110" alpha="-30.392373480762696" sparseCutoff="1.0000000000000000"/>
      <sparseX i="111" alpha="22.663028134867911" sparseCutoff="1.0000000000000000"/>
      <sparseX i="112" alpha="-284.49121684884619" sparseCutoff="1.0000000000000000"/>
      <sparseX i="113" alpha="277.67088416632379" sparseCutoff="1.0000000000000000"/>
      <sparseX i="114" alpha="-2020.9484223315610" sparseCutoff="1.0000000000000000"/>
      <sparseX i="115" alpha="1667.1631430758650" sparseCutoff="1.0000000000000000"/>
      <sparseX i="116" alpha="-351.49363364412659" sparseCutoff="1.0000000000000000"/>
      <sparseX i="117" alpha="377.05209927736598" sparseCutoff="1.0000000000000000"/>
      <sparseX i="118" alpha="26.543278504030191" sparseCutoff="1.0000000000000000"/>
      <sparseX i="119" alpha="37.922531043931350" sparseCutoff="1.0000000000000000"/>
      <sparseX i="120" alpha="-1307.6881147558061" sparseCutoff="1.0000000000000000"/>
      <sparseX i="121" alpha="-220.65863023091390" sparseCutoff="1.0000000000000000"/>
      <sparseX i="122" alpha="1786.8126245034164" sparseCutoff="1.0000000000000000"/>
      <sparseX i="123" alpha="-365.13019890821897" sparseCutoff="1.0000000000000000"/>
      <sparseX i="124" alpha="2392.2651192032940" sparseCutoff="1.0000000000000000"/>
      <sparseX i="125" alpha="-2300.7497124659990" sparseCutoff="1.0000000000000000"/>
      <sparseX i="126" alpha="-554.35866145156535" sparseCutoff="1.0000000000000000"/>
      <sparseX i="127" alpha="1256.4701763342734" sparseCutoff="1.0000000000000000"/>
      <sparseX i="128" alpha="-782.12148318698735" sparseCutoff="1.0000000000000000"/>
      <sparseX i="129" alpha="62.427222201981927" sparseCutoff="1.0000000000000000"/>
      <sparseX i="130" alpha="-625.99901005814411" sparseCutoff="1.0000000000000000"/>
      <sparseX i="131" alpha="-256.13041352076408" sparseCutoff="1.0000000000000000"/>
      <sparseX i="132" alpha="1038.3649757021064" sparseCutoff="1.0000000000000000"/>
      <sparseX i="133" alpha="-1300.9391187716808" sparseCutoff="1.0000000000000000"/>
      <sparseX i="134" alpha="574.52446683349160" sparseCutoff="1.0000000000000000"/>
      <sparseX i="135" alpha="-588.35975970151833" sparseCutoff="1.0000000000000000"/>
      <sparseX i="136" alpha="19.338930298909258" sparseCutoff="1.0000000000000000"/>
      <sparseX i="137" alpha="46.678719786841000" sparseCutoff="1.0000000000000000"/>
      <sparseX i="138" alpha="56.871833041681633" sparseCutoff="1.0000000000000000"/>
      <sparseX i="139" alpha="-98.546482013122429" sparseCutoff="1.0000000000000000"/>
      <sparseX i="140" alpha="25.718665468658354" sparseCutoff="1.0000000000000000"/>
      <sparseX i="141" alpha="23.892222385100027" sparseCutoff="1.0000000000000000"/>
      <sparseX i="142" alpha="26.857531495499707" sparseCutoff="1.0000000000000000"/>
      <sparseX i="143" alpha="-3.8060549411885907" sparseCutoff="1.0000000000000000"/>
      <sparseX i="144" alpha="425.11184602931723" sparseCutoff="1.0000000000000000"/>
      <sparseX i="145" alpha="-200.87200889211633" sparseCutoff="1.0000000000000000"/>
      <sparseX i="146" alpha="-191.44362837297675" sparseCutoff="1.0000000000000000"/>
      <sparseX i="147" alpha="-28.025984822503251" sparseCutoff="1.0000000000000000"/>
      <sparseX i="148" alpha="34.820134719001089" sparseCutoff="1.0000000000000000"/>
      <sparseX i="149" alpha="-593.45917128006545" sparseCutoff="1.0000000000000000"/>
      <sparseX i="150" alpha="282.07229646642617" sparseCutoff="1.0000000000000000"/>
      <sparseX i="151" alpha="-125.87814130971097" sparseCutoff="1.0000000000000000"/>
      <sparseX i="152" alpha="169.89602212174347" sparseCutoff="1.0000000000000000"/>
      <sparseX i="153" alpha="-259.88225653721304" sparseCutoff="1.0000000000000000"/>
      <sparseX i="154" alpha="-573.18714823112805" sparseCutoff="1.0000000000000000"/>
      <sparseX i="155" alpha="-31.831674966379310" sparseCutoff="1.0000000000000000"/>
      <sparseX i="156" alpha="-88.066726580156242" sparseCutoff="1.0000000000000000"/>
      <sparseX i="157" alpha="410.59107306107262" sparseCutoff="1.0000000000000000"/>
      <sparseX i="158" alpha="89.167336791354600" sparseCutoff="1.0000000000000000"/>
      <sparseX i="159" alpha="61.513855879532549" sparseCutoff="1.0000000000000000"/>
      <sparseX i="160" alpha="-217.30127877599435" sparseCutoff="1.0000000000000000"/>
      <sparseX i="161" alpha="184.52445617131346" sparseCutoff="1.0000000000000000"/>
      <sparseX i="162" alpha="-132.03562471408250" sparseCutoff="1.0000000000000000"/>
      <sparseX i="163" alpha="165.10764387019776" sparseCutoff="1.0000000000000000"/>
      <sparseX i="164" alpha="-170.19343896026228" sparseCutoff="1.0000000000000000"/>
      <sparseX i="165" alpha="-481.47569273843300" sparseCutoff="1.0000000000000000"/>
      <sparseX i="166" alpha="451.00832331530381" sparseCutoff="1.0000000000000000"/>
      <sparseX i="167" alpha="-621.17679693822697" sparseCutoff="1.0000000000000000"/>
      <sparseX i="168" alpha="1056.2544290993578" sparseCutoff="1.0000000000000000"/>
      <sparseX i="169" alpha="-19.640410014815675" sparseCutoff="1.0000000000000000"/>
      <sparseX i="170" alpha="160.62813660072061" sparseCutoff="1.0000000000000000"/>
      <sparseX i="171" alpha="-1219.4640107265495" sparseCutoff="1.0000000000000000"/>
      <sparseX i="172" alpha="585.79869935994225" sparseCutoff="1.0000000000000000"/>
      <sparseX i="173" alpha="1266.7802154341882" sparseCutoff="1.0000000000000000"/>
      <sparseX i="174" alpha="-868.51737910318104" sparseCutoff="1.0000000000000000"/>
      <sparseX i="175" alpha="-742.69681458588343" sparseCutoff="1.0000000000000000"/>
      <sparseX i="176" alpha="197.41941568127086" sparseCutoff="1.0000000000000000"/>
      <sparseX i="177" alpha="-360.00853153109409" sparseCutoff="1.0000000000000000"/>
      <sparseX i="178" alpha="-696.47303770612928" sparseCutoff="1.0000000000000000"/>
      <sparseX i="179" alpha="639.10578326190728" sparseCutoff="1.0000000000000000"/>
      <sparseX i="180" alpha="118.58482890110530" sparseCutoff="1.0000000000000000"/>
      <sparseX i="181" alpha="-556.30919855513389" sparseCutoff="1.0000000000000000"/>
      <sparseX i="182" alpha="125.16480857680401" sparseCutoff="1.0000000000000000"/>
      <sparseX i="183" alpha="-649.04757085807364" sparseCutoff="1.0000000000000000"/>
      <sparseX i="184" alpha="861.64957174926599" sparseCutoff="1.0000000000000000"/>
      <sparseX i="185" alpha="682.45079699686619" sparseCutoff="1.0000000000000000"/>
      <sparseX i="186" alpha="-362.26022845727624" sparseCutoff="1.0000000000000000"/>
      <sparseX i="187" alpha="1256.5988311865037" sparseCutoff="1.0000000000000000"/>
      <sparseX i="188" alpha="-1320.6932586276698" sparseCutoff="1.0000000000000000"/>
      <sparseX i="189" alpha="940.39928828432426" sparseCutoff="1.0000000000000000"/>
      <sparseX i="190" alpha="-561.50614627331390" sparseCutoff="1.0000000000000000"/>
      <sparseX i="191" alpha="-683.45237388548185" sparseCutoff="1.0000000000000000"/>
      <sparseX i="192" alpha="431.80234521360632" sparseCutoff="1.0000000000000000"/>
      <sparseX i="193" alpha="-161.87718325692657" sparseCutoff="1.0000000000000000"/>
      <sparseX i="194" alpha="-417.09726617254063" sparseCutoff="1.0000000000000000"/>
      <sparseX i="195" alpha="236.71484304588708" sparseCutoff="1.0000000000000000"/>
      <sparseX i="196" alpha="-188.24723593750815" sparseCutoff="1.0000000000000000"/>
      <sparseX i="197" alpha="-65.599841957565943" sparseCutoff="1.0000000000000000"/>
      <sparseX i="198" alpha="800.77074188037250" sparseCutoff="1.0000000000000000"/>
      <sparseX i="199" alpha="217.83250874124033" sparseCutoff="1.0000000000000000"/>
      <sparseX i="200" alpha="-242.09789905950612" sparseCutoff="1.0000000000000000"/>
      <sparseX i="201" alpha="-328.77747070824023" sparseCutoff="1.0000000000000000"/>
      <sparseX i="202" alpha="58.141519719154346" sparseCutoff="1.0000000000000000"/>
      <sparseX i="203" alpha="-307.91338857699770" sparseCutoff="1.0000000000000000"/>
      <sparseX i="204" alpha="-87.813636911292178" sparseCutoff="1.0000000000000000"/>
      <sparseX i="205" alpha="393.08120407543959" sparseCutoff="1.0000000000000000"/>
      <sparseX i="206" alpha="-489.61640124384002" sparseCutoff="1.0000000000000000"/>
      <sparseX i="207" alpha="253.72453782307872" sparseCutoff="1.0000000000000000"/>
      <sparseX i="208" alpha="951.48643919153074" sparseCutoff="1.0000000000000000"/>
      <sparseX i="209" alpha="-798.39064492512307" sparseCutoff="1.0000000000000000"/>
      <sparseX i="210" alpha="-1139.8483889681281" sparseCutoff="1.0000000000000000"/>
      <sparseX i="211" alpha="4306.9425151247888" sparseCutoff="1.0000000000000000"/>
      <sparseX i="212" alpha="-3324.4014816181161" sparseCutoff="1.0000000000000000"/>
      <sparseX i="213" alpha="13.694374284389491" sparseCutoff="1.0000000000000000"/>
      <sparseX i="214" alpha="4.9239967129075959" sparseCutoff="1.0000000000000000"/>
      <sparseX i="215" alpha="26.746324318123154" sparseCutoff="1.0000000000000000"/>
      <sparseX i="216" alpha="-33.330763557679241" sparseCutoff="1.0000000000000000"/>
      <sparseX i="217" alpha="-614.92893909713712" sparseCutoff="1.0000000000000000"/>
      <sparseX i="218" alpha="912.75636740454195" sparseCutoff="1.0000000000000000"/>
      <sparseX i="219" alpha="330.63920253954109" sparseCutoff="1.0000000000000000"/>
      <sparseX i="220" alpha="-824.18392628358470" sparseCutoff="1.0000000000000000"/>
      <sparseX i="221" alpha="-53.109670809126172" sparseCutoff="1.0000000000000000"/>
      <sparseX i="222" alpha="-106.81623173103345" sparseCutoff="1.0000000000000000"/>
      <sparseX i="223" alpha="-104.31299069375487" sparseCutoff="1.0000000000000000"/>
      <sparseX i="224" alpha="62.774231519400928" sparseCutoff="1.0000000000000000"/>
      <sparseX i="225" alpha="-16.920976683924916" sparseCutoff="1.0000000000000000"/>
      <sparseX i="226" alpha="-12.383843360738604" sparseCutoff="1.0000000000000000"/>
      <sparseX i="227" alpha="-125.21870389027433" sparseCutoff="1.0000000000000000"/>
      <sparseX i="228" alpha="64.016100596346561" sparseCutoff="1.0000000000000000"/>
      <sparseX i="229" alpha="92.818891911534067" sparseCutoff="1.0000000000000000"/>
      <sparseX i="230" alpha="79.685321372983353" sparseCutoff="1.0000000000000000"/>
      <sparseX i="231" alpha="43.276206428246752" sparseCutoff="1.0000000000000000"/>
      <sparseX i="232" alpha="-164.42333615573244" sparseCutoff="1.0000000000000000"/>
      <sparseX i="233" alpha="117.29250017470058" sparseCutoff="1.0000000000000000"/>
      <sparseX i="234" alpha="-91.490823121548203" sparseCutoff="1.0000000000000000"/>
      <sparseX i="235" alpha="10.761279712623139" sparseCutoff="1.0000000000000000"/>
      <sparseX i="236" alpha="11.046475788569056" sparseCutoff="1.0000000000000000"/>
      <sparseX i="237" alpha="-16.394804612858241" sparseCutoff="1.0000000000000000"/>
      <sparseX i="238" alpha="71.294637340159298" sparseCutoff="1.0000000000000000"/>
      <sparseX i="239" alpha="73.630122847667693" sparseCutoff="1.0000000000000000"/>
      <sparseX i="240" alpha="-112.26341977789134" sparseCutoff="1.0000000000000000"/>
      <sparseX i="241" alpha="272.66186243622070" sparseCutoff="1.0000000000000000"/>
      <sparseX i="242" alpha="376.02908851998058" sparseCutoff="1.0000000000000000"/>
      <sparseX i="243" alpha="-29.301035029964030" sparseCutoff="1.0000000000000000"/>
      <sparseX i="244" alpha="396.69897463681400" sparseCutoff="1.0000000000000000"/>
      <sparseX i="245" alpha="-259.35681376952954" sparseCutoff="1.0000000000000000"/>
      <sparseX i="246" alpha="-1.2478060414921317" sparseCutoff="1.0000000000000000"/>
      <sparseX i="247" alpha="36.100669698622113" sparseCutoff="1.0000000000000000"/>
      <sparseX i="248" alpha="-366.42657889365046" sparseCutoff="1.0000000000000000"/>
      <sparseX i="249" alpha="-355.94641298193955" sparseCutoff="1.0000000000000000"/>
      <sparseX i="250" alpha="-210.44346301058405" sparseCutoff="1.0000000000000000"/>
      <sparseX i="251" alpha="202.51008035095077" sparseCutoff="1.0000000000000000"/>
      <sparseX i="252" alpha="-213.68428589084527" sparseCutoff="1.0000000000000000"/>
      <sparseX i="253" alpha="206.49760386767602" sparseCutoff="1.0000000000000000"/>
      <sparseX i="254" alpha="135.09710468140162" sparseCutoff="1.0000000000000000"/>
      <sparseX i="255" alpha="-105.51752484830456" sparseCutoff="1.0000000000000000"/>
      <sparseX i="256" alpha="68.624838139331558" sparseCutoff="1.0000000000000000"/>
      <sparseX i="257" alpha="65.618251608105737" sparseCutoff="1.0000000000000000"/>
      <sparseX i="258" alpha="545.35429822559820" sparseCutoff="1.0000000000000000"/>
      <sparseX i="259" alpha="-150.80901471291534" sparseCutoff="1.0000000000000000"/>
      <sparseX i="260" alpha="29.750461289694982" sparseCutoff="1.0000000000000000"/>
      <sparseX i="261" alpha="-118.85170279362497" sparseCutoff="1.0000000000000000"/>
      <sparseX i="262" alpha="-555.13159128284065" sparseCutoff="1.0000000000000000"/>
      <sparseX i="263" alpha="501.26358017057044" sparseCutoff="1.0000000000000000"/>
      <sparseX i="264" alpha="1725.3950834626110" sparseCutoff="1.0000000000000000"/>
      <sparseX i="265" alpha="-2230.9843056204559" sparseCutoff="1.0000000000000000"/>
      <sparseX i="266" alpha="-665.71840194898277" sparseCutoff="1.0000000000000000"/>
      <sparseX i="267" alpha="-178.05202212506669" sparseCutoff="1.0000000000000000"/>
      <sparseX i="268" alpha="755.01907567935530" sparseCutoff="1.0000000000000000"/>
      <sparseX i="269" alpha="6.6632167256056594" sparseCutoff="1.0000000000000000"/>
      <sparseX i="270" alpha="-3347.1221309463913" sparseCutoff="1.0000000000000000"/>
      <sparseX i="271" alpha="1661.9584054668715" sparseCutoff="1.0000000000000000"/>
      <sparseX i="272" alpha="1550.0106015860790" sparseCutoff="1.0000000000000000"/>
      <sparseX i="273" alpha="-7.0444815885877823" sparseCutoff="1.0000000000000000"/>
      <sparseX i="274" alpha="-145.20867842529483" sparseCutoff="1.0000000000000000"/>
      <sparseX i="275" alpha="10.156829290102326" sparseCutoff="1.0000000000000000"/>
      <sparseX i="276" alpha="-942.81020074614196" sparseCutoff="1.0000000000000000"/>
      <sparseX i="277" alpha="983.84971623876561" sparseCutoff="1.0000000000000000"/>
      <sparseX i="278" alpha="270.33458493891658" sparseCutoff="1.0000000000000000"/>
      <sparseX i="279" alpha="-137.89522201254243" sparseCutoff="1.0000000000000000"/>
      <sparseX i="280" alpha="64.922931706953577" sparseCutoff="1.0000000000000000"/>
      <sparseX i="281" alpha="-680.54514832875054" sparseCutoff="1.0000000000000000"/>
      <sparseX i="282" alpha="547.80229232100612" sparseCutoff="1.0000000000000000"/>
      <sparseX i="283" alpha="-1015.1043109913538" sparseCutoff="1.0000000000000000"/>
      <sparseX i="284" alpha="-254.10740427676652" sparseCutoff="1.0000000000000000"/>
      <sparseX i="285" alpha="1428.1931741479025" sparseCutoff="1.0000000000000000"/>
      <sparseX i="286" alpha="-470.25268046933905" sparseCutoff="1.0000000000000000"/>
      <sparseX i="287" alpha="46.523170458059127" sparseCutoff="1.0000000000000000"/>
      <sparseX i="288" alpha="-174.67986536351751" sparseCutoff="1.0000000000000000"/>
      <sparseX i="289" alpha="1.7606892982989817" sparseCutoff="1.0000000000000000"/>
      <sparseX i="290" alpha="-513.57781409992026" sparseCutoff="1.0000000000000000"/>
      <sparseX i="291" alpha="535.62253198839937" sparseCutoff="1.0000000000000000"/>
      <sparseX i="292" alpha="24.022032486124559" sparseCutoff="1.0000000000000000"/>
      <sparseX i="293" alpha="-129.78271841725325" sparseCutoff="1.0000000000000000"/>
      <sparseX i="294" alpha="83.694039102110779" sparseCutoff="1.0000000000000000"/>
      <sparseX i="295" alpha="-1145.0575141079371" sparseCutoff="1.0000000000000000"/>
      <sparseX i="296" alpha="1048.2175566204019" sparseCutoff="1.0000000000000000"/>
      <sparseX i="297" alpha="263.31413173589499" sparseCutoff="1.0000000000000000"/>
      <sparseX i="298" alpha="515.03255980874121" sparseCutoff="1.0000000000000000"/>
      <sparseX i="299" alpha="-319.87329622803071" sparseCutoff="1.0000000000000000"/>
      <sparseX i="300" alpha="-200.24215178850025" sparseCutoff="1.0000000000000000"/>
      <sparseX i="301" alpha="895.86748770000179" sparseCutoff="1.0000000000000000"/>
      <sparseX i="302" alpha="19.358049258055171" sparseCutoff="1.0000000000000000"/>
      <sparseX i="303" alpha="123.24567613026427" sparseCutoff="1.0000000000000000"/>
      <sparseX i="304" alpha="800.34736736865932" sparseCutoff="1.0000000000000000"/>
      <sparseX i="305" alpha="-891.43987603582104" sparseCutoff="1.0000000000000000"/>
      <sparseX i="306" alpha="1144.4605086338149" sparseCutoff="1.0000000000000000"/>
      <sparseX i="307" alpha="-1546.7682355648760" sparseCutoff="1.0000000000000000"/>
      <sparseX i="308" alpha="404.58748433520446" sparseCutoff="1.0000000000000000"/>
      <sparseX i="309" alpha="171.96435642440855" sparseCutoff="1.0000000000000000"/>
      <sparseX i="310" alpha="1382.1704570244424" sparseCutoff="1.0000000000000000"/>
      <sparseX i="311" alpha="-1462.1969715460796" sparseCutoff="1.0000000000000000"/>
      <sparseX i="312" alpha="-86.263852885947188" sparseCutoff="1.0000000000000000"/>
      <sparseX i="313" alpha="1372.5661787106947" sparseCutoff="1.0000000000000000"/>
      <sparseX i="314" alpha="-1749.2879917193454" sparseCutoff="1.0000000000000000"/>
      <sparseX i="315" alpha="272.49607809340779" sparseCutoff="1.0000000000000000"/>
      <sparseX i="316" alpha="44.192971194882738" sparseCutoff="1.0000000000000000"/>
      <sparseX i="317" alpha="7.0281154588295704" sparseCutoff="1.0000000000000000"/>
      <sparseX i="318" alpha="147.43952383716251" sparseCutoff="1.0000000000000000"/>
      <sparseX i="319" alpha="-49.395063057423378" sparseCutoff="1.0000000000000000"/>
      <sparseX i="320" alpha="-811.26926458353671" sparseCutoff="1.0000000000000000"/>
      <sparseX i="321" alpha="948.49929648528291" sparseCutoff="1.0000000000000000"/>
      <sparseX i="322" alpha="60.886823377558940" sparseCutoff="1.0000000000000000"/>
      <sparseX i="323" alpha="348.22668052437928" sparseCutoff="1.0000000000000000"/>
      <sparseX i="324" alpha="-364.97720081292476" sparseCutoff="1.0000000000000000"/>
      <sparseX i="325" alpha="-239.45570198892182" sparseCutoff="1.0000000000000000"/>
      <sparseX i="326" alpha="-1682.0995079627803" sparseCutoff="1.0000000000000000"/>
      <sparseX i="327" alpha="1809.1155830775547" sparseCutoff="1.0000000000000000"/>
      <sparseX i="328" alpha="19.861261501753951" sparseCutoff="1.0000000000000000"/>
      <sparseX i="329" alpha="-158.41811134233674" sparseCutoff="1.0000000000000000"/>
      <sparseX i="330" alpha="-423.17926057370300" sparseCutoff="1.0000000000000000"/>
      <sparseX i="331" alpha="-163.47404325571080" sparseCutoff="1.0000000000000000"/>
      <sparseX i="332" alpha="13.977745399149310" sparseCutoff="1.0000000000000000"/>
      <sparseX i="333" alpha="262.58428692371274" sparseCutoff="1.0000000000000000"/>
      <sparseX i="334" alpha="61.337552469273128" sparseCutoff="1.0000000000000000"/>
      <sparseX i="335" alpha="-229.67416157377298" sparseCutoff="1.0000000000000000"/>
      <sparseX i="336" alpha="-10.794835649682920" sparseCutoff="1.0000000000000000"/>
      <sparseX i="337" alpha="199.87443374291331" sparseCutoff="1.0000000000000000"/>
      <sparseX i="338" alpha="628.48145932004320" sparseCutoff="1.0000000000000000"/>
      <sparseX i="339" alpha="194.25819204119415" sparseCutoff="1.0000000000000000"/>
      <sparseX i="340" alpha="-639.12700963356076" sparseCutoff="1.0000000000000000"/>
      <sparseX i="341" alpha="-102.90966714069260" sparseCutoff="1.0000000000000000"/>
      <sparseX i="342" alpha="3.1660547420199294" sparseCutoff="1.0000000000000000"/>
      <sparseX i="343" alpha="-132.37834802893923" sparseCutoff="1.0000000000000000"/>
      <sparseX i="344" alpha="14.617937219747621" sparseCutoff="1.0000000000000000"/>
      <sparseX i="345" alpha="78.549904562700419" sparseCutoff="1.0000000000000000"/>
      <sparseX i="346" alpha="7.0416088463678062" sparseCutoff="1.0000000000000000"/>
      <sparseX i="347" alpha="-37.182770323397754" sparseCutoff="1.0000000000000000"/>
      <sparseX i="348" alpha="81.802405597486086" sparseCutoff="1.0000000000000000"/>
      <sparseX i="349" alpha="279.99807580493302" sparseCutoff="1.0000000000000000"/>
      <sparseX i="350" alpha="-129.55723435898969" sparseCutoff="1.0000000000000000"/>
      <sparseX i="351" alpha="138.60308697565893" sparseCutoff="1.0000000000000000"/>
      <sparseX i="352" alpha="-144.12988292909560" sparseCutoff="1.0000000000000000"/>
      <sparseX i="353" alpha="813.64963975032890" sparseCutoff="1.0000000000000000"/>
      <sparseX i="354" alpha="-333.59596274026211" sparseCutoff="1.0000000000000000"/>
      <sparseX i="355" alpha="-290.51594780253703" sparseCutoff="1.0000000000000000"/>
      <sparseX i="356" alpha="-801.63005294071206" sparseCutoff="1.0000000000000000"/>
      <sparseX i="357" alpha="585.94820457541334" sparseCutoff="1.0000000000000000"/>
      <sparseX i="358" alpha="-2060.6363457485954" sparseCutoff="1.0000000000000000"/>
      <sparseX i="359" alpha="1801.3553287202440" sparseCutoff="1.0000000000000000"/>
      <sparseX i="360" alpha="722.31253595184842" sparseCutoff="1.0000000000000000"/>
      <sparseX i="361" alpha="52.615805000064448" sparseCutoff="1.0000000000000000"/>
      <sparseX i="362" alpha="17.301025253991043" sparseCutoff="1.0000000000000000"/>
      <sparseX i="363" alpha="-156.68929467601475" sparseCutoff="1.0000000000000000"/>
      <sparseX i="364" alpha="202.10378870670345" sparseCutoff="1.0000000000000000"/>
      <sparseX i="365" alpha="-369.78967110236186" sparseCutoff="1.0000000000000000"/>
      <sparseX i="366" alpha="402.80668474026373" sparseCutoff="1.0000000000000000"/>
      <sparseX i="367" alpha="30.690588008306008" sparseCutoff="1.0000000000000000"/>
      <sparseX i="368" alpha="154.79859205276426" sparseCutoff="1.0000000000000000"/>
      <sparseX i="369" alpha="41.611645665071485" sparseCutoff="1.0000000000000000"/>
      <sparseX i="370" alpha="172.86805672398401" sparseCutoff="1.0000000000000000"/>
      <sparseX i="371" alpha="134.00618874565311" sparseCutoff="1.0000000000000000"/>
      <sparseX i="372" alpha="30.427589395578071" sparseCutoff="1.0000000000000000"/>
      <sparseX i="373" alpha="114.98161674105766" sparseCutoff="1.0000000000000000"/>
      <sparseX i="374" alpha="-2.5717464217387382" sparseCutoff="1.0000000000000000"/>
      <sparseX i="375" alpha="-235.72708913318698" sparseCutoff="1.0000000000000000"/>
      <sparseX i="376" alpha="-87.994241272665121" sparseCutoff="1.0000000000000000"/>
      <sparseX i="377" alpha="111.29712822950425" sparseCutoff="1.0000000000000000"/>
      <sparseX i="378" alpha="114.37934798603946" sparseCutoff="1.0000000000000000"/>
      <sparseX i="379" alpha="129.83803363548080" sparseCutoff="1.0000000000000000"/>
      <sparseX i="380" alpha="127.02283319530656" sparseCutoff="1.0000000000000000"/>
      <sparseX i="381" alpha="-90.849803426836431" sparseCutoff="1.0000000000000000"/>
      <sparseX i="382" alpha="-203.64863244520686" sparseCutoff="1.0000000000000000"/>
      <sparseX i="383" alpha="-218.99512652314763" sparseCutoff="1.0000000000000000"/>
      <sparseX i="384" alpha="-22.339467910058225" sparseCutoff="1.0000000000000000"/>
      <sparseX i="385" alpha="-174.07449386967306" sparseCutoff="1.0000000000000000"/>
      <sparseX i="386" alpha="160.37165333503236" sparseCutoff="1.0000000000000000"/>
      <sparseX i="387" alpha="-64.374647160537677" sparseCutoff="1.0000000000000000"/>
      <sparseX i="388" alpha="219.62465076521411" sparseCutoff="1.0000000000000000"/>
      <sparseX i="389" alpha="-459.82133624558901" sparseCutoff="1.0000000000000000"/>
      <sparseX i="390" alpha="46.079484087469027" sparseCutoff="1.0000000000000000"/>
      <sparseX i="391" alpha="455.88612785109393" sparseCutoff="1.0000000000000000"/>
      <sparseX i="392" alpha="-34.184993547152466" sparseCutoff="1.0000000000000000"/>
      <sparseX i="393" alpha="-516.12291919864492" sparseCutoff="1.0000000000000000"/>
      <sparseX i="394" alpha="2507.7076298649954" sparseCutoff="1.0000000000000000"/>
      <sparseX i="395" alpha="-2076.6891181035762" sparseCutoff="1.0000000000000000"/>
      <sparseX i="396" alpha="2577.0961133624492" sparseCutoff="1.0000000000000000"/>
      <sparseX i="397" alpha="-2506.5707493128184" sparseCutoff="1.0000000000000000"/>
      <sparseX i="398" alpha="-909.67063057282087" sparseCutoff="1.0000000000000000"/>
      <sparseX i="399" alpha="834.72465847770536" sparseCutoff="1.0000000000000000"/>
      <sparseX i="400" alpha="392.62388877704046" sparseCutoff="1.0000000000000000"/>
      <sparseX i="401" alpha="-587.49981618243282" sparseCutoff="1.0000000000000000"/>
      <sparseX i="402" alpha="-19.852787692406931" sparseCutoff="1.0000000000000000"/>
      <sparseX i="403" alpha="-162.04353896502812" sparseCutoff="1.0000000000000000"/>
      <sparseX i="404" alpha="135.19596132874162" sparseCutoff="1.0000000000000000"/>
      <sparseX i="405" alpha="119.32780078506177" sparseCutoff="1.0000000000000000"/>
      <sparseX i="406" alpha="243.98738595064222" sparseCutoff="1.0000000000000000"/>
      <sparseX i="407" alpha="-157.46877034785541" sparseCutoff="1.0000000000000000"/>
      <sparseX i="408" alpha="-91.865852688400409" sparseCutoff="1.0000000000000000"/>
      <sparseX i="409" alpha="-4.3546849989164764" sparseCutoff="1.0000000000000000"/>
      <sparseX i="410" alpha="-171.70896062053561" sparseCutoff="1.0000000000000000"/>
      <sparseX i="411" alpha="137.29003693682873" sparseCutoff="1.0000000000000000"/>
      <sparseX i="412" alpha="44.044585713989257" sparseCutoff="1.0000000000000000"/>
      <sparseX i="413" alpha="3.7663009037645714" sparseCutoff="1.0000000000000000"/>
      <sparseX i="414" alpha="-81.276990443819983" sparseCutoff="1.0000000000000000"/>
      <sparseX i="415" alpha="123.70819653612925" sparseCutoff="1.0000000000000000"/>
      <sparseX i="416" alpha="24.013724617744796" sparseCutoff="1.0000000000000000"/>
      <sparseX i="417" alpha="-185.41382007840122" sparseCutoff="1.0000000000000000"/>
      <sparseX i="418" alpha="120.68255750664656" sparseCutoff="1.0000000000000000"/>
      <sparseX i="419" alpha="284.14870235780489" sparseCutoff="1.0000000000000000"/>
      <sparseX i="420" alpha="-178.53562792827671" sparseCutoff="1.0000000000000000"/>
      <sparseX i="421" alpha="142.23725632777092" sparseCutoff="1.0000000000000000"/>
      <sparseX i="422" alpha="126.27934076327213" sparseCutoff="1.0000000000000000"/>
      <sparseX i="423" alpha="1.4961539072335888" sparseCutoff="1.0000000000000000"/>
      <sparseX i="424" alpha="10.370211184582907" sparseCutoff="1.0000000000000000"/>
      <sparseX i="425" alpha="167.40912911975724" sparseCutoff="1.0000000000000000"/>
      <sparseX i="426" alpha="85.245237117972678" sparseCutoff="1.0000000000000000"/>
      <sparseX i="427" alpha="-108.93882304281433" sparseCutoff="1.0000000000000000"/>
      <sparseX i="428" alpha="586.05085739917092" sparseCutoff="1.0000000000000000"/>
      <sparseX i="429" alpha="-268.24107679908695" sparseCutoff="1.0000000000000000"/>
      <sparseX i="430" alpha="-.96321415576310998" sparseCutoff="1.0000000000000000"/>
      <sparseX i="431" alpha="28.602697500938731" sparseCutoff="1.0000000000000000"/>
      <sparseX i="432" alpha="-313.59868694434675" sparseCutoff="1.0000000000000000"/>
      <sparseX i="433" alpha="-216.44885337833497" sparseCutoff="1.0000000000000000"/>
      <sparseX i="434" alpha="-130.34440321795108" sparseCutoff="1.0000000000000000"/>
      <sparseX i="435" alpha="321.51432711023642" sparseCutoff="1.0000000000000000"/>
      <sparseX i="436" alpha="-160.06623919430362" sparseCutoff="1.0000000000000000"/>
      <sparseX i="437" alpha="258.26977901612412" sparseCutoff="1.0000000000000000"/>
      <sparseX i="438" alpha="731.35513695394457" sparseCutoff="1.0000000000000000"/>
      <sparseX i="439" alpha="-47.828791864354272" sparseCutoff="1.0000000000000000"/>
      <sparseX i="440" alpha="-263.50125243747129" sparseCutoff="1.0000000000000000"/>
      <sparseX i="441" alpha="-3847.3617071505068" sparseCutoff="1.0000000000000000"/>
      <sparseX i="442" alpha="3777.4272505844688" sparseCutoff="1.0000000000000000"/>
      <sparseX i="443" alpha="313.98777924062858" sparseCutoff="1.0000000000000000"/>
      <sparseX i="444" alpha="-289.12080165311335" sparseCutoff="1.0000000000000000"/>
      <sparseX i="445" alpha="-1193.0739256195873" sparseCutoff="1.0000000000000000"/>
      <sparseX i="446" alpha="1230.5014479462538" sparseCutoff="1.0000000000000000"/>
      <sparseX i="447" alpha="-160.26932033712248" sparseCutoff="1.0000000000000000"/>
      <sparseX i="448" alpha="131.68410168302751" sparseCutoff="1.0000000000000000"/>
      <sparseX i="449" alpha="-412.89194875136945" sparseCutoff="1.0000000000000000"/>
      <sparseX i="450" alpha="229.25604201834332" sparseCutoff="1.0000000000000000"/>
      <sparseX i="451" alpha="-667.68290827851081" sparseCutoff="1.0000000000000000"/>
      <sparseX i="452" alpha="1129.3188487768361" sparseCutoff="1.0000000000000000"/>
      <sparseX i="453" alpha="46.292515891378635" sparseCutoff="1.0000000000000000"/>
      <sparseX i="454" alpha="-180.16112564136282" sparseCutoff="1.0000000000000000"/>
      <sparseX i="455" alpha="-15.249032303977767" sparseCutoff="1.0000000000000000"/>
      <sparseX i="456" alpha="110.76299877220745" sparseCutoff="1.0000000000000000"/>
      <sparseX i="457" alpha="-26.052818051209620" sparseCutoff="1.0000000000000000"/>
      <sparseX i="458" alpha="-103.19617489704386" sparseCutoff="1.0000000000000000"/>
      <sparseX i="459" alpha="395.28535913731048" sparseCutoff="1.0000000000000000"/>
      <sparseX i="460" alpha="332.21004200504058" sparseCutoff="1.0000000000000000"/>
      <sparseX i="461" alpha="120.31598392978911" sparseCutoff="1.0000000000000000"/>
      <sparseX i="462" alpha="376.88569700896301" sparseCutoff="1.0000000000000000"/>
      <sparseX i="463" alpha="-65.789693865625736" sparseCutoff="1.0000000000000000"/>
      <sparseX i="464" alpha="161.01774785304633" sparseCutoff="1.0000000000000000"/>
      <sparseX i="465" alpha="-71.194452377330236" sparseCutoff="1.0000000000000000"/>
      <sparseX i="466" alpha="-137.81519709987347" sparseCutoff="1.0000000000000000"/>
      <sparseX i="467" alpha="-347.99153673419420" sparseCutoff="1.0000000000000000"/>
      <sparseX i="468" alpha="-179.65628741449899" sparseCutoff="1.0000000000000000"/>
      <sparseX i="469" alpha="-103.24535131150705" sparseCutoff="1.0000000000000000"/>
      <sparseX i="470" alpha="772.18534903018383" sparseCutoff="1.0000000000000000"/>
      <sparseX i="471" alpha="308.62230362788006" sparseCutoff="1.0000000000000000"/>
      <sparseX i="472" alpha="264.85856346605470" sparseCutoff="1.0000000000000000"/>
      <sparseX i="473" alpha="-168.24649853176007" sparseCutoff="1.0000000000000000"/>
      <sparseX i="474" alpha="-1456.7815680881849" sparseCutoff="1.0000000000000000"/>
      <sparseX i="475" alpha="1488.1103184244505" sparseCutoff="1.0000000000000000"/>
      <sparseX i="476" alpha="-1776.4913198498737" sparseCutoff="1.0000000000000000"/>
      <sparseX i="477" alpha="1642.9605328372515" sparseCutoff="1.0000000000000000"/>
      <sparseX i="478" alpha="437.05508499313930" sparseCutoff="1.0000000000000000"/>
      <sparseX i="479" alpha="-172.82693373072286" sparseCutoff="1.0000000000000000"/>
      <sparseX i="480" alpha="70.732362637287977" sparseCutoff="1.0000000000000000"/>
      <sparseX i="481" alpha="947.46799838888614" sparseCutoff="1.0000000000000000"/>
      <sparseX i="482" alpha="115.92302611979827" sparseCutoff="1.0000000000000000"/>
      <sparseX i="483" alpha="268.38481989586103" sparseCutoff="1.0000000000000000"/>
      <sparseX i="484" alpha="61.091432950659161" sparseCutoff="1.0000000000000000"/>
      <sparseX i="485" alpha="-428.19744860017863" sparseCutoff="1.0000000000000000"/>
      <sparseX i="486" alpha="-49.174104364479405" sparseCutoff="1.0000000000000000"/>
      <sparseX i="487" alpha="-257.66901565065103" sparseCutoff="1.0000000000000000"/>
      <sparseX i="488" alpha="-913.60579867654144" sparseCutoff="1.0000000000000000"/>
      <sparseX i="489" alpha="686.49824012089334" sparseCutoff="1.0000000000000000"/>
      <sparseX i="490" alpha="-195.55231744990957" sparseCutoff="1.0000000000000000"/>
      <sparseX i="491" alpha="308.78070928999318" sparseCutoff="1.0000000000000000"/>
      <sparseX i="492" alpha="80.423934343226534" sparseCutoff="1.0000000000000000"/>
      <sparseX i="493" alpha="-678.44694419345592" sparseCutoff="1.0000000000000000"/>
      <sparseX i="494" alpha="757.07337637497835" sparseCutoff="1.0000000000000000"/>
      <sparseX i="495" alpha="19.759888086557993" sparseCutoff="1.0000000000000000"/>
      <sparseX i="496" alpha="89.072267580746555" sparseCutoff="1.0000000000000000"/>
      <sparseX i="497" alpha="-257.98960495938240" sparseCutoff="1.0000000000000000"/>
      <sparseX i="498" alpha="2330.0925282350081" sparseCutoff="1.0000000000000000"/>
      <sparseX i="499" alpha="-2227.8313527908440" sparseCutoff="1.0000000000000000"/>
      <sparseX i="500" alpha="1501.3130994374199" sparseCutoff="1.0000000000000000"/>
      <sparseX i="501" alpha="-1528.5311474767570" sparseCutoff="1.0000000000000000"/>
      <sparseX i="502" alpha="-1017.6080880002595" sparseCutoff="1.0000000000000000"/>
      <sparseX i="503" alpha="1280.4809350799724" sparseCutoff="1.0000000000000000"/>
      <sparseX i="504" alpha="7.3310791017107384" sparseCutoff="1.0000000000000000"/>
      <sparseX i="505" alpha="99.700948834322048" sparseCutoff="1.0000000000000000"/>
      <sparseX i="506" alpha="51.166398591171408" sparseCutoff="1.0000000000000000"/>
      <sparseX i="507" alpha="124.70480011760270" sparseCutoff="1.0000000000000000"/>
      <sparseX i="508" alpha="-166.01329599443474" sparseCutoff="1.0000000000000000"/>
      <sparseX i="509" alpha="-236.36909554872585" sparseCutoff="1.0000000000000000"/>
      <sparseX i="510" alpha="61.219307755869551" sparseCutoff="1.0000000000000000"/>
      <sparseX i="511" alpha="-193.78238267593071" sparseCutoff="1.0000000000000000"/>
      <sparseX i="512" alpha="-224.70329813715139" sparseCutoff="1.0000000000000000"/>
      <sparseX i="513" alpha="-177.63405850162258" sparseCutoff="1.0000000000000000"/>
      <sparseX i="514" alpha="-1446.5220759367928" sparseCutoff="1.0000000000000000"/>
      <sparseX i="515" alpha="1592.9562547897399" sparseCutoff="1.0000000000000000"/>
      <sparseX i="516" alpha="-103.73572495383986" sparseCutoff="1.0000000000000000"/>
      <sparseX i="517" alpha="83.353522765787716" sparseCutoff="1.0000000000000000"/>
      <sparseX i="518" alpha="228.48031872440396" sparseCutoff="1.0000000000000000"/>
      <sparseX i="519" alpha="-381.40951586746633" sparseCutoff="1.0000000000000000"/>
      <sparseX i="520" alpha="926.26052526304056" sparseCutoff="1.0000000000000000"/>
      <sparseX i="521" alpha="-495.41034415090269" sparseCutoff="1.0000000000000000"/>
      <sparseX i="522" alpha="751.43820619285736" sparseCutoff="1.0000000000000000"/>
      <sparseX i="523" alpha="-272.80634249606334" sparseCutoff="1.0000000000000000"/>
      <sparseX i="524" alpha="87.620608855387303" sparseCutoff="1.0000000000000000"/>
      <sparseX i="525" alpha="-412.13434143892329" sparseCutoff="1.0000000000000000"/>
      <sparseX i="526" alpha="99.852919306953538" sparseCutoff="1.0000000000000000"/>
      <sparseX i="527" alpha="-449.34377746084476" sparseCutoff="1.0000000000000000"/>
      <sparseX i="528" alpha="83.605848144499475" sparseCutoff="1.0000000000000000"/>
      <sparseX i="529" alpha="-20.454572173808899" sparseCutoff="1.0000000000000000"/>
      <sparseX i="530" alpha="-24.014246253700659" sparseCutoff="1.0000000000000000"/>
      <sparseX i="531" alpha="-14.578189492369562" sparseCutoff="1.0000000000000000"/>
      <sparseX i="532" alpha="85.402930764879102" sparseCutoff="1.0000000000000000"/>
      <sparseX i="533" alpha="-124.99505622614626" sparseCutoff="1.0000000000000000"/>
      <sparseX i="534" alpha="3189.8516499359403" sparseCutoff="1.0000000000000000"/>
      <sparseX i="535" alpha="-2869.8722271750125" sparseCutoff="1.0000000000000000"/>
      <sparseX i="536" alpha="-158.58740638251169" sparseCutoff="1.0000000000000000"/>
      <sparseX i="537" alpha="99.175528455777112" sparseCutoff="1.0000000000000000"/>
      <sparseX i="538" alpha="-793.25233610117868" sparseCutoff="1.0000000000000000"/>
      <sparseX i="539" alpha="318.60301946030523" sparseCutoff="1.0000000000000000"/>
      <sparseX i="540" alpha="-740.39449689237472" sparseCutoff="1.0000000000000000"/>
      <sparseX i="541" alpha="-742.35218874663087" sparseCutoff="1.0000000000000000"/>
      <sparseX i="542" alpha="1498.5837494718016" sparseCutoff="1.0000000000000000"/>
      <sparseX i="543" alpha="-28.180940214663813" sparseCutoff="1.0000000000000000"/>
      <sparseX i="544" alpha="-105.09387753326691" sparseCutoff="1.0000000000000000"/>
      <sparseX i="545" alpha="-28.320601332900647" sparseCutoff="1.0000000000000000"/>
      <sparseX i="546" alpha="-35.119276211070243" sparseCutoff="1.0000000000000000"/>
      <sparseX i="547" alpha="-260.37517620403679" sparseCutoff="1.0000000000000000"/>
      <sparseX i="548" alpha="236.80023869361094" sparseCutoff="1.0000000000000000"/>
      <sparseX i="549" alpha="265.13843559004903" sparseCutoff="1.0000000000000000"/>
      <sparseX i="550" alpha="-79.903459241470685" sparseCutoff="1.0000000000000000"/>
      <sparseX i="551" alpha="-127.55301549823531" sparseCutoff="1.0000000000000000"/>
      <sparseX i="552" alpha="-555.62350943435581" sparseCutoff="1.0000000000000000"/>
      <sparseX i="553" alpha="384.45547025844439" sparseCutoff="1.0000000000000000"/>
      <sparseX i="554" alpha="200.12574159751784" sparseCutoff="1.0000000000000000"/>
      <sparseX i="555" alpha="226.41777115906191" sparseCutoff="1.0000000000000000"/>
      <sparseX i="556" alpha="-.56318358882889807" sparseCutoff="1.0000000000000000"/>
      <sparseX i="557" alpha="-230.91793381577935" sparseCutoff="1.0000000000000000"/>
      <sparseX i="558" alpha="359.04743017706244" sparseCutoff="1.0000000000000000"/>
      <sparseX i="559" alpha="361.21455035739376" sparseCutoff="1.0000000000000000"/>
      <sparseX i="560" alpha="-385.09495135160705" sparseCutoff="1.0000000000000000"/>
      <sparseX i="561" alpha="-193.61047968067808" sparseCutoff="1.0000000000000000"/>
      <sparseX i="562" alpha="-59.112918117819682" sparseCutoff="1.0000000000000000"/>
      <sparseX i="563" alpha="-89.466024398756915" sparseCutoff="1.0000000000000000"/>
      <sparseX i="564" alpha="-160.92377155985940" sparseCutoff="1.0000000000000000"/>
      <sparseX i="565" alpha="-339.30714533156771" sparseCutoff="1.0000000000000000"/>
      <sparseX i="566" alpha="-12.812285476880511" sparseCutoff="1.0000000000000000"/>
      <sparseX i="567" alpha="384.17552255939944" sparseCutoff="1.0000000000000000"/>
      <sparseX i="568" alpha="-593.51918806132187" sparseCutoff="1.0000000000000000"/>
      <sparseX i="569" alpha="342.42192533409229" sparseCutoff="1.0000000000000000"/>
      <sparseX i="570" alpha="69.763554998033513" sparseCutoff="1.0000000000000000"/>
      <sparseX i="571" alpha="-910.44459701837684" sparseCutoff="1.0000000000000000"/>
      <sparseX i="572" alpha="830.42054906056910" sparseCutoff="1.0000000000000000"/>
      <sparseX i="573" alpha="79.748374701120525" sparseCutoff="1.0000000000000000"/>
      <sparseX i="574" alpha="505.72740343239843" sparseCutoff="1.0000000000000000"/>
      <sparseX i="575" alpha="-762.39866306000783" sparseCutoff="1.0000000000000000"/>
      <sparseX i="576" alpha="10.694237302788586" sparseCutoff="1.0000000000000000"/>
      <sparseX i="577" alpha="23.768818321331452" sparseCutoff="1.0000000000000000"/>
      <sparseX i="578" alpha="-6278.7033110260518" sparseCutoff="1.0000000000000000"/>
      <sparseX i="579" alpha="6209.0865366223979" sparseCutoff="1.0000000000000000"/>
      <sparseX i="580" alpha="11.594869839690970" sparseCutoff="1.0000000000000000"/>
      <sparseX i="581" alpha="-454.49819097833353" sparseCutoff="1.0000000000000000"/>
      <sparseX i="582" alpha="-283.08205708212932" sparseCutoff="1.0000000000000000"/>
      <sparseX i="583" alpha="422.18354094838048" sparseCutoff="1.0000000000000000"/>
      <sparseX i="584" alpha="-84.398643018733111" sparseCutoff="1.0000000000000000"/>
      <sparseX i="585" alpha="-17.588623683278946" sparseCutoff="1.0000000000000000"/>
      <sparseX i="586" alpha="139.05322724008485" sparseCutoff="1.0000000000000000"/>
      <sparseX i="587" alpha="150.35723310465156" sparseCutoff="1.0000000000000000"/>
      <sparseX i="588" alpha="295.26393692796000" sparseCutoff="1.0000000000000000"/>
      <sparseX i="589" alpha="249.78497380718329" sparseCutoff="1.0000000000000000"/>
      <sparseX i="590" alpha="-175.19148807625757" sparseCutoff="1.0000000000000000"/>
      <sparseX i="591" alpha="-69.390285145405812" sparseCutoff="1.0000000000000000"/>
      <sparseX i="592" alpha="-70.294583059602161" sparseCutoff="1.0000000000000000"/>
      <sparseX i="593" alpha="-10.718894232688898" sparseCutoff="1.0000000000000000"/>
      <sparseX i="594" alpha="-13.581612961833462" sparseCutoff="1.0000000000000000"/>
      <sparseX i="595" alpha="-87.916543621447673" sparseCutoff="1.0000000000000000"/>
      <sparseX i="596" alpha="270.24665071494542" sparseCutoff="1.0000000000000000"/>
      <sparseX i="597" alpha="-167.49228260066531" sparseCutoff="1.0000000000000000"/>
      <sparseX i="598" alpha="145.63725929741332" sparseCutoff="1.0000000000000000"/>
      <sparseX i="599" alpha="113.85456515849229" sparseCutoff="1.0000000000000000"/>
      <sparseX i="600" alpha="122.65852244502607" sparseCutoff="1.0000000000000000"/>
      <sparseX i="601" alpha="-102.20961941834935" sparseCutoff="1.0000000000000000"/>
      <sparseX i="602" alpha="-283.29004894802972" sparseCutoff="1.0000000000000000"/>
      <sparseX i="603" alpha="46.689500129378054" sparseCutoff="1.0000000000000000"/>
      <sparseX i="604" alpha="507.98536248804135" sparseCutoff="1.0000000000000000"/>
      <sparseX i="605" alpha="224.64214378234666" sparseCutoff="1.0000000000000000"/>
      <sparseX i="606" alpha="-182.08877134452999" sparseCutoff="1.0000000000000000"/>
      <sparseX i="607" alpha="309.17579556881259" sparseCutoff="1.0000000000000000"/>
      <sparseX i="608" alpha="-6.0310702341655675" sparseCutoff="1.0000000000000000"/>
      <sparseX i="609" alpha="202.35868267979220" sparseCutoff="1.0000000000000000"/>
      <sparseX i="610" alpha="-100.50139917913552" sparseCutoff="1.0000000000000000"/>
      <sparseX i="611" alpha="95.947379112816748" sparseCutoff="1.0000000000000000"/>
      <sparseX i="612" alpha="10517.568423679726" sparseCutoff="1.0000000000000000"/>
      <sparseX i="613" alpha="-10456.616742612652" sparseCutoff="1.0000000000000000"/>
      <sparseX i="614" alpha="-35.557203553380418" sparseCutoff="1.0000000000000000"/>
      <sparseX i="615" alpha="-46.659665035875484" sparseCutoff="1.0000000000000000"/>
      <sparseX i="616" alpha="-5374.0579417456938" sparseCutoff="1.0000000000000000"/>
      <sparseX i="617" alpha="5.9622409557593379" sparseCutoff="1.0000000000000000"/>
      <sparseX i="618" alpha="229.91689191903492" sparseCutoff="1.0000000000000000"/>
      <sparseX i="619" alpha="-1077.0472709059013" sparseCutoff="1.0000000000000000"/>
      <sparseX i="620" alpha="826.26855593617552" sparseCutoff="1.0000000000000000"/>
      <sparseX i="621" alpha="-35.561747668268765" sparseCutoff="1.0000000000000000"/>
      <sparseX i="622" alpha="-61.382957779037490" sparseCutoff="1.0000000000000000"/>
      <sparseX i="623" alpha="215.48690706355001" sparseCutoff="1.0000000000000000"/>
      <sparseX i="624" alpha="-386.21656528523812" sparseCutoff="1.0000000000000000"/>
      <sparseX i="625" alpha="149.66971684884112" sparseCutoff="1.0000000000000000"/>
      <sparseX i="626" alpha="361.50008806001119" sparseCutoff="1.0000000000000000"/>
      <sparseX i="627" alpha="-49.471161213222828" sparseCutoff="1.0000000000000000"/>
      <sparseX i="628" alpha="7.8151559921891751" sparseCutoff="1.0000000000000000"/>
      <sparseX i="629" alpha="3643.8148913587829" sparseCutoff="1.0000000000000000"/>
      <sparseX i="630" alpha="-21.876282052829481" sparseCutoff="1.0000000000000000"/>
      <sparseX i="631" alpha="-421.36633156679744" sparseCutoff="1.0000000000000000"/>
      <sparseX i="632" alpha="663.45656979969124" sparseCutoff="1.0000000000000000"/>
      <sparseX i="633" alpha="-442.12678769692053" sparseCutoff="1.0000000000000000"/>
      <sparseX i="634" alpha="-4.5830237327464296" sparseCutoff="1.0000000000000000"/>
      <sparseX i="635" alpha="-122.96942300831086" sparseCutoff="1.0000000000000000"/>
      <sparseX i="636" alpha="112.75818307798971" sparseCutoff="1.0000000000000000"/>
      <sparseX i="637" alpha="65.298222615635510" sparseCutoff="1.0000000000000000"/>
      <sparseX i="638" alpha="140.96482903967515" sparseCutoff="1.0000000000000000"/>
      <sparseX i="639" alpha="-129.88446407810972" sparseCutoff="1.0000000000000000"/>
      <sparseX i="640" alpha="-179.91656396557755" sparseCutoff="1.0000000000000000"/>
      <sparseX i="641" alpha="132.67407130065800" sparseCutoff="1.0000000000000000"/>
      <sparseX i="642" alpha="-167.82661826034484" sparseCutoff="1.0000000000000000"/>
      <sparseX i="643" alpha="25.451459469120763" sparseCutoff="1.0000000000000000"/>
      <sparseX i="644" alpha="-1719.2760053987838" sparseCutoff="1.0000000000000000"/>
      <sparseX i="645" alpha="-1773.1240610948746" sparseCutoff="1.0000000000000000"/>
      <sparseX i="646" alpha="29.726811135903088" sparseCutoff="1.0000000000000000"/>
      <sparseX i="647" alpha="123.60095358052270" sparseCutoff="1.0000000000000000"/>
      <sparseX i="648" alpha="300.09157347927385" sparseCutoff="1.0000000000000000"/>
      <sparseX i="649" alpha="149.62860342614215" sparseCutoff="1.0000000000000000"/>
      <sparseX i="650" alpha="22.117431662692855" sparseCutoff="1.0000000000000000"/>
      <sparseX i="651" alpha="134.30331767582311" sparseCutoff="1.0000000000000000"/>
      <sparseX i="652" alpha="-234.63440090691151" sparseCutoff="1.0000000000000000"/>
      <sparseX i="653" alpha="170.21505915112226" sparseCutoff="1.0000000000000000"/>
      <sparseX i="654" alpha="5129.7057680286271" sparseCutoff="1.0000000000000000"/>
      <sparseX i="655" alpha="535.04025293612722" sparseCutoff="1.0000000000000000"/>
      <sparseX i="656" alpha="-182.73203991644823" sparseCutoff="1.0000000000000000"/>
      <sparseX i="657" alpha="-85.196846906463506" sparseCutoff="1.0000000000000000"/>
      <sparseX i="658" alpha="-49.044619992036260" sparseCutoff="1.0000000000000000"/>
      <sparseX i="659" alpha="-252.93391284334416" sparseCutoff="1.0000000000000000"/>
      <sparseX i="660" alpha="-38.750681893556234" sparseCutoff="1.0000000000000000"/>
      <sparseX i="661" alpha="-33.958394796415234" sparseCutoff="1.0000000000000000"/>
      <sparseX i="662" alpha="2229.4916952316348" sparseCutoff="1.0000000000000000"/>
      <sparseX i="663" alpha="-52.376531418213759" sparseCutoff="1.0000000000000000"/>
      <sparseX i="664" alpha="3742.1315404260713" sparseCutoff="1.0000000000000000"/>
      <sparseX i="665" alpha="96.288760710904128" sparseCutoff="1.0000000000000000"/>
      <sparseX i="666" alpha="-79.189430182867852" sparseCutoff="1.0000000000000000"/>
      <sparseX i="667" alpha="-99.870546783175655" sparseCutoff="1.0000000000000000"/>
      <sparseX i="668" alpha="-26.626239537357900" sparseCutoff="1.0000000000000000"/>
      <sparseX i="669" alpha="-841.98462927252160" sparseCutoff="1.0000000000000000"/>
      <sparseX i="670" alpha="408.01636154642563" sparseCutoff="1.0000000000000000"/>
      <sparseX i="671" alpha="10538.220725909652" sparseCutoff="1.0000000000000000"/>
      <sparseX i="672" alpha="-8.2937769622800346" sparseCutoff="1.0000000000000000"/>
      <sparseX i="673" alpha="-391.44269458094692" sparseCutoff="1.0000000000000000"/>
      <sparseX i="674" alpha="2351.7570908886655" sparseCutoff="1.0000000000000000"/>
      <sparseX i="675" alpha="396.92517777372450" sparseCutoff="1.0000000000000000"/>
      <sparseX i="676" alpha="99.685583104317260" sparseCutoff="1.0000000000000000"/>
      <sparseX i="677" alpha="-4229.0764653428187" sparseCutoff="1.0000000000000000"/>
      <sparseX i="678" alpha="52.576611815171049" sparseCutoff="1.0000000000000000"/>
      <sparseX i="679" alpha="-5050.8563520013704" sparseCutoff="1.0000000000000000"/>
      <sparseX i="680" alpha="-12.684897734646189" sparseCutoff="1.0000000000000000"/>
      <sparseX i="681" alpha="816.50129717114521" sparseCutoff="1.0000000000000000"/>
      <sparseX i="682" alpha="-44.153651546137205" sparseCutoff="1.0000000000000000"/>
      <sparseX i="683" alpha="-1763.1150686877584" sparseCutoff="1.0000000000000000"/>
      <sparseX i="684" alpha="805.43011822722951" sparseCutoff="1.0000000000000000"/>
      <sparseX i="685" alpha="-4667.2430092989562" sparseCutoff="1.0000000000000000"/>
      <sparseX i="686" alpha="-446.88133372681517" sparseCutoff="1.0000000000000000"/>
      <sparseX i="687" alpha="-644.31349347154537" sparseCutoff="1.0000000000000000"/>
      <sparseX i="688" alpha="-1627.3154250253274" sparseCutoff="1.0000000000000000"/>
      <sparseX i="689" alpha="105.31238308836666" sparseCutoff="1.0000000000000000"/>
      <sparseX i="690" alpha="1648.2479131766943" sparseCutoff="1.0000000000000000"/>
      <sparseX i="691" alpha="-578.46657799413344" sparseCutoff="1.0000000000000000"/>
      <sparseX i="692" alpha="3603.8622503560459" sparseCutoff="1.0000000000000000"/>
      <sparseX i="693" alpha="1135.8093646394757" sparseCutoff="1.0000000000000000"/>
      <sparseX i="694" alpha="-551.57198113783579" sparseCutoff="1.0000000000000000"/>
      <sparseX i="695" alpha="96.424985511143433" sparseCutoff="1.0000000000000000"/>
      <sparseX i="696" alpha="-231.61384335077719" sparseCutoff="1.0000000000000000"/>
      <sparseX i="697" alpha="-1239.4964070510521" sparseCutoff="1.0000000000000000"/>
      <sparseX i="698" alpha="193.65913193422148" sparseCutoff="1.0000000000000000"/>
      <sparseX i="699" alpha="2100.5387433177370" sparseCutoff="1.0000000000000000"/>
      <sparseX i="700" alpha="-28.026067258657637" sparseCutoff="1.0000000000000000"/>
      <sparseX i="701" alpha="47.159387805078389" sparseCutoff="1.0000000000000000"/>
      <sparseX i="702" alpha="70.052125552428393" sparseCutoff="1.0000000000000000"/>
      <sparseX i="703" alpha="-988.87913897752094" sparseCutoff="1.0000000000000000"/>
      <sparseX i="704" alpha="660.19534097430721" sparseCutoff="1.0000000000000000"/>
      <sparseX i="705" alpha="313.53054629856985" sparseCutoff="1.0000000000000000"/>
      <sparseX i="706" alpha="-600.07296110151890" sparseCutoff="1.0000000000000000"/>
      <sparseX i="707" alpha="-55.929967711897788" sparseCutoff="1.0000000000000000"/>
      <sparseX i="708" alpha="-474.17279923540457" sparseCutoff="1.0000000000000000"/>
      <sparseX i="709" alpha="-119.19610192907783" sparseCutoff="1.0000000000000000"/>
      <sparseX i="710" alpha="-4138.3834340983221" sparseCutoff="1.0000000000000000"/>
      <sparseX i="711" alpha="-382.42183237093388" sparseCutoff="1.0000000000000000"/>
      <sparseX i="712" alpha="39.558504746163763" sparseCutoff="1.0000000000000000"/>
      <sparseX i="713" alpha="-2685.7056189872837" sparseCutoff="1.0000000000000000"/>
      <sparseX i="714" alpha="-45.280216256478568" sparseCutoff="1.0000000000000000"/>
      <sparseX i="715" alpha="-185.22559934687499" sparseCutoff="1.0000000000000000"/>
      <sparseX i="716" alpha="1318.5933063379391" sparseCutoff="1.0000000000000000"/>
      <sparseX i="717" alpha="731.81890228680061" sparseCutoff="1.0000000000000000"/>
      <sparseX i="718" alpha="14913.928314484036" sparseCutoff="1.0000000000000000"/>
      <sparseX i="719" alpha="-7294.6418780185704" sparseCutoff="1.0000000000000000"/>
      <sparseX i="720" alpha="-7227.7129323682075" sparseCutoff="1.0000000000000000"/>
      <sparseX i="721" alpha="-5444.2772409446106" sparseCutoff="1.0000000000000000"/>
      <sparseX i="722" alpha="14099.936275878839" sparseCutoff="1.0000000000000000"/>
      <sparseX i="723" alpha="111.95590038040362" sparseCutoff="1.0000000000000000"/>
      <sparseX i="724" alpha="585.06085757744120" sparseCutoff="1.0000000000000000"/>
      <sparseX i="725" alpha="-304.39724284412824" sparseCutoff="1.0000000000000000"/>
      <sparseX i="726" alpha="-155.08086190656789" sparseCutoff="1.0000000000000000"/>
      <sparseX i="727" alpha="-107.82234305766677" sparseCutoff="1.0000000000000000"/>
      <sparseX i="728" alpha="-51.611904293609818" sparseCutoff="1.0000000000000000"/>
      <sparseX i="729" alpha="-67.382331528175300" sparseCutoff="1.0000000000000000"/>
      <sparseX i="730" alpha="546.22065131467582" sparseCutoff="1.0000000000000000"/>
      <sparseX i="731" alpha="212.38236828441799" sparseCutoff="1.0000000000000000"/>
      <sparseX i="732" alpha="-2042.8160195206451" sparseCutoff="1.0000000000000000"/>
      <sparseX i="733" alpha="2152.5297986764108" sparseCutoff="1.0000000000000000"/>
      <sparseX i="734" alpha="-576.00765028369824" sparseCutoff="1.0000000000000000"/>
      <sparseX i="735" alpha="931.20056306425113" sparseCutoff="1.0000000000000000"/>
      <sparseX i="736" alpha="104.94833815483426" sparseCutoff="1.0000000000000000"/>
      <sparseX i="737" alpha="107.30065157716079" sparseCutoff="1.0000000000000000"/>
      <sparseX i="738" alpha="-15724.331712404264" sparseCutoff="1.0000000000000000"/>
      <sparseX i="739" alpha="7353.5347570375352" sparseCutoff="1.0000000000000000"/>
      <sparseX i="740" alpha="749.52150404720840" sparseCutoff="1.0000000000000000"/>
      <sparseX i="741" alpha="609.05414605837984" sparseCutoff="1.0000000000000000"/>
      <sparseX i="742" alpha="-1118.1700094047405" sparseCutoff="1.0000000000000000"/>
      <sparseX i="743" alpha="-214.52906163100275" sparseCutoff="1.0000000000000000"/>
      <sparseX i="744" alpha="-225.70325311984411" sparseCutoff="1.0000000000000000"/>
      <sparseX i="745" alpha="-22.028143424526434" sparseCutoff="1.0000000000000000"/>
      <sparseX i="746" alpha="-308.66611158061818" sparseCutoff="1.0000000000000000"/>
      <sparseX i="747" alpha="-1635.2240156232476" sparseCutoff="1.0000000000000000"/>
      <sparseX i="748" alpha="-1927.5771807642604" sparseCutoff="1.0000000000000000"/>
      <sparseX i="749" alpha="-3671.8584804502739" sparseCutoff="1.0000000000000000"/>
      <sparseX i="750" alpha="10783.621104558022" sparseCutoff="1.0000000000000000"/>
      <sparseX i="751" alpha="-637.99998009251465" sparseCutoff="1.0000000000000000"/>
      <sparseX i="752" alpha="96.026186962807401" sparseCutoff="1.0000000000000000"/>
      <sparseX i="753" alpha="1004.6319830175328" sparseCutoff="1.0000000000000000"/>
      <sparseX i="754" alpha="158.96670874313051" sparseCutoff="1.0000000000000000"/>
      <sparseX i="755" alpha="34.611058005765557" sparseCutoff="1.0000000000000000"/>
      <sparseX i="756" alpha="1258.8222389605974" sparseCutoff="1.0000000000000000"/>
      <sparseX i="757" alpha="-793.28801940661390" sparseCutoff="1.0000000000000000"/>
      <sparseX i="758" alpha="31734.801292181048" sparseCutoff="1.0000000000000000"/>
      <sparseX i="759" alpha="-30913.689927664742" sparseCutoff="1.0000000000000000"/>
      <sparseX i="760" alpha="10420.342512995810" sparseCutoff="1.0000000000000000"/>
      <sparseX i="761" alpha="7400.6325538748742" sparseCutoff="1.0000000000000000"/>
      <sparseX i="762" alpha="501.28154780027694" sparseCutoff="1.0000000000000000"/>
      <sparseX i="763" alpha="1614.0425534837873" sparseCutoff="1.0000000000000000"/>
      <sparseX i="764" alpha="82.522961490894787" sparseCutoff="1.0000000000000000"/>
      <sparseX i="765" alpha="-695.31538709569838" sparseCutoff="1.0000000000000000"/>
      <sparseX i="766" alpha="-807.70091289845527" sparseCutoff="1.0000000000000000"/>
      <sparseX i="767" alpha="-333.35772101843583" sparseCutoff="1.0000000000000000"/>
      <sparseX i="768" alpha="-1502.1590000932135" sparseCutoff="1.0000000000000000"/>
      <sparseX i="769" alpha="724.84223742718120" sparseCutoff="1.0000000000000000"/>
      <sparseX i="770" alpha="-17059.148572384369" sparseCutoff="1.0000000000000000"/>
      <sparseX i="771" alpha="16517.139780413767" sparseCutoff="1.0000000000000000"/>
      <sparseX i="772" alpha="-31.934290188839885" sparseCutoff="1.0000000000000000"/>
      <sparseX i="773" alpha="-9609.8951874256072" sparseCutoff="1.0000000000000000"/>
      <sparseX i="774" alpha="1444.8739353434692" sparseCutoff="1.0000000000000000"/>
      <sparseX i="775" alpha="335.46110666748024" sparseCutoff="1.0000000000000000"/>
      <sparseX i="776" alpha="2504.7341777422989" sparseCutoff="1.0000000000000000"/>
      <sparseX i="777" alpha="872.11769849508323" sparseCutoff="1.0000000000000000"/>
      <sparseX i="778" alpha="70.144790785773026" sparseCutoff="1.0000000000000000"/>
      <sparseX i="779" alpha="7181.0746372358099" sparseCutoff="1.0000000000000000"/>
      <sparseX i="780" alpha="-1839.6893772715373" sparseCutoff="1.0000000000000000"/>
      <sparseX i="781" alpha="3355.8501876497185" sparseCutoff="1.0000000000000000"/>
      <sparseX i="782" alpha="71.646872659636287" sparseCutoff="1.0000000000000000"/>
      <sparseX i="783" alpha="-410.34179041954854" sparseCutoff="1.0000000000000000"/>
      <sparseX i="784" alpha="-77.689785560032107" sparseCutoff="1.0000000000000000"/>
      <sparseX i="785" alpha="-320.77009431661270" sparseCutoff="1.0000000000000000"/>
      <sparseX i="786" alpha="-621.60221012790430" sparseCutoff="1.0000000000000000"/>
      <sparseX i="787" alpha="-1151.1644696272256" sparseCutoff="1.0000000000000000"/>
      <sparseX i="788" alpha="-233.58001147251701" sparseCutoff="1.0000000000000000"/>
      <sparseX i="789" alpha="-1776.3988167911302" sparseCutoff="1.0000000000000000"/>
      <sparseX i="790" alpha="-617.00932455483371" sparseCutoff="1.0000000000000000"/>
      <sparseX i="791" alpha="-468.05157534945619" sparseCutoff="1.0000000000000000"/>
      <sparseX i="792" alpha="637.12353698535264" sparseCutoff="1.0000000000000000"/>
      <sparseX i="793" alpha="-268.48404521271021" sparseCutoff="1.0000000000000000"/>
      <sparseX i="794" alpha="-276.44613645129550" sparseCutoff="1.0000000000000000"/>
      <sparseX i="795" alpha="474.04758285204451" sparseCutoff="1.0000000000000000"/>
      <sparseX i="796" alpha="-235.82071334736548" sparseCutoff="1.0000000000000000"/>
      <sparseX i="797" alpha="-43.946181570044864" sparseCutoff="1.0000000000000000"/>
      <sparseX i="798" alpha="101.46825207140353" sparseCutoff="1.0000000000000000"/>
      <sparseX i="799" alpha="-91.952832020693847" sparseCutoff="1.0000000000000000"/>
      <sparseX i="800" alpha="661.17377228399539" sparseCutoff="1.0000000000000000"/>
      <sparseX i="801" alpha="-864.87556438026547" sparseCutoff="1.0000000000000000"/>
      <sparseX i="802" alpha="960.04129324643111" sparseCutoff="1.0000000000000000"/>
      <sparseX i="803" alpha="135.92317784671638" sparseCutoff="1.0000000000000000"/>
      <sparseX i="804" alpha="-68.829628864621242" sparseCutoff="1.0000000000000000"/>
      <sparseX i="805" alpha="1434.7552289848886" sparseCutoff="1.0000000000000000"/>
      <sparseX i="806" alpha="-76.541601622471276" sparseCutoff="1.0000000000000000"/>
      <sparseX i="807" alpha="353.68416603794935" sparseCutoff="1.0000000000000000"/>
      <sparseX i="808" alpha="-545.60860567969394" sparseCutoff="1.0000000000000000"/>
      <sparseX i="809" alpha="90.184652325330376" sparseCutoff="1.0000000000000000"/>
      <sparseX i="810" alpha="-3154.6742415705762" sparseCutoff="1.0000000000000000"/>
      <sparseX i="811" alpha="8987.9334008647311" sparseCutoff="1.0000000000000000"/>
      <sparseX i="812" alpha="-845.73613053729025" sparseCutoff="1.0000000000000000"/>
      <sparseX i="813" alpha="-3945.0038797928796" sparseCutoff="1.0000000000000000"/>
      <sparseX i="814" alpha="-501.62212552701021" sparseCutoff="1.0000000000000000"/>
      <sparseX i="815" alpha="327.58088621993340" sparseCutoff="1.0000000000000000"/>
      <sparseX i="816" alpha="842.55786195986923" sparseCutoff="1.0000000000000000"/>
      <sparseX i="817" alpha="-523.36462744579012" sparseCutoff="1.0000000000000000"/>
      <sparseX i="818" alpha="-2270.5917062307026" sparseCutoff="1.0000000000000000"/>
      <sparseX i="819" alpha="-227.60270758638518" sparseCutoff="1.0000000000000000"/>
      <sparseX i="820" alpha="-2732.8761992414147" sparseCutoff="1.0000000000000000"/>
      <sparseX i="821" alpha="965.07492903603520" sparseCutoff="1.0000000000000000"/>
      <sparseX i="822" alpha="95.480224220447468" sparseCutoff="1.0000000000000000"/>
      <sparseX i="823" alpha="-1589.9157528232058" sparseCutoff="1.0000000000000000"/>
      <sparseX i="824" alpha="6.0212118255322098" sparseCutoff="1.0000000000000000"/>
      <sparseX i="825" alpha="688.28535998772918" sparseCutoff="1.0000000000000000"/>
      <sparseX i="826" alpha="952.95309153043718" sparseCutoff="1.0000000000000000"/>
      <sparseX i="827" alpha="-63.530090335775256" sparseCutoff="1.0000000000000000"/>
      <sparseX i="828" alpha="-28.343491123071267" sparseCutoff="1.0000000000000000"/>
      <sparseX i="829" alpha="-214.14294859844171" sparseCutoff="1.0000000000000000"/>
      <sparseX i="830" alpha="-171.91759169602915" sparseCutoff="1.0000000000000000"/>
      <sparseX i="831" alpha="582.95721181602619" sparseCutoff="1.0000000000000000"/>
      <sparseX i="832" alpha="878.92056265191604" sparseCutoff="1.0000000000000000"/>
      <sparseX i="833" alpha="-643.33346130858160" sparseCutoff="1.0000000000000000"/>
      <sparseX i="834" alpha="263.36291768548710" sparseCutoff="1.0000000000000000"/>
      <sparseX i="835" alpha="-921.68695109731107" sparseCutoff="1.0000000000000000"/>
      <sparseX i="836" alpha="580.23231572440739" sparseCutoff="1.0000000000000000"/>
      <sparseX i="837" alpha="510.43862491599214" sparseCutoff="1.0000000000000000"/>
      <sparseX i="838" alpha="112.45913497050830" sparseCutoff="1.0000000000000000"/>
      <sparseX i="839" alpha="-441.36656051683696" sparseCutoff="1.0000000000000000"/>
      <sparseX i="840" alpha="-11702.333537009283" sparseCutoff="1.0000000000000000"/>
      <sparseX i="841" alpha="2134.4511469058452" sparseCutoff="1.0000000000000000"/>
      <sparseX i="842" alpha="575.37341817343645" sparseCutoff="1.0000000000000000"/>
      <sparseX i="843" alpha="138851.16902081892" sparseCutoff="1.0000000000000000"/>
      <sparseX i="844" alpha="-53.665903696390927" sparseCutoff="1.0000000000000000"/>
      <sparseX i="845" alpha="176.18613796201299" sparseCutoff="1.0000000000000000"/>
      <sparseX i="846" alpha="-113.18266869759178" sparseCutoff="1.0000000000000000"/>
      <sparseX i="847" alpha="640.71227473723661" sparseCutoff="1.0000000000000000"/>
      <sparseX i="848" alpha="97542.541035161863" sparseCutoff="1.0000000000000000"/>
      <sparseX i="849" alpha="-47991.369426815225" sparseCutoff="1.0000000000000000"/>
      <sparseX i="850" alpha="-49787.991285049022" sparseCutoff="1.0000000000000000"/>
      <sparseX i="851" alpha="122.94450349988776" sparseCutoff="1.0000000000000000"/>
      <sparseX i="852" alpha="-197.64706778030043" sparseCutoff="1.0000000000000000"/>
      <sparseX i="853" alpha="1798.8886305629901" sparseCutoff="1.0000000000000000"/>
      <sparseX i="854" alpha="330.62427908596135" sparseCutoff="1.0000000000000000"/>
      <sparseX i="855" alpha="-58.176535024863853" sparseCutoff="1.0000000000000000"/>
      <sparseX i="856" alpha="557.25474567246397" sparseCutoff="1.0000000000000000"/>
      <sparseX i="857" alpha="-1320.7469111844321" sparseCutoff="1.0000000000000000"/>
      <sparseX i="858" alpha="677.17377095137545" sparseCutoff="1.0000000000000000"/>
      <sparseX i="859" alpha="38.940776732701501" sparseCutoff="1.0000000000000000"/>
      <sparseX i="860" alpha="-1229.7513826808099" sparseCutoff="1.0000000000000000"/>
      <sparseX i="861" alpha="4122.8985521660716" sparseCutoff="1.0000000000000000"/>
      <sparseX i="862" alpha="5.1274296315480727" sparseCutoff="1.0000000000000000"/>
      <sparseX i="863" alpha="1208.3444301375150" sparseCutoff="1.0000000000000000"/>
      <sparseX i="864" alpha="1034.1711993300660" sparseCutoff="1.0000000000000000"/>
      <sparseX i="865" alpha="-369.16388303829575" sparseCutoff="1.0000000000000000"/>
      <sparseX i="866" alpha="-55.362976228968833" sparseCutoff="1.0000000000000000"/>
      <sparseX i="867" alpha="420.65699996831836" sparseCutoff="1.0000000000000000"/>
      <sparseX i="868" alpha="-770.34850709122986" sparseCutoff="1.0000000000000000"/>
      <sparseX i="869" alpha="-1120.4842852859372" sparseCutoff="1.0000000000000000"/>
      <sparseX i="870" alpha="245.16665615576588" sparseCutoff="1.0000000000000000"/>
      <sparseX i="871" alpha="146.80262660526873" sparseCutoff="1.0000000000000000"/>
      <sparseX i="872" alpha="249.20340799320243" sparseCutoff="1.0000000000000000"/>
      <sparseX i="873" alpha="8991.8840426629449" sparseCutoff="1.0000000000000000"/>
      <sparseX i="874" alpha="2537.6616922934340" sparseCutoff="1.0000000000000000"/>
      <sparseX i="875" alpha="-38283.367371645218" sparseCutoff="1.0000000000000000"/>
      <sparseX i="876" alpha="-1763.8297506073563" sparseCutoff="1.0000000000000000"/>
      <sparseX i="877" alpha="5573.8530737490291" sparseCutoff="1.0000000000000000"/>
      <sparseX i="878" alpha="-3510.5774016111368" sparseCutoff="1.0000000000000000"/>
      <sparseX i="879" alpha="-3056.0194255831752" sparseCutoff="1.0000000000000000"/>
      <sparseX i="880" alpha="-228.86321437981152" sparseCutoff="1.0000000000000000"/>
      <sparseX i="881" alpha="-265.38630631246252" sparseCutoff="1.0000000000000000"/>
      <sparseX i="882" alpha="1722.2927142661254" sparseCutoff="1.0000000000000000"/>
      <sparseX i="883" alpha="734.62125466094426" sparseCutoff="1.0000000000000000"/>
      <sparseX i="884" alpha="-4421.5716802481975" sparseCutoff="1.0000000000000000"/>
      <sparseX i="885" alpha="507.11510769313350" sparseCutoff="1.0000000000000000"/>
      <sparseX i="886" alpha="-1832.3056007628720" sparseCutoff="1.0000000000000000"/>
      <sparseX i="887" alpha="-37.367326443937415" sparseCutoff="1.0000000000000000"/>
      <sparseX i="888" alpha="966.06189367563616" sparseCutoff="1.0000000000000000"/>
      <sparseX i="889" alpha="-490.89887366579512" sparseCutoff="1.0000000000000000"/>
      <sparseX i="890" alpha="1370.3751858089145" sparseCutoff="1.0000000000000000"/>
      <sparseX i="891" alpha="7456.5488647126831" sparseCutoff="1.0000000000000000"/>
      <sparseX i="892" alpha="1446.2697240067928" sparseCutoff="1.0000000000000000"/>
      <sparseX i="893" alpha="5981.7320834579668" sparseCutoff="1.0000000000000000"/>
      <sparseX i="894" alpha="52.919216535159173" sparseCutoff="1.0000000000000000"/>
      <sparseX i="895" alpha="-95.985870235393762" sparseCutoff="1.0000000000000000"/>
      <sparseX i="896" alpha="224.55673714935867" sparseCutoff="1.0000000000000000"/>
      <sparseX i="897" alpha="-308.81172504469077" sparseCutoff="1.0000000000000000"/>
      <sparseX i="898" alpha="-650.80809724876156" sparseCutoff="1.0000000000000000"/>
      <sparseX i="899" alpha="677.97345928855634" sparseCutoff="1.0000000000000000"/>
      <sparseX i="900" alpha="2086.5550795824643" sparseCutoff="1.0000000000000000"/>
      <sparseX i="901" alpha="-382.88760869692925" sparseCutoff="1.0000000000000000"/>
      <sparseX i="902" alpha="-2764.9684105944207" sparseCutoff="1.0000000000000000"/>
      <sparseX i="903" alpha="70.129456798490622" sparseCutoff="1.0000000000000000"/>
      <sparseX i="904" alpha="-436.25771967399015" sparseCutoff="1.0000000000000000"/>
      <sparseX i="905" alpha="318.15495242911788" sparseCutoff="1.0000000000000000"/>
      <sparseX i="906" alpha="-257.87485739207739" sparseCutoff="1.0000000000000000"/>
      <sparseX i="907" alpha="-481.41763966881456" sparseCutoff="1.0000000000000000"/>
      <sparseX i="908" alpha="-4126.9982388661292" sparseCutoff="1.0000000000000000"/>
      <sparseX i="909" alpha="-15537.513458050662" sparseCutoff="1.0000000000000000"/>
      <sparseX i="910" alpha="1117.2995275671990" sparseCutoff="1.0000000000000000"/>
      <sparseX i="911" alpha="4296.0878842674183" sparseCutoff="1.0000000000000000"/>
      <sparseX i="912" alpha="-79.226405967072694" sparseCutoff="1.0000000000000000"/>
      <sparseX i="913" alpha="43.973132780990021" sparseCutoff="1.0000000000000000"/>
      <sparseX i="914" alpha="-277.25469196623197" sparseCutoff="1.0000000000000000"/>
      <sparseX i="915" alpha="1211.7667228505400" sparseCutoff="1.0000000000000000"/>
      <sparseX i="916" alpha="113.33479627051915" sparseCutoff="1.0000000000000000"/>
      <sparseX i="917" alpha="129.49669690494574" sparseCutoff="1.0000000000000000"/>
      <sparseX i="918" alpha="3.2924232144732204" sparseCutoff="1.0000000000000000"/>
      <sparseX i="919" alpha="-273.04413388889026" sparseCutoff="1.0000000000000000"/>
      <sparseX i="920" alpha="494.51270791414049" sparseCutoff="1.0000000000000000"/>
      <sparseX i="921" alpha="48.498213823980194" sparseCutoff="1.0000000000000000"/>
      <sparseX i="922" alpha="970.55724794979585" sparseCutoff="1.0000000000000000"/>
      <sparseX i="923" alpha="-581.09723522536660" sparseCutoff="1.0000000000000000"/>
      <sparseX i="924" alpha="-391.36886903357652" sparseCutoff="1.0000000000000000"/>
      <sparseX i="925" alpha="-278.49837097727283" sparseCutoff="1.0000000000000000"/>
      <sparseX i="926" alpha="2271.4168101074661" sparseCutoff="1.0000000000000000"/>
      <sparseX i="927" alpha="-70.431427688024328" sparseCutoff="1.0000000000000000"/>
      <sparseX i="928" alpha="-890.89385437949772" sparseCutoff="1.0000000000000000"/>
      <sparseX i="929" alpha="-210.17125562679294" sparseCutoff="1.0000000000000000"/>
      <sparseX i="930" alpha="9046.0293282236889" sparseCutoff="1.0000000000000000"/>
      <sparseX i="931" alpha="4129.3962982916546" sparseCutoff="1.0000000000000000"/>
      <sparseX i="932" alpha="701.25036517784986" sparseCutoff="1.0000000000000000"/>
      <sparseX i="933" alpha="-2305.7217371119818" sparseCutoff="1.0000000000000000"/>
      <sparseX i="934" alpha="-92.781433783761898" sparseCutoff="1.0000000000000000"/>
      <sparseX i="935" alpha="-1744.4399202028460" sparseCutoff="1.0000000000000000"/>
      <sparseX i="936" alpha="-2251.0654713355957" sparseCutoff="1.0000000000000000"/>
      <sparseX i="937" alpha="-41.987610355037312" sparseCutoff="1.0000000000000000"/>
      <sparseX i="938" alpha="-6412.2539223187878" sparseCutoff="1.0000000000000000"/>
      <sparseX i="939" alpha="-2126.8905210741750" sparseCutoff="1.0000000000000000"/>
      <sparseX i="940" alpha="732.77458636936262" sparseCutoff="1.0000000000000000"/>
      <sparseX i="941" alpha="292.07077015781152" sparseCutoff="1.0000000000000000"/>
      <sparseX i="942" alpha="422.71653844946286" sparseCutoff="1.0000000000000000"/>
      <sparseX i="943" alpha="232.17508318819270" sparseCutoff="1.0000000000000000"/>
      <sparseX i="944" alpha="-1279.3917423156945" sparseCutoff="1.0000000000000000"/>
